{"learner":{"attributes":{"best_iteration":"99","best_ntree_limit":"100","scikit_learn":"{\"n_estimators\": 100, \"objective\": \"reg:squarederror\", \"max_depth\": 5, \"max_leaves\": null, \"max_bin\": null, \"grow_policy\": null, \"learning_rate\": null, \"verbosity\": null, \"booster\": null, \"tree_method\": null, \"gamma\": null, \"min_child_weight\": null, \"max_delta_step\": null, \"subsample\": null, \"sampling_method\": null, \"colsample_bytree\": null, \"colsample_bylevel\": null, \"colsample_bynode\": null, \"reg_alpha\": null, \"reg_lambda\": null, \"scale_pos_weight\": null, \"base_score\": null, \"missing\": NaN, \"num_parallel_tree\": null, \"random_state\": null, \"n_jobs\": null, \"monotone_constraints\": null, \"interaction_constraints\": null, \"importance_type\": null, \"gpu_id\": null, \"validate_parameters\": null, \"predictor\": null, \"enable_categorical\": false, \"max_cat_to_onehot\": null, \"eval_metric\": null, \"early_stopping_rounds\": null, \"callbacks\": null, \"_estimator_type\": \"regressor\"}"},"feature_names":[],"feature_types":[],"gradient_booster":{"model":{"gbtree_model_param":{"num_parallel_tree":"1","num_trees":"100","size_leaf_vector":"0"},"tree_info":[0,0,0,0,0,0,0,0,0,0,0,0,0,0,0,0,0,0,0,0,0,0,0,0,0,0,0,0,0,0,0,0,0,0,0,0,0,0,0,0,0,0,0,0,0,0,0,0,0,0,0,0,0,0,0,0,0,0,0,0,0,0,0,0,0,0,0,0,0,0,0,0,0,0,0,0,0,0,0,0,0,0,0,0,0,0,0,0,0,0,0,0,0,0,0,0,0,0,0,0],"trees":[{"base_weights":[2.5361764E-1,-5.156928E-2,3.0403727E-1,-2.0725948E-1,1.2778199E-1,1.8924212E-1,3.901999E-1,-3.078073E-1,-1.15736835E-1,-7.3928654E-2,2.3224226E-1,8.186121E-2,2.4060589E-1,2.941593E-1,4.1513294E-1,-3.6638805E-1,-2.5495622E-1,-2.1576145E-1,-4.339921E-2,-1.830596E-1,-1.8224334E-3,2.5181684E-1,-1.5901071E-1,-3.1232718E-2,1.9512695E-1,1.481742E-1,3.0066812E-1,1.4945951E-1,3.5949975E-1,4.2099142E-1,1.5232512E-1,-3.888744E-1,-3.0763307E-1,-2.1470597E-1,-3.6822954E-1,-2.5698495E-1,-1.5706019E-1,-1.9378185E-1,-1.7822176E-2,-2.9117134E-1,-1.08683884E-1,2.4864702E-2,-3.4805754E-1,1.5667495E-1,2.9998595E-1,-2.0529783E-1,7.397338E-2,1.7370421E-2,-1.8062204E-1,2.1663953E-1,6.3641794E-2,6.014344E-2,2.2408989E-1,3.1720433E-1,1.8667623E-1,1.7292829E-1,-1.8058689E-1,1.333956E-1,3.7979838E-1,3.6945057E-1,4.361402E-1,7.158326E-2,2.6093885E-1],"categories":[],"categories_nodes":[],"categories_segments":[],"categories_sizes":[],"default_left":[1,1,1,1,1,1,1,1,1,1,1,1,1,1,1,1,1,1,1,1,1,1,1,1,1,1,1,1,1,1,1,0,0,0,0,0,0,0,0,0,0,0,0,0,0,0,0,0,0,0,0,0,0,0,0,0,0,0,0,0,0,0,0],"id":0,"left_children":[1,3,5,7,9,11,13,15,17,19,21,23,25,27,29,31,33,35,37,39,41,43,45,47,49,51,53,55,57,59,61,-1,-1,-1,-1,-1,-1,-1,-1,-1,-1,-1,-1,-1,-1,-1,-1,-1,-1,-1,-1,-1,-1,-1,-1,-1,-1,-1,-1,-1,-1,-1,-1],"loss_changes":[1.271268E6,3.270898E5,7.013095E5,5.770428E4,1.14694875E5,1.67674E5,9.6987E4,9.2508125E3,2.3751465E4,1.4614102E4,2.7465016E4,1.2600194E5,1.14164625E5,7.8926125E4,4.95075E4,1.8722031E3,7.1616484E3,3.3337148E3,7.3271006E3,5.94126E3,1.0332988E4,1.5651844E4,1.8426943E3,3.573739E4,1.3901094E4,5.4128297E4,2.3495625E4,2.0114867E4,2.6394312E4,2.45585E4,6.148998E3,0E0,0E0,0E0,0E0,0E0,0E0,0E0,0E0,0E0,0E0,0E0,0E0,0E0,0E0,0E0,0E0,0E0,0E0,0E0,0E0,0E0,0E0,0E0,0E0,0E0,0E0,0E0,0E0,0E0,0E0,0E0,0E0],"parents":[2147483647,0,0,1,1,2,2,3,3,4,4,5,5,6,6,7,7,8,8,9,9,10,10,11,11,12,12,13,13,14,14,15,15,16,16,17,17,18,18,19,19,20,20,21,21,22,22,23,23,24,24,25,25,26,26,27,27,28,28,29,29,30,30],"right_children":[2,4,6,8,10,12,14,16,18,20,22,24,26,28,30,32,34,36,38,40,42,44,46,48,50,52,54,56,58,60,62,-1,-1,-1,-1,-1,-1,-1,-1,-1,-1,-1,-1,-1,-1,-1,-1,-1,-1,-1,-1,-1,-1,-1,-1,-1,-1,-1,-1,-1,-1,-1,-1],"split_conditions":[3.45E1,5E-1,5E-1,4.5772047E0,4.6989746E0,5.25E1,4.6058974E0,2.65E1,2.75E1,2.75E1,5E-1,4.6532803E0,4.4014435E0,5.55E1,5E-1,4.4577303E0,5E-1,2.55E1,-1.9561664E6,4.4690847E0,5E-1,4.8543367E0,5.1804104E0,5E-1,5E-1,5E-1,5E-1,5E-1,5E-1,4.55E1,5.025572E0,-1.1666233E-1,-9.2289925E-2,-6.44118E-2,-1.10468864E-1,-7.7095486E-2,-4.711806E-2,-5.813456E-2,-5.346653E-3,-8.7351404E-2,-3.2605167E-2,7.459411E-3,-1.04417264E-1,4.7002487E-2,8.999579E-2,-6.158935E-2,2.2192014E-2,5.2111265E-3,-5.4186616E-2,6.499186E-2,1.909254E-2,1.8043034E-2,6.722697E-2,9.5161304E-2,5.6002874E-2,5.187849E-2,-5.417607E-2,4.001868E-2,1.13939516E-1,1.1083517E-1,1.3084207E-1,2.147498E-2,7.8281656E-2],"split_indices":[61,56,56,65,65,61,65,61,61,61,4,65,65,61,4,65,63,61,67,65,4,65,65,63,63,57,63,4,0,61,65,0,0,0,0,0,0,0,0,0,0,0,0,0,0,0,0,0,0,0,0,0,0,0,0,0,0,0,0,0,0,0,0],"split_type":[0,0,0,0,0,0,0,0,0,0,0,0,0,0,0,0,0,0,0,0,0,0,0,0,0,0,0,0,0,0,0,0,0,0,0,0,0,0,0,0,0,0,0,0,0,0,0,0,0,0,0,0,0,0,0,0,0,0,0,0,0,0,0],"sum_hessian":[8.261736E7,1.1713892E7,7.090347E7,6.270571E6,5.443321E6,3.0400564E7,4.0502908E7,2.987961E6,3.28261E6,1.857168E6,3.586153E6,9.836471E6,2.0564092E7,8.347777E6,3.2155132E7,1.417159E6,1.570802E6,1.377657E6,1.904953E6,7.38884E5,1.118284E6,3.415285E6,1.70868E5,4.921969E6,4.914502E6,8.099506E6,1.2464586E7,2.596873E6,5.750904E6,3.1453964E7,7.01167E5,1.024907E6,3.92252E5,1.158977E6,4.11825E5,8.09309E5,5.68348E5,2.76898E5,1.628055E6,3.01143E5,4.37741E5,1.038258E6,8.0026E4,1.147933E6,2.267352E6,1.42548E5,2.832E4,3.713726E6,1.208243E6,4.223487E6,6.91015E5,3.750491E6,4.349015E6,1.0885484E7,1.579102E6,2.424475E6,1.72398E5,4.73759E5,5.277145E6,7.14489E6,2.4309074E7,4.02188E5,2.98979E5],"tree_param":{"num_deleted":"0","num_feature":"69","num_nodes":"63","size_leaf_vector":"0"}},{"base_weights":[1.7753235E-1,-6.5467134E-2,2.0938967E-1,-1.6078202E-1,5.9556104E-2,1.277624E-1,2.7038512E-1,-2.0943277E-1,-6.899067E-2,-1.278178E-1,1.1787496E-1,9.06171E-3,1.6006185E-1,2.2498254E-1,3.0332705E-1,-2.630928E-1,-1.7239822E-1,-4.7309726E-2,-1.9806586E-1,-1.09859444E-1,-3.0083454E-1,-6.442878E-2,1.4318117E-1,-1.2093852E-1,6.615435E-2,1.0442025E-1,2.2105533E-1,1.2084506E-1,2.64261E-1,3.0758515E-1,1.2584767E-1,-2.4599779E-1,-3.16462E-1,-2.3204853E-1,-1.3625248E-1,-1.263614E-1,-5.709393E-3,-3.0361253E-1,-1.1219352E-1,-1.946879E-1,-7.247796E-2,-3.220451E-1,-1.7400154E-1,-1.645595E-1,3.3505462E-2,-2.3715885E-2,1.6977634E-1,-8.263197E-2,-2.151003E-1,1.680852E-2,1.3550399E-1,4.549053E-2,1.7220506E-1,1.9591282E-1,2.7953318E-1,1.4676727E-1,-7.9981185E-2,1.5192331E-1,2.7857345E-1,1.3176007E-2,3.097374E-1,1.6443588E-2,1.9916718E-1],"categories":[],"categories_nodes":[],"categories_segments":[],"categories_sizes":[],"default_left":[1,1,1,1,1,1,1,1,1,1,1,1,1,1,1,1,1,1,1,1,1,1,1,1,1,1,1,1,1,1,1,0,0,0,0,0,0,0,0,0,0,0,0,0,0,0,0,0,0,0,0,0,0,0,0,0,0,0,0,0,0,0,0],"id":1,"left_children":[1,3,5,7,9,11,13,15,17,19,21,23,25,27,29,31,33,35,37,39,41,43,45,47,49,51,53,55,57,59,61,-1,-1,-1,-1,-1,-1,-1,-1,-1,-1,-1,-1,-1,-1,-1,-1,-1,-1,-1,-1,-1,-1,-1,-1,-1,-1,-1,-1,-1,-1,-1,-1],"loss_changes":[6.3956675E5,1.1411052E5,3.63666E5,2.4264219E4,4.526511E4,1.1976428E5,6.2524E4,7.0572344E3,5.267301E3,3.055005E3,1.4574215E4,4.959309E4,8.3337E4,7.1898375E4,1.830825E4,1.3229297E3,4.530199E3,5.2996084E3,2.4533672E3,2.8246865E3,2.4867773E2,3.776109E3,1.2312922E4,7.3547246E3,1.588833E4,5.1295094E4,1.7223625E4,2.5061516E4,2.0521312E4,1.499125E4,4.553158E3,0E0,0E0,0E0,0E0,0E0,0E0,0E0,0E0,0E0,0E0,0E0,0E0,0E0,0E0,0E0,0E0,0E0,0E0,0E0,0E0,0E0,0E0,0E0,0E0,0E0,0E0,0E0,0E0,0E0,0E0,0E0,0E0],"parents":[2147483647,0,0,1,1,2,2,3,3,4,4,5,5,6,6,7,7,8,8,9,9,10,10,11,11,12,12,13,13,14,14,15,15,16,16,17,17,18,18,19,19,20,20,21,21,22,22,23,23,24,24,25,25,26,26,27,27,28,28,29,29,30,30],"right_children":[2,4,6,8,10,12,14,16,18,20,22,24,26,28,30,32,34,36,38,40,42,44,46,48,50,52,54,56,58,60,62,-1,-1,-1,-1,-1,-1,-1,-1,-1,-1,-1,-1,-1,-1,-1,-1,-1,-1,-1,-1,-1,-1,-1,-1,-1,-1,-1,-1,-1,-1,-1,-1],"split_conditions":[3.25E1,5E-1,5E-1,4.699361E0,4.592066E0,4.65E1,4.8129168E0,4.396409E0,1.7989152E6,5E-1,-1.693405E6,4.491011E0,4.544626E0,5.05E1,5E-1,5E-1,2.55E1,-6.440364E4,1.8357742E6,2.5E0,3.15E1,4.9085064E0,2.55E1,5E-1,4.8252964E0,5E-1,5E-1,5E-1,4.3064356E0,1.5E0,4.15E1,-7.379934E-2,-9.4938606E-2,-6.961456E-2,-4.0875744E-2,-3.790842E-2,-1.7128179E-3,-9.1083765E-2,-3.3658057E-2,-5.840637E-2,-2.1743389E-2,-9.6613534E-2,-5.2200466E-2,-4.9367853E-2,1.0051639E-2,-7.1147657E-3,5.0932903E-2,-2.4789592E-2,-6.45301E-2,5.0425557E-3,4.06512E-2,1.364716E-2,5.166152E-2,5.877385E-2,8.385996E-2,4.4030182E-2,-2.3994356E-2,4.5576997E-2,8.357204E-2,3.952802E-3,9.292123E-2,4.9330764E-3,5.9750155E-2],"split_indices":[61,56,56,65,65,61,65,65,67,63,67,65,65,61,4,63,61,67,67,66,61,65,61,63,65,57,57,63,65,66,61,0,0,0,0,0,0,0,0,0,0,0,0,0,0,0,0,0,0,0,0,0,0,0,0,0,0,0,0,0,0,0,0],"split_type":[0,0,0,0,0,0,0,0,0,0,0,0,0,0,0,0,0,0,0,0,0,0,0,0,0,0,0,0,0,0,0,0,0,0,0,0,0,0,0,0,0,0,0,0,0,0,0,0,0,0,0,0,0,0,0,0,0,0,0,0,0,0,0],"sum_hessian":[8.261736E7,9.575779E6,7.304158E7,5.433444E6,4.142335E6,3.123769E7,4.1803896E7,3.551236E6,1.882208E6,9.83245E5,3.15909E6,6.68185E6,2.455584E7,1.7577518E7,2.4226376E7,1.450122E6,2.101114E6,1.61152E6,2.70688E5,8.90787E5,9.2458E4,3.85071E5,2.774019E6,2.039011E6,4.642839E6,1.2841302E7,1.1714538E7,4.814095E6,1.2763423E7,2.3658754E7,5.67622E5,1.098319E6,3.51803E5,7.9279E5,1.308324E6,5.55645E5,1.055875E6,1.21432E5,1.49256E5,2.72472E5,6.18315E5,7.921E4,1.3248E4,1.904E5,1.94671E5,3.81284E5,2.392735E6,1.449381E6,5.8963E5,2.71265E6,1.930189E6,6.869341E6,5.971961E6,8.192277E6,3.522261E6,4.263741E6,5.50354E5,1.442368E6,1.1321055E7,1.717E5,2.3487054E7,2.27764E5,3.39858E5],"tree_param":{"num_deleted":"0","num_feature":"69","num_nodes":"63","size_leaf_vector":"0"}},{"base_weights":[1.2427262E-1,-6.0472987E-3,1.5585707E-1,-9.460637E-2,8.615505E-2,7.150156E-2,1.8469016E-1,-1.5354219E-1,-5.1974036E-2,-1.4443686E-2,1.3436668E-1,9.719582E-2,-7.037766E-2,1.370934E-1,2.0823781E-1,-2.5194544E-1,-1.4226471E-1,-1.994274E-1,-3.267334E-2,-7.860767E-2,3.4985103E-2,-5.771494E-3,1.5501307E-1,3.0255593E-2,1.3097027E-1,-1.2453324E-1,2.9011909E-2,1.0580315E-1,1.7565146E-1,2.1416914E-1,1.2075952E-1,-2.5375876E-1,-1.67832E-2,-1.80266E-1,-1.1333542E-1,-2.2535095E-1,-1.5618317E-1,-1.0379142E-2,-1.7265704E-1,-2.1757659E-2,-1.1856111E-1,4.858185E-2,-2.667431E-1,-6.196032E-2,9.060788E-2,1.6567011E-1,-7.773009E-2,-1.160841E-1,4.7909483E-2,7.252397E-2,1.654502E-1,-5.4188177E-2,-1.9195671E-1,5.5454582E-2,-2.5826254E-1,7.6379634E-2,1.7718095E-1,1.8268426E-1,7.4339405E-2,1.68805E-2,2.163262E-1,7.70997E-2,1.602953E-1],"categories":[],"categories_nodes":[],"categories_segments":[],"categories_sizes":[],"default_left":[1,1,1,1,1,1,1,1,1,1,1,1,1,1,1,1,1,1,1,1,1,1,1,1,1,1,1,1,1,1,1,0,0,0,0,0,0,0,0,0,0,0,0,0,0,0,0,0,0,0,0,0,0,0,0,0,0,0,0,0,0,0,0],"id":2,"left_children":[1,3,5,7,9,11,13,15,17,19,21,23,25,27,29,31,33,35,37,39,41,43,45,47,49,51,53,55,57,59,61,-1,-1,-1,-1,-1,-1,-1,-1,-1,-1,-1,-1,-1,-1,-1,-1,-1,-1,-1,-1,-1,-1,-1,-1,-1,-1,-1,-1,-1,-1,-1,-1],"loss_changes":[3.4005975E5,1.3160158E5,1.61744E5,2.0655727E4,3.829638E4,6.175428E4,5.5546875E4,3.8293125E3,1.3575994E4,8.1134126E3,1.5444484E4,3.2426594E4,1.3980642E4,1.9790875E4,1.720375E4,1.5129297E2,3.4034297E3,6.189238E2,1.3164118E4,2.5284E3,5.928228E3,3.712E3,1.15398125E4,1.2425794E4,1.9210703E4,7.974287E3,6.9591104E3,1.9017703E4,5.2357812E3,1.3214375E4,3.6341465E3,0E0,0E0,0E0,0E0,0E0,0E0,0E0,0E0,0E0,0E0,0E0,0E0,0E0,0E0,0E0,0E0,0E0,0E0,0E0,0E0,0E0,0E0,0E0,0E0,0E0,0E0,0E0,0E0,0E0,0E0,0E0,0E0],"parents":[2147483647,0,0,1,1,2,2,3,3,4,4,5,5,6,6,7,7,8,8,9,9,10,10,11,11,12,12,13,13,14,14,15,15,16,16,17,17,18,18,19,19,20,20,21,21,22,22,23,23,24,24,25,25,26,26,27,27,28,28,29,29,30,30],"right_children":[2,4,6,8,10,12,14,16,18,20,22,24,26,28,30,32,34,36,38,40,42,44,46,48,50,52,54,56,58,60,62,-1,-1,-1,-1,-1,-1,-1,-1,-1,-1,-1,-1,-1,-1,-1,-1,-1,-1,-1,-1,-1,-1,-1,-1,-1,-1,-1,-1,-1,-1,-1,-1],"split_conditions":[3.85E1,4.740367E0,4.4771433E0,4.468672E0,5E-1,5E-1,5E-1,-1.6803578E6,-1.6895385E6,2.95E1,-1.9097574E6,6.05E1,6.65E1,5.95E1,5E-1,3.4786685E6,2.75E1,5E-1,5E-1,2.05E1,5E-1,5.0818872E0,5E-1,-1.9157458E6,4.2341375E0,-1.840181E5,1.800297E6,4.90328E0,8.75E1,1.5E0,5.45E1,-7.612763E-2,-5.0349603E-3,-5.40798E-2,-3.4000628E-2,-6.760529E-2,-4.685495E-2,-3.1137427E-3,-5.1797114E-2,-6.5272977E-3,-3.5568334E-2,1.4574556E-2,-8.002293E-2,-1.8588098E-2,2.7182365E-2,4.9701035E-2,-2.3319028E-2,-3.4825232E-2,1.4372845E-2,2.1757191E-2,4.9635064E-2,-1.6256453E-2,-5.7587016E-2,1.6636375E-2,-7.747877E-2,2.2913892E-2,5.3154286E-2,5.480528E-2,2.2301823E-2,5.06415E-3,6.4897865E-2,2.3129912E-2,4.808859E-2],"split_indices":[61,65,65,65,56,63,56,67,67,61,67,61,61,61,63,68,61,56,63,64,4,65,4,67,65,68,67,65,61,66,61,0,0,0,0,0,0,0,0,0,0,0,0,0,0,0,0,0,0,0,0,0,0,0,0,0,0,0,0,0,0,0,0],"split_type":[0,0,0,0,0,0,0,0,0,0,0,0,0,0,0,0,0,0,0,0,0,0,0,0,0,0,0,0,0,0,0,0,0,0,0,0,0,0,0,0,0,0,0,0,0,0,0,0,0,0,0,0,0,0,0,0,0,0,0,0,0,0,0],"sum_hessian":[8.261736E7,1.6117066E7,6.6500296E7,8.220954E6,7.896112E6,1.6939952E7,4.9560344E7,3.450672E6,4.770282E6,2.558185E6,5.337927E6,1.4342528E7,2.597424E6,1.6403674E7,3.3156672E7,3.54799E5,3.095873E6,5.52128E5,4.218154E6,1.113169E6,1.445016E6,6.85445E5,4.652482E6,4.809737E6,9.532791E6,1.681309E6,9.16115E5,9.055254E6,7.34842E6,3.1051284E7,2.105386E6,3.52084E5,2.715E3,1.338122E6,1.757751E6,3.45192E5,2.06936E5,3.638653E6,5.79501E5,4.59436E5,6.53733E5,1.382708E6,6.2308E4,4.33005E5,2.5244E5,4.448778E6,2.03704E5,5.17767E5,4.29197E6,3.537107E6,5.995684E6,8.22828E5,8.58481E5,8.38898E5,7.7217E4,6.412062E6,2.643192E6,6.871425E6,4.76995E5,3.35829E5,3.0715456E7,1.000512E6,1.104874E6],"tree_param":{"num_deleted":"0","num_feature":"69","num_nodes":"63","size_leaf_vector":"0"}},{"base_weights":[8.6990826E-2,-5.8363732E-2,1.0147352E-1,-9.244453E-2,1.8032271E-2,5.878072E-2,1.3604927E-1,-7.78641E-2,-1.8260449E-1,-2.3750966E-2,7.437011E-2,3.3164339E-3,9.660727E-2,7.275749E-2,1.4607035E-1,-1.21313184E-1,-4.2961087E-2,1.9298519E-1,-1.8447001E-1,-1.7701584E-1,-9.27914E-3,1.09660245E-1,-2.4593245E-2,2.693971E-2,-9.549653E-2,3.9236862E-2,1.1920463E-1,1.9021E-2,1.1489577E-1,1.2652878E-1,1.6817474E-1,-1.02158576E-1,-1.7481524E-1,-3.2504283E-2,-2.71391E-1,2.968341E-2,4.536275E-1,-1.7280376E-1,-2.388456E-1,-2.1776131E-1,-9.1675915E-2,7.5919023E-3,-1.2408323E-1,5.2943934E-2,1.5162846E-1,-6.764325E-2,5.3456675E-2,-1.0711712E-1,4.5119748E-2,-3.855644E-2,-1.4592654E-1,5.3256396E-2,-8.182752E-2,9.745347E-2,1.4535253E-1,-3.631141E-2,1.055686E-1,8.662105E-2,1.5273723E-1,8.93922E-2,1.4617194E-1,1.11922845E-1,1.7284758E-1],"categories":[],"categories_nodes":[],"categories_segments":[],"categories_sizes":[],"default_left":[1,1,1,1,1,1,1,1,1,1,1,1,1,1,1,1,1,1,1,1,1,1,1,1,1,1,1,1,1,1,1,0,0,0,0,0,0,0,0,0,0,0,0,0,0,0,0,0,0,0,0,0,0,0,0,0,0,0,0,0,0,0,0],"id":3,"left_children":[1,3,5,7,9,11,13,15,17,19,21,23,25,27,29,31,33,35,37,39,41,43,45,47,49,51,53,55,57,59,61,-1,-1,-1,-1,-1,-1,-1,-1,-1,-1,-1,-1,-1,-1,-1,-1,-1,-1,-1,-1,-1,-1,-1,-1,-1,-1,-1,-1,-1,-1,-1,-1],"loss_changes":[1.7391994E5,1.9490504E4,1.1090425E5,6.804953E3,5.4360557E3,7.0534414E4,2.6329062E4,6.7574844E3,5.0494336E2,2.9409343E3,3.4343896E3,3.1820188E4,2.5912594E4,1.2848559E4,1.54803125E4,2.0342012E3,5.902332E3,1.515972E2,4.5482422E2,3.9776318E2,2.3465728E3,1.7254268E3,8.685563E2,2.681244E4,7.552412E3,9.586462E3,8.155625E3,1.1943066E4,3.4028125E3,1.3875844E4,4.4202188E3,0E0,0E0,0E0,0E0,0E0,0E0,0E0,0E0,0E0,0E0,0E0,0E0,0E0,0E0,0E0,0E0,0E0,0E0,0E0,0E0,0E0,0E0,0E0,0E0,0E0,0E0,0E0,0E0,0E0,0E0,0E0,0E0],"parents":[2147483647,0,0,1,1,2,2,3,3,4,4,5,5,6,6,7,7,8,8,9,9,10,10,11,11,12,12,13,13,14,14,15,15,16,16,17,17,18,18,19,19,20,20,21,21,22,22,23,23,24,24,25,25,26,26,27,27,28,28,29,29,30,30],"right_children":[2,4,6,8,10,12,14,16,18,20,22,24,26,28,30,32,34,36,38,40,42,44,46,48,50,52,54,56,58,60,62,-1,-1,-1,-1,-1,-1,-1,-1,-1,-1,-1,-1,-1,-1,-1,-1,-1,-1,-1,-1,-1,-1,-1,-1,-1,-1,-1,-1,-1,-1,-1,-1],"split_conditions":[3.05E1,4.801198E0,4.6989746E0,5E-1,2.5E0,5.75E1,-1.9255592E6,2.55E1,1.75E1,5E-1,5E-1,5E-1,4.278799E0,5.15E1,4.9664936E0,2.05E1,5E-1,1.65E1,5.040682E5,5E-1,1.8204586E6,1.95E1,2.75E1,-1.693405E6,-1.9128197E5,1.7503178E6,5E-1,5.090998E0,5.0302353E0,4.85E1,1.5E0,-3.0647574E-2,-5.2444573E-2,-9.751285E-3,-8.141731E-2,8.905023E-3,1.3608825E-1,-5.184113E-2,-7.165369E-2,-6.53284E-2,-2.7502775E-2,2.2775708E-3,-3.722497E-2,1.5883181E-2,4.548854E-2,-2.0292975E-2,1.6037004E-2,-3.2135136E-2,1.3535925E-2,-1.1566933E-2,-4.377796E-2,1.5976919E-2,-2.4548257E-2,2.9236041E-2,4.360576E-2,-1.0893423E-2,3.167058E-2,2.5986318E-2,4.582117E-2,2.681766E-2,4.3851584E-2,3.3576854E-2,5.185428E-2],"split_indices":[61,65,65,63,66,61,67,61,61,0,60,63,65,61,65,64,4,61,68,3,67,64,61,67,68,67,56,65,65,61,66,0,0,0,0,0,0,0,0,0,0,0,0,0,0,0,0,0,0,0,0,0,0,0,0,0,0,0,0,0,0,0,0],"split_type":[0,0,0,0,0,0,0,0,0,0,0,0,0,0,0,0,0,0,0,0,0,0,0,0,0,0,0,0,0,0,0,0,0,0,0,0,0,0,0,0,0,0,0,0,0,0,0,0,0,0,0,0,0,0,0,0,0,0,0,0,0,0,0],"sum_hessian":[8.261736E7,7.485876E6,7.513149E7,5.176571E6,2.309305E6,3.3619468E7,4.151202E7,4.455966E6,7.20605E5,1.325926E6,9.83379E5,1.3631656E7,1.9987812E7,5.674249E6,3.5837772E7,1.98497E6,2.470996E6,3.561E3,7.17044E5,1.14396E5,1.21153E6,7.24886E5,2.58493E5,1.1001517E7,2.630139E6,5.648174E6,1.4339637E7,2.493911E6,3.180338E6,1.9021592E7,1.6816178E7,1.461671E6,5.23299E5,2.362834E6,1.08162E5,2.19E3,1.371E3,5.90382E5,1.26662E5,7.7427E4,3.6969E4,1.056302E6,1.55228E5,3.08278E5,4.16608E5,1.66601E5,9.1892E4,1.313794E6,9.687723E6,1.235335E6,1.394804E6,5.061985E6,5.86189E5,7.82795E6,6.511687E6,1.5213E6,9.72611E5,1.820262E6,1.360076E6,6.58059E6,1.2441003E7,1.289779E6,1.5526399E7],"tree_param":{"num_deleted":"0","num_feature":"69","num_nodes":"63","size_leaf_vector":"0"}},{"base_weights":[6.0893584E-2,7.562615E-2,-2.2962943E-2,7.970945E-2,-8.295049E-2,-6.0700405E-2,2.2405725E-2,2.2670336E-2,8.925353E-2,-1.731813E-1,-6.864067E-2,-8.877647E-2,-2.000052E-2,4.8706707E-2,-7.460756E-2,-5.328904E-2,4.264723E-2,9.281938E-2,-6.406978E-2,-3.1776816E-1,-1.6231202E-1,-5.344794E-2,-1.8771218E-1,-8.0342926E-2,-1.8446624E-1,-1.1064366E-2,-2.168406E-1,-7.9336045E-3,7.411481E-2,-1.16171904E-1,3.313806E-2,-8.3546974E-2,-1.6981281E-2,-7.564329E-2,5.1755197E-2,5.5742543E-2,1.0172654E-1,-1.15434244E-1,1.199085E-2,-3.627663E-1,5.8298383E-2,-1.803578E-1,-7.11858E-2,-7.84252E-2,8.978038E-3,-2.7385864E-1,-1.0443982E-1,-1.307361E-1,-6.188485E-2,-1.9867778E-1,7.532269E-2,4.9763857E-3,-1.0528779E-1,2.2468486E-1,-2.2991183E-1,5.5297026E-3,-1.01986915E-1,8.8955104E-2,-2.3346627E-2,-9.552874E-2,-2.6306692E-1,6.839379E-2,-1.0528376E-1],"categories":[],"categories_nodes":[],"categories_segments":[],"categories_sizes":[],"default_left":[1,1,1,1,1,1,1,1,1,1,1,1,1,1,1,1,1,1,1,1,1,1,1,1,1,1,1,1,1,1,1,0,0,0,0,0,0,0,0,0,0,0,0,0,0,0,0,0,0,0,0,0,0,0,0,0,0,0,0,0,0,0,0],"id":4,"left_children":[1,3,5,7,9,11,13,15,17,19,21,23,25,27,29,31,33,35,37,39,41,43,45,47,49,51,53,55,57,59,61,-1,-1,-1,-1,-1,-1,-1,-1,-1,-1,-1,-1,-1,-1,-1,-1,-1,-1,-1,-1,-1,-1,-1,-1,-1,-1,-1,-1,-1,-1,-1,-1],"loss_changes":[1.0206731E5,4.5501938E4,2.1137303E4,3.72945E4,2.2777002E3,7.701463E3,1.4304208E4,1.490106E4,3.2086094E4,3.7942725E2,2.7543726E3,3.2186543E3,4.8395786E3,6.3471143E3,5.354763E3,2.2464224E3,8.376797E3,1.8941031E4,5.2112144E3,2.8570337E2,3.6930615E2,2.1054194E3,1.2359004E3,3.409379E3,1.1926934E3,3.9778257E3,6.8961035E2,1.729445E3,4.403617E3,2.6164316E3,1.624384E3,0E0,0E0,0E0,0E0,0E0,0E0,0E0,0E0,0E0,0E0,0E0,0E0,0E0,0E0,0E0,0E0,0E0,0E0,0E0,0E0,0E0,0E0,0E0,0E0,0E0,0E0,0E0,0E0,0E0,0E0,0E0,0E0],"parents":[2147483647,0,0,1,1,2,2,3,3,4,4,5,5,6,6,7,7,8,8,9,9,10,10,11,11,12,12,13,13,14,14,15,15,16,16,17,17,18,18,19,19,20,20,21,21,22,22,23,23,24,24,25,25,26,26,27,27,28,28,29,29,30,30],"right_children":[2,4,6,8,10,12,14,16,18,20,22,24,26,28,30,32,34,36,38,40,42,44,46,48,50,52,54,56,58,60,62,-1,-1,-1,-1,-1,-1,-1,-1,-1,-1,-1,-1,-1,-1,-1,-1,-1,-1,-1,-1,-1,-1,-1,-1,-1,-1,-1,-1,-1,-1,-1,-1],"split_conditions":[5E-1,5E-1,4.05E1,4.3570766E0,-1.4092585E6,4.6882863E0,5E-1,5.25E1,5E-1,-3.0357922E5,1.806009E6,1.7829561E6,5E-1,4.4755983E0,1.95E1,4.35E1,5E-1,4.15E1,4.930567E0,2.15E1,6.35E1,1.95E1,1.8410335E6,-5.2338164E4,1.0247935E6,1.7989152E6,-1.0281507E6,1.7797582E6,5E-1,1.7913585E6,5.432719E5,-2.5064094E-2,-5.094385E-3,-2.269299E-2,1.552656E-2,1.6722763E-2,3.0517964E-2,-3.4630276E-2,3.597255E-3,-1.0882989E-1,1.7489515E-2,-5.4107342E-2,-2.135574E-2,-2.352756E-2,2.6934114E-3,-8.21576E-2,-3.1331945E-2,-3.9220832E-2,-1.8565455E-2,-5.9603337E-2,2.2596806E-2,1.4929158E-3,-3.1586338E-2,6.740546E-2,-6.8973556E-2,1.6589109E-3,-3.0596076E-2,2.6686532E-2,-7.0039886E-3,-2.8658623E-2,-7.892008E-2,2.0518137E-2,-3.158513E-2],"split_indices":[60,59,61,65,67,65,63,61,4,68,67,67,4,65,64,61,0,61,65,64,61,64,67,67,68,67,68,67,9,67,68,0,0,0,0,0,0,0,0,0,0,0,0,0,0,0,0,0,0,0,0,0,0,0,0,0,0,0,0,0,0,0,0],"split_type":[0,0,0,0,0,0,0,0,0,0,0,0,0,0,0,0,0,0,0,0,0,0,0,0,0,0,0,0,0,0,0,0,0,0,0,0,0,0,0,0,0,0,0,0,0,0,0,0,0,0,0,0,0,0,0,0,0,0,0,0,0,0,0],"sum_hessian":[8.261736E7,7.027152E7,1.2345844E7,6.850747E7,1.764046E6,6.739749E6,5.606095E6,9.819914E6,5.868756E7,2.41466E5,1.52258E6,3.988414E6,2.751335E6,4.410404E6,1.195691E6,2.044809E6,7.775105E6,5.735368E7,1.333877E6,1.6881E4,2.24585E5,1.350293E6,1.72287E5,3.665371E6,3.23043E5,2.631855E6,1.1948E5,1.365779E6,3.044625E6,8.62839E5,3.32852E5,1.115325E6,9.29484E5,5.55857E5,7.219248E6,1.1109486E7,4.6244196E7,7.96197E5,5.3768E5,1.5077E4,1.804E3,1.87461E5,3.7124E4,9.64419E5,3.85874E5,8.4681E4,8.7606E4,9.82634E5,2.682737E6,3.06288E5,1.6755E4,2.248985E6,3.8287E5,3.435E3,1.16045E5,1.194756E6,1.71023E5,2.642288E6,4.02337E5,7.56526E5,1.06313E5,2.65285E5,6.7567E4],"tree_param":{"num_deleted":"0","num_feature":"69","num_nodes":"63","size_leaf_vector":"0"}},{"base_weights":[4.262552E-2,5.174336E-2,-3.323483E-2,-4.2810053E-2,5.8313537E-2,-2.122428E-2,-1.4806278E-1,-9.095597E-2,-2.3503236E-2,6.5104134E-2,-7.81752E-3,-1.16401866E-1,-6.091682E-3,-2.1417525E-1,-2.7676882E-2,-1.0045335E-1,-1.2155559E-2,9.658482E-3,-7.538139E-2,4.15752E-2,8.094392E-2,-4.342907E-2,4.6301533E-2,-1.4390898E-1,-5.7609207E-3,-2.4000214E-2,6.361101E-2,-2.4965012E-1,-1.1950646E-2,6.898276E-2,-8.846363E-2,-1.3300641E-1,-8.0344774E-2,3.566963E-2,-7.6497585E-2,5.0757118E-2,-3.0440897E-2,-9.365435E-2,-3.4545995E-2,4.9570538E-2,-2.281715E-2,2.374543E-2,8.565335E-2,-9.675462E-2,-2.374071E-3,-2.6507411E-2,6.435217E-2,-1.7536022E-1,-3.5738807E-2,-1.771528E-1,4.1375767E-2,-8.932138E-2,-1.6198008E-3,-2.5541268E-2,8.276682E-2,-1.3804089E-1,-2.70355E-1,-6.2076908E-2,8.39136E-2,8.234311E-3,1.3007149E-1,-1.1983506E-1,6.486483E-2],"categories":[],"categories_nodes":[],"categories_segments":[],"categories_sizes":[],"default_left":[1,1,1,1,1,1,1,1,1,1,1,1,1,1,1,1,1,1,1,1,1,1,1,1,1,1,1,1,1,1,1,0,0,0,0,0,0,0,0,0,0,0,0,0,0,0,0,0,0,0,0,0,0,0,0,0,0,0,0,0,0,0,0],"id":5,"left_children":[1,3,5,7,9,11,13,15,17,19,21,23,25,27,29,31,33,35,37,39,41,43,45,47,49,51,53,55,57,59,61,-1,-1,-1,-1,-1,-1,-1,-1,-1,-1,-1,-1,-1,-1,-1,-1,-1,-1,-1,-1,-1,-1,-1,-1,-1,-1,-1,-1,-1,-1,-1,-1],"loss_changes":[5.7144984E4,4.581767E4,1.2225485E4,4.4542383E3,3.0968281E4,1.1558475E4,6.6807637E3,1.0264688E3,5.884169E3,2.3307938E4,1.2376448E4,3.3505107E3,8.64333E3,3.8870684E3,1.7483688E3,8.0123535E2,4.5396832E2,3.4386733E3,9.9522754E2,1.2954523E4,1.0068297E4,8.479414E3,3.3495215E3,2.9996152E3,1.7709388E3,8.0534766E3,2.4171592E3,1.0651992E3,3.8859195E2,4.2633496E2,8.787228E2,0E0,0E0,0E0,0E0,0E0,0E0,0E0,0E0,0E0,0E0,0E0,0E0,0E0,0E0,0E0,0E0,0E0,0E0,0E0,0E0,0E0,0E0,0E0,0E0,0E0,0E0,0E0,0E0,0E0,0E0,0E0,0E0],"parents":[2147483647,0,0,1,1,2,2,3,3,4,4,5,5,6,6,7,7,8,8,9,9,10,10,11,11,12,12,13,13,14,14,15,15,16,16,17,17,18,18,19,19,20,20,21,21,22,22,23,23,24,24,25,25,26,26,27,27,28,28,29,29,30,30],"right_children":[2,4,6,8,10,12,14,16,18,20,22,24,26,28,30,32,34,36,38,40,42,44,46,48,50,52,54,56,58,60,62,-1,-1,-1,-1,-1,-1,-1,-1,-1,-1,-1,-1,-1,-1,-1,-1,-1,-1,-1,-1,-1,-1,-1,-1,-1,-1,-1,-1,-1,-1,-1,-1],"split_conditions":[5E-1,2.85E1,1.806009E6,-5.2338164E4,5E-1,-6.341374E4,1.844908E6,4.984302E0,1.338295E6,5E-1,4.9552546E0,6.65E1,2.05E1,5.0091534E0,6.042371E5,-1.9417905E6,5E-1,5E-1,4.8192806E0,1.800297E6,5E-1,5.65E1,4.05E1,4.918659E0,4.2108517E0,4.15E1,3.45E1,5.637181E5,5.177969E0,4.870694E0,4.985874E0,-3.9901923E-2,-2.4103433E-2,1.0700889E-2,-2.2949276E-2,1.5227136E-2,-9.13227E-3,-2.8096305E-2,-1.0363799E-2,1.4871162E-2,-6.845145E-3,7.1236296E-3,2.5696006E-2,-2.9026387E-2,-7.122213E-4,-7.9522235E-3,1.9305652E-2,-5.260807E-2,-1.07216425E-2,-5.314584E-2,1.2412731E-2,-2.6796415E-2,-4.8594025E-4,-7.6623806E-3,2.4830049E-2,-4.1412268E-2,-8.11065E-2,-1.8623073E-2,2.5174081E-2,2.4702933E-3,3.9021447E-2,-3.595052E-2,1.9459449E-2],"split_indices":[63,61,67,67,9,67,67,65,67,56,65,61,64,65,68,67,9,62,65,67,0,61,61,65,65,61,61,68,65,65,65,0,0,0,0,0,0,0,0,0,0,0,0,0,0,0,0,0,0,0,0,0,0,0,0,0,0,0,0,0,0,0,0],"split_type":[0,0,0,0,0,0,0,0,0,0,0,0,0,0,0,0,0,0,0,0,0,0,0,0,0,0,0,0,0,0,0,0,0,0,0,0,0,0,0,0,0,0,0,0,0,0,0,0,0,0,0,0,0,0,0,0,0,0,0,0,0,0,0],"sum_hessian":[8.261736E7,7.375283E7,8.86453E6,4.791852E6,6.8960984E7,8.025134E6,8.39396E5,1.371558E6,3.420294E6,6.253921E7,6.421771E6,1.100905E6,6.924229E6,5.41835E5,2.97561E5,1.224032E6,1.47526E5,2.086534E6,1.33376E6,2.5162304E7,3.7376904E7,3.873151E6,2.54862E6,8.817E5,2.19205E5,5.508854E6,1.415375E6,4.6097E5,8.0865E4,1.14882E5,1.82679E5,4.67388E5,7.56644E5,8.4625E4,6.2901E4,1.030428E6,1.056106E6,9.21436E5,4.12324E5,2.2383088E7,2.779217E6,2.843319E6,3.4533584E7,1.684798E6,2.188353E6,5.06322E5,2.042298E6,6.83087E5,1.98613E5,4.7282E4,1.71923E5,1.405794E6,4.10306E6,2.50329E5,1.165046E6,7.2135E4,3.88835E5,5.31E4,2.7765E4,5.7602E4,5.728E4,1.51651E5,3.1028E4],"tree_param":{"num_deleted":"0","num_feature":"69","num_nodes":"63","size_leaf_vector":"0"}},{"base_weights":[2.9837867E-2,1.4020905E-2,5.9387304E-2,-2.7268274E-2,3.0290022E-2,-2.3201967E-2,6.190191E-2,-2.1510415E-2,-1.5564169E-1,-3.620828E-2,3.6830373E-2,-1.0174385E-1,1.9575449E-2,6.527345E-2,1.8439315E-2,-6.7932025E-2,-6.744093E-3,-9.996857E-2,-2.0831923E-1,-1.5508412E-1,-2.6501734E-2,1.8738586E-2,5.4334313E-2,-1.371306E-1,2.0987736E-2,-1.261141E-3,7.429663E-2,4.686269E-2,7.247243E-2,-7.4395195E-2,8.102152E-2,-8.4995784E-2,-2.7972355E-2,-6.453625E-2,9.034157E-3,-1.388297E-1,-4.3335278E-2,-1.8431592E-1,-3.0186826E-1,-3.71302E-1,-1.01696335E-1,-1.0076329E-2,-9.8361425E-2,-5.2989136E-2,2.5969421E-2,6.0796723E-2,-3.1722434E-2,-1.07073665E-1,-3.4299815E-1,-2.7984542E-1,3.95226E-2,-4.4342384E-2,4.5595173E-2,7.757606E-2,-6.0421205E-1,3.1965222E-2,7.07163E-2,7.320667E-2,-8.0230966E-2,-2.1221878E-1,2.757117E-2,8.361394E-2,-3.8004592E-2],"categories":[],"categories_nodes":[],"categories_segments":[],"categories_sizes":[],"default_left":[1,1,1,1,1,1,1,1,1,1,1,1,1,1,1,1,1,1,1,1,1,1,1,1,1,1,1,1,1,1,1,0,0,0,0,0,0,0,0,0,0,0,0,0,0,0,0,0,0,0,0,0,0,0,0,0,0,0,0,0,0,0,0],"id":6,"left_children":[1,3,5,7,9,11,13,15,17,19,21,23,25,27,29,31,33,35,37,39,41,43,45,47,49,51,53,55,57,59,61,-1,-1,-1,-1,-1,-1,-1,-1,-1,-1,-1,-1,-1,-1,-1,-1,-1,-1,-1,-1,-1,-1,-1,-1,-1,-1,-1,-1,-1,-1,-1,-1],"loss_changes":[3.86139E4,3.6148188E4,5.9820938E3,1.1242902E4,1.678905E4,2.8595469E3,4.096172E3,9.978837E3,1.9148711E3,3.9886006E3,1.1129852E4,1.3033589E3,6.2825415E2,3.4381875E3,1.1691252E4,2.3954658E3,1.0070931E4,6.9863965E2,7.532949E2,3.0121304E3,3.7720417E3,8.963672E3,9.934266E3,1.4413247E3,3.7450537E2,8.055416E2,3.3815424E2,2.5913115E3,2.0909531E3,1.1387662E4,3.7090625E2,0E0,0E0,0E0,0E0,0E0,0E0,0E0,0E0,0E0,0E0,0E0,0E0,0E0,0E0,0E0,0E0,0E0,0E0,0E0,0E0,0E0,0E0,0E0,0E0,0E0,0E0,0E0,0E0,0E0,0E0,0E0,0E0],"parents":[2147483647,0,0,1,1,2,2,3,3,4,4,5,5,6,6,7,7,8,8,9,9,10,10,11,11,12,12,13,13,14,14,15,15,16,16,17,17,18,18,19,19,20,20,21,21,22,22,23,23,24,24,25,25,26,26,27,27,28,28,29,29,30,30],"right_children":[2,4,6,8,10,12,14,16,18,20,22,24,26,28,30,32,34,36,38,40,42,44,46,48,50,52,54,56,58,60,62,-1,-1,-1,-1,-1,-1,-1,-1,-1,-1,-1,-1,-1,-1,-1,-1,-1,-1,-1,-1,-1,-1,-1,-1,-1,-1,-1,-1,-1,-1,-1,-1],"split_conditions":[4.875076E0,4.45E1,-2.248237E6,5E-1,4.1573057E0,4.55E1,5E-1,-4.686092E4,2.05E1,-1.9934915E6,6.35E1,3.5429647E5,6.55E1,-6.341374E4,5.9396444E5,4.4896544E5,4.378216E0,3.5E0,2.25E1,4.018076E0,5E-1,1.55E1,8.75E1,3.489152E5,4.890418E0,5.1430464E0,9.35E1,5.1139503E0,5E-1,1.8337691E6,5E-1,-2.5498737E-2,-8.391707E-3,-1.9360876E-2,2.7102472E-3,-4.164891E-2,-1.3000584E-2,-5.529478E-2,-9.056048E-2,-1.11390606E-1,-3.0508902E-2,-3.022899E-3,-2.9508429E-2,-1.5896741E-2,7.7908267E-3,1.8239018E-2,-9.516731E-3,-3.21221E-2,-1.0289945E-1,-8.395363E-2,1.185678E-2,-1.33027155E-2,1.3678553E-2,2.327282E-2,-1.8126363E-1,9.589567E-3,2.1214891E-2,2.1962002E-2,-2.406929E-2,-6.3665636E-2,8.271351E-3,2.5084183E-2,-1.1401378E-2],"split_indices":[65,61,67,4,65,61,37,67,64,67,61,68,61,67,68,68,65,66,64,65,63,64,61,68,65,65,61,65,13,67,4,0,0,0,0,0,0,0,0,0,0,0,0,0,0,0,0,0,0,0,0,0,0,0,0,0,0,0,0,0,0,0,0],"split_type":[0,0,0,0,0,0,0,0,0,0,0,0,0,0,0,0,0,0,0,0,0,0,0,0,0,0,0,0,0,0,0,0,0,0,0,0,0,0,0,0,0,0,0,0,0,0,0,0,0,0,0,0,0,0,0,0,0,0,0,0,0,0,0],"sum_hessian":[8.261736E7,5.381288E7,2.8804482E7,1.5210459E7,3.8602424E7,8.511E5,2.7953382E7,1.455752E7,6.52939E5,3.456708E6,3.514571E7,3.00099E5,5.51001E5,2.5941048E7,2.012335E6,3.513127E6,1.1044393E7,3.17445E5,3.35494E5,2.60942E5,3.195766E6,1.728265E7,1.7863064E7,2.32937E5,6.7162E4,3.99052E5,1.51949E5,7.292114E6,1.8648932E7,8.10314E5,1.202021E6,2.461854E6,1.051273E6,2.368631E6,8.675762E6,1.88261E5,1.29184E5,2.66991E5,6.8503E4,5.1671E4,2.09271E5,2.601196E6,5.9457E5,1.582703E6,1.5699947E7,1.6615339E7,1.247725E6,2.03262E5,2.9675E4,3.897E3,6.3265E4,2.07901E5,1.91151E5,1.51219E5,7.3E2,4.488734E6,2.80338E6,1.8559692E7,8.924E4,3.44571E5,4.65743E5,1.176399E6,2.5622E4],"tree_param":{"num_deleted":"0","num_feature":"69","num_nodes":"63","size_leaf_vector":"0"}},{"base_weights":[2.0886505E-2,2.6582165E-2,-2.650134E-2,-3.5479545E-6,3.4253146E-2,8.57177E-3,-5.2464094E-2,-3.30026E-2,2.7191661E-2,1.1116378E-2,4.337533E-2,-3.977092E-3,9.072585E-2,-6.819734E-2,1.6779553E-2,-2.692604E-2,-1.502173E-1,-3.8218267E-2,4.2421106E-2,1.7106397E-2,-5.6851458E-2,1.79144E-2,4.839667E-2,-7.145284E-2,9.969026E-3,7.9378255E-2,1.6504139E-1,-5.769438E-2,-1.5054165E-1,-3.4338377E-2,3.8924742E-2,-1.5170291E-2,-7.368212E-2,-1.00170925E-1,-1.9760229E-1,-2.7958991E-2,-9.537475E-2,-9.622358E-3,5.308136E-2,-3.261989E-3,5.458429E-2,-4.008837E-2,-1.4852032E-1,-9.103457E-2,2.3505894E-2,5.2168548E-2,2.0157756E-2,-8.786847E-2,4.7372538E-3,-3.0824484E-2,3.126722E-2,-8.270104E-3,9.335613E-2,1.8995823E-1,1.05627716E-1,-1.247604E-1,-4.8203446E-2,-1.7890859E-1,1.3320955E-2,-6.505273E-2,3.6296073E-2,2.0744535E-3,5.487276E-2],"categories":[],"categories_nodes":[],"categories_segments":[],"categories_sizes":[],"default_left":[1,1,1,1,1,1,1,1,1,1,1,1,1,1,1,1,1,1,1,1,1,1,1,1,1,1,1,1,1,1,1,0,0,0,0,0,0,0,0,0,0,0,0,0,0,0,0,0,0,0,0,0,0,0,0,0,0,0,0,0,0,0,0],"id":7,"left_children":[1,3,5,7,9,11,13,15,17,19,21,23,25,27,29,31,33,35,37,39,41,43,45,47,49,51,53,55,57,59,61,-1,-1,-1,-1,-1,-1,-1,-1,-1,-1,-1,-1,-1,-1,-1,-1,-1,-1,-1,-1,-1,-1,-1,-1,-1,-1,-1,-1,-1,-1,-1,-1],"loss_changes":[2.2298844E4,1.5041043E4,8.071994E3,1.482102E4,1.2080445E4,3.8873628E3,5.5493643E3,5.3144824E3,9.019001E3,6.5896436E3,5.248414E3,3.0781404E3,4.2133936E2,3.5897852E3,1.0676183E3,3.8990586E3,8.7206836E2,1.00264844E3,4.074375E3,1.1354844E4,2.0144146E3,4.1196265E3,3.6523047E3,7.007385E2,2.355202E3,5.3105005E2,9.796179E1,2.3431445E3,2.1825234E3,6.1846796E2,3.867215E2,0E0,0E0,0E0,0E0,0E0,0E0,0E0,0E0,0E0,0E0,0E0,0E0,0E0,0E0,0E0,0E0,0E0,0E0,0E0,0E0,0E0,0E0,0E0,0E0,0E0,0E0,0E0,0E0,0E0,0E0,0E0,0E0],"parents":[2147483647,0,0,1,1,2,2,3,3,4,4,5,5,6,6,7,7,8,8,9,9,10,10,11,11,12,12,13,13,14,14,15,15,16,16,17,17,18,18,19,19,20,20,21,21,22,22,23,23,24,24,25,25,26,26,27,27,28,28,29,29,30,30],"right_children":[2,4,6,8,10,12,14,16,18,20,22,24,26,28,30,32,34,36,38,40,42,44,46,48,50,52,54,56,58,60,62,-1,-1,-1,-1,-1,-1,-1,-1,-1,-1,-1,-1,-1,-1,-1,-1,-1,-1,-1,-1,-1,-1,-1,-1,-1,-1,-1,-1,-1,-1,-1,-1],"split_conditions":[5E-1,4.05E1,-1.9128197E5,2.5E0,1.5E0,7.05E1,4.929751E0,5E-1,4.5319257E0,8.65E1,-1.4202392E6,5.9130766E4,8.55E1,5E-1,4.45E1,1.5869402E6,3.05E1,1.5140301E6,5E-1,5E-1,9.35E1,1.45E1,1.8011815E6,5.95E1,4.4161406E0,1.05E1,-4.014401E5,-1.6803578E6,1.845387E6,5.1279144E0,1.85E1,-4.5510875E-3,-2.2104638E-2,-3.0051278E-2,-5.928069E-2,-8.387698E-3,-2.8612426E-2,-2.8867074E-3,1.5924409E-2,-9.785967E-4,1.6375288E-2,-1.2026512E-2,-4.4556096E-2,-2.7310371E-2,7.0517687E-3,1.5650565E-2,6.047327E-3,-2.6360542E-2,1.4211761E-3,-9.247346E-3,9.3801655E-3,-2.4810315E-3,2.800684E-2,5.6987472E-2,3.1688318E-2,-3.7428122E-2,-1.4461034E-2,-5.367258E-2,3.996287E-3,-1.951582E-2,1.0888822E-2,6.2233605E-4,1.6461829E-2],"split_indices":[63,61,68,66,66,61,65,4,65,61,67,67,61,37,61,67,61,67,56,57,61,64,67,61,65,64,68,67,67,65,64,0,0,0,0,0,0,0,0,0,0,0,0,0,0,0,0,0,0,0,0,0,0,0,0,0,0,0,0,0,0,0,0],"split_type":[0,0,0,0,0,0,0,0,0,0,0,0,0,0,0,0,0,0,0,0,0,0,0,0,0,0,0,0,0,0,0,0,0,0,0,0,0,0,0,0,0,0,0,0,0,0,0,0,0,0,0,0,0,0,0,0,0,0,0,0,0,0,0],"sum_hessian":[8.261736E7,7.375283E7,8.86453E6,1.6515213E7,5.723762E7,3.770695E6,5.093835E6,7.46142E6,9.053793E6,1.6185652E7,4.105197E7,3.27105E6,4.99645E5,4.150725E6,9.4311E5,7.093676E6,3.67744E5,1.709887E6,7.343906E6,1.4874739E7,1.310913E6,6.762487E6,3.428948E7,5.60272E5,2.710778E6,4.3346E5,6.6185E4,3.681193E6,4.69532E5,2.85073E5,6.58037E5,5.66847E6,1.425206E6,1.78851E5,1.88893E5,1.449679E6,2.60208E5,1.248537E6,6.095369E6,9.637161E6,5.237578E6,1.108253E6,2.0266E5,3.30122E5,6.432365E6,3.02491E7,4.04038E6,4.60956E5,9.9316E4,9.29829E5,1.780949E6,5.9619E4,3.73841E5,4.6628E4,1.9557E4,4.56364E5,3.224829E6,4.00244E5,6.9288E4,1.9868E5,8.6393E4,1.98764E5,4.59273E5],"tree_param":{"num_deleted":"0","num_feature":"69","num_nodes":"63","size_leaf_vector":"0"}},{"base_weights":[1.462055E-2,2.5275259E-3,2.9106608E-2,7.93836E-3,-5.127061E-2,-4.127463E-2,3.0873729E-2,-4.890086E-2,1.4763033E-2,-6.590481E-2,6.0866326E-2,-1.0407615E-1,-8.716753E-4,-4.0278893E-2,3.2450605E-2,-6.680306E-2,-1.5051847E-2,5.7803764E-4,3.341472E-2,-9.665735E-2,-3.394793E-2,2.4464028E-2,1.2946469E-1,-2.5752997E-1,-8.169715E-2,-3.89834E-2,2.5175195E-2,1.8975346E-3,-7.970864E-2,2.6697822E-2,5.0170388E-2,-8.861198E-2,-3.3819165E-2,-3.6222458E-1,-7.4726823E-3,-4.9754877E-2,9.265843E-3,2.0689823E-2,4.5060843E-2,-3.8954314E-2,-1.6954273E-1,-7.1555763E-3,-1.0907253E-1,2.863914E-2,-2.7360296E-1,-1.7723651E-1,1.3266678E-1,-2.0245524E-1,-3.3347756E-1,-1.0860589E-1,5.5246847E-4,-1.6710716E-1,-1.451692E-2,3.0552922E-2,-1.9138879E-1,-5.206438E-2,2.9643584E-2,-1.3991812E-1,-5.3710327E-2,3.052888E-2,-5.994033E-2,5.4722443E-2,1.07096685E-2],"categories":[],"categories_nodes":[],"categories_segments":[],"categories_sizes":[],"default_left":[1,1,1,1,1,1,1,1,1,1,1,1,1,1,1,1,1,1,1,1,1,1,1,1,1,1,1,1,1,1,1,0,0,0,0,0,0,0,0,0,0,0,0,0,0,0,0,0,0,0,0,0,0,0,0,0,0,0,0,0,0,0,0],"id":8,"left_children":[1,3,5,7,9,11,13,15,17,19,21,23,25,27,29,31,33,35,37,39,41,43,45,47,49,51,53,55,57,59,61,-1,-1,-1,-1,-1,-1,-1,-1,-1,-1,-1,-1,-1,-1,-1,-1,-1,-1,-1,-1,-1,-1,-1,-1,-1,-1,-1,-1,-1,-1,-1,-1],"loss_changes":[1.4472932E4,1.3107295E4,4.675086E3,1.5870526E4,6.7526797E3,2.3360903E3,4.114203E3,2.6576768E3,9.664147E3,3.5771045E3,1.1861748E3,1.2377468E3,5.5615234E2,1.3221414E3,3.6569023E3,2.0635303E3,3.992114E3,9.072716E3,2.338414E3,7.801119E3,3.59276E3,3.8620828E2,1.6175415E2,1.9180957E2,6.961904E2,7.1298425E2,3.8759198E2,5.75143E2,6.431848E2,8.988824E3,1.5793086E3,0E0,0E0,0E0,0E0,0E0,0E0,0E0,0E0,0E0,0E0,0E0,0E0,0E0,0E0,0E0,0E0,0E0,0E0,0E0,0E0,0E0,0E0,0E0,0E0,0E0,0E0,0E0,0E0,0E0,0E0,0E0,0E0],"parents":[2147483647,0,0,1,1,2,2,3,3,4,4,5,5,6,6,7,7,8,8,9,9,10,10,11,11,12,12,13,13,14,14,15,15,16,16,17,17,18,18,19,19,20,20,21,21,22,22,23,23,24,24,25,25,26,26,27,27,28,28,29,29,30,30],"right_children":[2,4,6,8,10,12,14,16,18,20,22,24,26,28,30,32,34,36,38,40,42,44,46,48,50,52,54,56,58,60,62,-1,-1,-1,-1,-1,-1,-1,-1,-1,-1,-1,-1,-1,-1,-1,-1,-1,-1,-1,-1,-1,-1,-1,-1,-1,-1,-1,-1,-1,-1,-1,-1],"split_conditions":[4.778155E0,1.7636965E6,-2.2540305E6,-1.9363135E6,8.893483E5,4.75E1,2.65E1,6.65E1,6.15E1,1.8410335E6,1.0789125E6,4.8558216E0,5.014311E0,2.05E1,5.956165E5,1.95E1,4.0172424E0,4.2529016E0,1.5E0,1.821653E6,7.9735975E5,9.05E1,8E0,-2.2779255E6,3.5429647E5,5.25E1,5E-1,-8.565441E4,2.45E1,1.8204812E6,2.0003306E6,-2.6583595E-2,-1.014575E-2,-1.0866738E-1,-2.2418047E-3,-1.4926463E-2,2.779753E-3,6.206947E-3,1.3518253E-2,-1.1686294E-2,-5.0862823E-2,-2.146673E-3,-3.272176E-2,8.591742E-3,-8.208089E-2,-5.3170957E-2,3.9800037E-2,-6.0736574E-2,-1.00043274E-1,-3.258177E-2,1.6574055E-4,-5.013215E-2,-4.3550762E-3,9.165877E-3,-5.7416636E-2,-1.5619315E-2,8.893075E-3,-4.197544E-2,-1.6113099E-2,9.158664E-3,-1.79821E-2,1.6416734E-2,3.2129006E-3],"split_indices":[65,67,67,67,68,61,61,61,61,67,68,65,65,64,68,64,65,65,66,67,68,61,64,67,68,61,4,68,61,67,67,0,0,0,0,0,0,0,0,0,0,0,0,0,0,0,0,0,0,0,0,0,0,0,0,0,0,0,0,0,0,0,0],"split_type":[0,0,0,0,0,0,0,0,0,0,0,0,0,0,0,0,0,0,0,0,0,0,0,0,0,0,0,0,0,0,0,0,0,0,0,0,0,0,0,0,0,0,0,0,0,0,0,0,0,0,0,0,0,0,0,0,0,0,0,0,0,0,0],"sum_hessian":[8.261736E7,4.502789E7,3.758947E7,4.0913E7,4.11489E6,9.20674E5,3.66688E7,4.385811E6,3.6527188E7,3.639876E6,4.75014E5,3.60429E5,5.60245E5,7.9503E5,3.587377E7,2.868635E6,1.517176E6,2.0747944E7,1.5779243E7,1.854889E6,1.784987E6,3.10334E5,1.6468E5,4.5872E4,3.14557E5,2.27446E5,3.32799E5,3.84136E5,4.10894E5,2.7081634E7,8.792136E6,1.726845E6,1.14179E6,3.2413E4,1.484763E6,3.054081E6,1.7693864E7,7.540392E6,8.238851E6,1.035271E6,8.19618E5,1.315743E6,4.69244E5,3.06048E5,4.286E3,1.701E3,1.62979E5,2.6592E4,1.928E4,2.37015E5,7.7542E4,3.6468E4,1.90978E5,3.24736E5,8.063E3,1.30443E5,2.53693E5,1.23915E5,2.86979E5,2.593482E7,1.146813E6,7.882802E6,9.09334E5],"tree_param":{"num_deleted":"0","num_feature":"69","num_nodes":"63","size_leaf_vector":"0"}},{"base_weights":[1.0234369E-2,-2.7677039E-2,1.39488885E-2,-5.3253382E-2,3.376354E-3,1.5703892E-2,-6.1334625E-2,-2.6621105E-2,-8.935547E-2,3.8534544E-2,-1.0373656E-2,-3.3451747E-2,1.799038E-2,-7.650195E-2,1.0298168E-2,-8.500219E-2,-1.77402E-2,3.0217972E-1,-9.055542E-2,-1.7469896E-1,4.156813E-2,-6.1082903E-2,5.682154E-3,-1.8992456E-2,-6.276388E-2,6.0022785E-4,2.4152346E-2,-3.1173823E-2,-1.14853896E-1,-1.5194033E-1,2.4090057E-2,-1.0465915E-1,-1.3178535E-2,-4.5075193E-3,-7.263308E-2,6.453441E-1,1.7739524E-1,-8.078486E-2,-1.3792317E-1,-2.624231E-1,1.2774555E-1,2.2871539E-2,5.4916088E-2,-4.458862E-2,-1.5819633E-1,-3.7784595E-2,1.3297352E-2,-6.2614694E-2,4.1839173E-3,-8.579334E-2,-4.5091063E-2,-1.48700345E-2,1.4712068E-2,3.1219482E-2,5.8940775E-3,-4.3342795E-2,8.6732596E-2,-9.460045E-2,-1.660766E-1,-1.8139188E-1,2.3308676E-1,-5.638699E-2,3.986515E-2],"categories":[],"categories_nodes":[],"categories_segments":[],"categories_sizes":[],"default_left":[1,1,1,1,1,1,1,1,1,1,1,1,1,1,1,1,1,1,1,1,1,1,1,1,1,1,1,1,1,1,1,0,0,0,0,0,0,0,0,0,0,0,0,0,0,0,0,0,0,0,0,0,0,0,0,0,0,0,0,0,0,0,0],"id":9,"left_children":[1,3,5,7,9,11,13,15,17,19,21,23,25,27,29,31,33,35,37,39,41,43,45,47,49,51,53,55,57,59,61,-1,-1,-1,-1,-1,-1,-1,-1,-1,-1,-1,-1,-1,-1,-1,-1,-1,-1,-1,-1,-1,-1,-1,-1,-1,-1,-1,-1,-1,-1,-1,-1],"loss_changes":[1.16343955E4,5.855413E3,9.941579E3,3.887003E3,1.6096583E3,8.264408E3,1.8623813E3,1.2062307E3,8.063594E2,6.055397E2,1.9488054E3,1.3852031E3,7.529158E3,2.4591992E3,6.7022015E2,4.336819E2,1.4667903E3,2.2444196E2,7.918535E2,3.4842108E2,2.3033801E2,9.220222E2,6.017636E2,2.2127378E3,4.3940137E2,4.0132332E3,6.6942246E3,9.3024774E2,7.949463E2,2.6616107E2,3.504708E2,0E0,0E0,0E0,0E0,0E0,0E0,0E0,0E0,0E0,0E0,0E0,0E0,0E0,0E0,0E0,0E0,0E0,0E0,0E0,0E0,0E0,0E0,0E0,0E0,0E0,0E0,0E0,0E0,0E0,0E0,0E0,0E0],"parents":[2147483647,0,0,1,1,2,2,3,3,4,4,5,5,6,6,7,7,8,8,9,9,10,10,11,11,12,12,13,13,14,14,15,15,16,16,17,17,18,18,19,19,20,20,21,21,22,22,23,23,24,24,25,25,26,26,27,27,28,28,29,29,30,30],"right_children":[2,4,6,8,10,12,14,16,18,20,22,24,26,28,30,32,34,36,38,40,42,44,46,48,50,52,54,56,58,60,62,-1,-1,-1,-1,-1,-1,-1,-1,-1,-1,-1,-1,-1,-1,-1,-1,-1,-1,-1,-1,-1,-1,-1,-1,-1,-1,-1,-1,-1,-1,-1,-1],"split_conditions":[1.55E1,6.85E1,5E-1,5E-1,-1.9233547E5,2.65E1,5.114394E0,-7.3556794E5,1.75E1,-1.1549296E6,4.192149E0,2.05E1,-4.686092E4,2.05E1,1.5E0,5E-1,1.6172858E6,1.55E1,1.6103489E6,8.45E1,1.15E1,5E-1,9.5E0,2.25E1,2.45E1,5.45E1,1.5869402E6,6.85E1,1.6057374E6,5E-1,3.35E1,-3.1397745E-2,-3.9535607E-3,-1.3522558E-3,-2.1789925E-2,1.9360323E-1,5.3218573E-2,-2.4235459E-2,-4.1376952E-2,-7.872693E-2,3.8323667E-2,6.861462E-3,1.6474826E-2,-1.3376587E-2,-4.7458902E-2,-1.13353785E-2,3.9892057E-3,-1.878441E-2,1.2551752E-3,-2.5738003E-2,-1.352732E-2,-4.4610105E-3,4.4136206E-3,9.3658455E-3,1.7682234E-3,-1.3002839E-2,2.601978E-2,-2.8380135E-2,-4.9822982E-2,-5.4417565E-2,6.992603E-2,-1.6916098E-2,1.1959546E-2],"split_indices":[64,61,4,62,68,61,65,67,61,68,65,64,67,64,66,3,67,61,67,61,64,63,64,61,61,61,67,61,67,14,61,0,0,0,0,0,0,0,0,0,0,0,0,0,0,0,0,0,0,0,0,0,0,0,0,0,0,0,0,0,0,0,0],"split_type":[0,0,0,0,0,0,0,0,0,0,0,0,0,0,0,0,0,0,0,0,0,0,0,0,0,0,0,0,0,0,0,0,0,0,0,0,0,0,0,0,0,0,0,0,0,0,0,0,0,0,0,0,0,0,0,0,0,0,0,0,0,0,0],"sum_hessian":[8.261736E7,7.372418E6,7.524494E7,4.042727E6,3.329691E6,7.35308E7,1.714144E6,2.326491E6,1.716236E6,9.36106E5,2.393585E6,3.268281E6,7.026252E7,1.414617E6,2.99527E5,3.07176E5,2.019315E6,5.243E3,1.710993E6,1.313E4,9.22976E5,5.75614E5,1.817971E6,2.18865E6,1.079631E6,1.8382856E7,5.1879664E7,6.48343E5,7.66274E5,2.3467E4,2.7606E5,2.41171E5,6.6005E4,1.627085E6,3.9223E5,1.397E3,3.846E3,1.418418E6,2.92575E5,1.0178E4,2.952E3,3.84461E5,5.38515E5,4.92044E5,8.357E4,2.71019E5,1.546952E6,7.59371E5,1.429279E6,4.68771E5,6.1086E5,8.769354E6,9.613502E6,3.7402476E7,1.4477188E7,5.87689E5,6.0654E4,5.49145E5,2.17129E5,2.18E4,1.667E3,4.5244E4,2.30816E5],"tree_param":{"num_deleted":"0","num_feature":"69","num_nodes":"63","size_leaf_vector":"0"}},{"base_weights":[7.1640513E-3,1.9698767E-3,2.6710209E-2,5.880665E-3,-2.6315853E-2,1.924066E-2,3.4952506E-2,-1.9077038E-2,1.0274527E-2,-1.01150125E-2,-5.6906365E-2,1.97736E-2,-3.3185866E-1,2.435201E-2,4.355941E-2,-3.6647134E-2,4.1985232E-3,1.4194462E-2,-2.24392E-2,-7.929407E-2,-3.9037287E-3,-8.366365E-2,-3.499734E-2,-1.3420255E-3,2.3925874E-2,-6.7575026E-1,-3.0604762E-1,3.0558974E-2,-1.147997E-2,4.1723363E-2,8.4417984E-2,-6.260853E-2,-1.46246785E-2,6.249119E-3,-1.503877E-1,1.7204085E-2,-2.160713E-2,-6.698043E-2,5.342261E-3,-9.951542E-2,-7.6020304E-3,-3.3945635E-2,1.1222772E-2,-9.322411E-2,-7.952889E-3,-4.302715E-2,1.5240676E-2,-3.0922925E-2,2.622142E-2,2.4771612E-2,-4.151114E-2,-2.860118E-1,-8.353408E-1,-1.519554E-1,-4.1823387E-1,3.2226097E-2,-8.470827E-2,-8.287841E-2,2.6211614E-2,3.0076183E-2,4.7016695E-2,5.601353E-1,8.1917875E-2],"categories":[],"categories_nodes":[],"categories_segments":[],"categories_sizes":[],"default_left":[1,1,1,1,1,1,1,1,1,1,1,1,1,1,1,1,1,1,1,1,1,1,1,1,1,1,1,1,1,1,1,0,0,0,0,0,0,0,0,0,0,0,0,0,0,0,0,0,0,0,0,0,0,0,0,0,0,0,0,0,0,0,0],"id":10,"left_children":[1,3,5,7,9,11,13,15,17,19,21,23,25,27,29,31,33,35,37,39,41,43,45,47,49,51,53,55,57,59,61,-1,-1,-1,-1,-1,-1,-1,-1,-1,-1,-1,-1,-1,-1,-1,-1,-1,-1,-1,-1,-1,-1,-1,-1,-1,-1,-1,-1,-1,-1,-1,-1],"loss_changes":[8.387822E3,7.2203613E3,1.0678857E3,6.28835E3,3.9292246E3,1.7026072E3,7.523535E2,3.510549E3,6.2527065E3,2.2272034E3,1.6092324E3,7.965896E2,1.2220471E2,8.2182275E2,3.414043E2,2.7967188E3,1.170524E3,4.691625E3,6.45617E3,6.190852E2,2.1613694E3,8.9450977E2,6.088452E2,1.2173264E3,4.2018408E2,5.95961E1,2.21729E2,6.052334E2,1.4682155E3,2.6851318E2,2.3272192E2,0E0,0E0,0E0,0E0,0E0,0E0,0E0,0E0,0E0,0E0,0E0,0E0,0E0,0E0,0E0,0E0,0E0,0E0,0E0,0E0,0E0,0E0,0E0,0E0,0E0,0E0,0E0,0E0,0E0,0E0,0E0,0E0],"parents":[2147483647,0,0,1,1,2,2,3,3,4,4,5,5,6,6,7,7,8,8,9,9,10,10,11,11,12,12,13,13,14,14,15,15,16,16,17,17,18,18,19,19,20,20,21,21,22,22,23,23,24,24,25,25,26,26,27,27,28,28,29,29,30,30],"right_children":[2,4,6,8,10,12,14,16,18,20,22,24,26,28,30,32,34,36,38,40,42,44,46,48,50,52,54,56,58,60,62,-1,-1,-1,-1,-1,-1,-1,-1,-1,-1,-1,-1,-1,-1,-1,-1,-1,-1,-1,-1,-1,-1,-1,-1,-1,-1,-1,-1,-1,-1,-1,-1],"split_conditions":[5.0120163E0,5E-1,3.52592E5,-1.4564102E6,3.0219525E5,3.5161856E5,2.5E0,3.746532E5,1.7854491E6,-7.5046606E5,1.75E1,-1.9889408E6,2.05E1,5E-1,5E-1,-2.0148216E6,9.05E1,5E-1,1.844908E6,2.05E1,4.45E1,7.85E1,6.75E1,5.1847057E0,6.5E0,4.5E1,2.15E1,8.55E1,5.8136925E5,1.95E1,2.75E1,-1.878256E-2,-4.387404E-3,1.8747358E-3,-4.5116313E-2,5.161226E-3,-6.4821397E-3,-2.009413E-2,1.6026783E-3,-2.9854627E-2,-2.2806092E-3,-1.0183691E-2,3.366832E-3,-2.7967233E-2,-2.3858668E-3,-1.2908146E-2,4.572203E-3,-9.276878E-3,7.866426E-3,7.431484E-3,-1.2453343E-2,-8.580354E-2,-2.5060225E-1,-4.558662E-2,-1.2547016E-1,9.66783E-3,-2.5412483E-2,-2.4863524E-2,7.863484E-3,9.022855E-3,1.4105009E-2,1.680406E-1,2.4575364E-2],"split_indices":[65,63,68,67,68,68,66,68,67,67,64,67,64,37,58,67,61,48,67,64,61,61,61,65,66,61,64,61,68,64,61,0,0,0,0,0,0,0,0,0,0,0,0,0,0,0,0,0,0,0,0,0,0,0,0,0,0,0,0,0,0,0,0],"split_type":[0,0,0,0,0,0,0,0,0,0,0,0,0,0,0,0,0,0,0,0,0,0,0,0,0,0,0,0,0,0,0,0,0,0,0,0,0,0,0,0,0,0,0,0,0,0,0,0,0,0,0,0,0,0,0,0,0,0,0,0,0,0,0],"sum_hessian":[8.261736E7,6.5272044E7,1.734532E7,5.7343696E7,7.928346E6,9.099205E6,8.246115E6,8.584218E6,4.875948E7,5.18327E6,2.745076E6,9.085415E6,1.379E4,3.695115E6,4.551E6,4.891646E6,3.692572E6,4.3542036E7,5.217442E6,4.2704E5,4.75623E6,1.235801E6,1.509275E6,1.493006E6,7.592409E6,9.61E2,1.2829E4,3.149539E6,5.45576E5,4.35529E6,1.9571E5,2.245047E6,2.646599E6,3.644232E6,4.834E4,4.016556E7,3.376475E6,2.004186E6,3.213256E6,3.33089E5,9.3951E4,1.592819E6,3.163411E6,1.097245E6,1.38556E5,1.301284E6,2.07991E5,7.20148E5,7.72858E5,7.495534E6,9.6875E4,2.8E2,6.81E2,5.406E3,7.423E3,3.104637E6,4.4902E4,1.88501E5,3.57075E5,1.360882E6,2.994408E6,1.022E3,1.94688E5],"tree_param":{"num_deleted":"0","num_feature":"69","num_nodes":"63","size_leaf_vector":"0"}},{"base_weights":[5.0148284E-3,6.4123957E-3,-5.9041277E-2,-5.7042617E-2,7.6369983E-3,-7.040799E-2,-3.4082904E-2,-3.184155E-2,-8.585249E-2,-2.6311078E-3,1.35982735E-2,-6.597996E-2,-1.6799325E-1,-9.287152E-2,2.3789909E-3,-1.0810591E-1,-1.9692278E-2,-1.07591234E-1,-3.6551815E-2,-1.851078E-2,9.064327E-3,1.5525474E-2,-1.6426334E-2,-9.721335E-2,-5.663006E-2,-1.7649579E-1,2.88193E-1,-1.3119045E-1,-1.9411558E-2,-1.512453E-2,5.312527E-2,-2.3295587E-1,-6.0095206E-2,-4.728461E-2,2.3266828E-2,-1.1148485E-1,1.7999206E-1,-5.1918924E-2,8.072926E-2,-6.878062E-2,-1.3818832E-2,-9.767178E-3,2.9439988E-2,1.1826983E-2,3.688348E-2,-4.0805466E-2,2.0397883E-2,-9.110385E-2,-3.7348348E-1,-5.8697816E-2,1.3906828E-1,-1.5413328E-1,-3.9710096E-1,4.1329232E-1,-1.4635564E-1,-2.4523117E-2,-1.4983109E-1,-1.3355373E-2,-7.096898E-1,-1.1369442E-2,-2.764841E-1,-4.468219E-2,1.058722E-1],"categories":[],"categories_nodes":[],"categories_segments":[],"categories_sizes":[],"default_left":[1,1,1,1,1,1,1,1,1,1,1,1,1,1,1,1,1,1,1,1,1,1,1,1,1,1,1,1,1,1,1,0,0,0,0,0,0,0,0,0,0,0,0,0,0,0,0,0,0,0,0,0,0,0,0,0,0,0,0,0,0,0,0],"id":11,"left_children":[1,3,5,7,9,11,13,15,17,19,21,23,25,27,29,31,33,35,37,39,41,43,45,47,49,51,53,55,57,59,61,-1,-1,-1,-1,-1,-1,-1,-1,-1,-1,-1,-1,-1,-1,-1,-1,-1,-1,-1,-1,-1,-1,-1,-1,-1,-1,-1,-1,-1,-1,-1,-1],"loss_changes":[7.396133E3,6.282882E3,5.0044873E2,1.111437E3,4.85541E3,5.23728E2,1.1832388E3,7.565832E2,7.655039E2,5.4111743E3,2.9039482E3,3.3858398E2,2.0411157E2,5.948043E2,3.0262015E2,6.7256384E2,8.348978E2,5.5506934E2,3.9393552E2,2.9146958E3,6.438055E3,3.7252188E3,2.7174905E3,4.5082837E2,3.6109082E2,2.5473315E2,5.241085E1,2.76114E2,3.028184E2,2.4861328E2,4.5078128E2,0E0,0E0,0E0,0E0,0E0,0E0,0E0,0E0,0E0,0E0,0E0,0E0,0E0,0E0,0E0,0E0,0E0,0E0,0E0,0E0,0E0,0E0,0E0,0E0,0E0,0E0,0E0,0E0,0E0,0E0,0E0,0E0],"parents":[2147483647,0,0,1,1,2,2,3,3,4,4,5,5,6,6,7,7,8,8,9,9,10,10,11,11,12,12,13,13,14,14,15,15,16,16,17,17,18,18,19,19,20,20,21,21,22,22,23,23,24,24,25,25,26,26,27,27,28,28,29,29,30,30],"right_children":[2,4,6,8,10,12,14,16,18,20,22,24,26,28,30,32,34,36,38,40,42,44,46,48,50,52,54,56,58,60,62,-1,-1,-1,-1,-1,-1,-1,-1,-1,-1,-1,-1,-1,-1,-1,-1,-1,-1,-1,-1,-1,-1,-1,-1,-1,-1,-1,-1,-1,-1,-1,-1],"split_conditions":[5E-1,4.075803E0,1.95E1,2.412039E5,4.85E1,5E-1,5E-1,-1.391733E6,1.5E0,2.5E0,8.45E1,9.1370125E4,1.2714345E6,1.5E0,5E-1,4.015988E0,7.05E1,2.0527058E6,7.35E1,-7.633901E5,1.95E1,5E-1,1.5E0,6.9909516E4,9.5401075E5,1.2357388E6,4.560091E0,4.3394413E0,5E-1,5E-1,1.0357795E6,-6.988677E-2,-1.8028563E-2,-1.4185384E-2,6.9800485E-3,-3.3445455E-2,5.399762E-2,-1.5575678E-2,2.4218779E-2,-2.0634187E-2,-4.1456497E-3,-2.9301536E-3,8.8319965E-3,3.548095E-3,1.1065044E-2,-1.224164E-2,6.1193653E-3,-2.7331157E-2,-1.1204505E-1,-1.7609345E-2,4.1720483E-2,-4.6239983E-2,-1.1913029E-1,1.239877E-1,-4.3906696E-2,-7.356935E-3,-4.4949327E-2,-4.006612E-3,-2.1290694E-1,-3.4108327E-3,-8.2945235E-2,-1.3404657E-2,3.176166E-2],"split_indices":[59,65,64,68,61,40,62,67,66,66,61,67,67,66,63,65,61,67,61,68,64,57,66,67,68,67,65,65,53,22,67,0,0,0,0,0,0,0,0,0,0,0,0,0,0,0,0,0,0,0,0,0,0,0,0,0,0,0,0,0,0,0,0],"split_type":[0,0,0,0,0,0,0,0,0,0,0,0,0,0,0,0,0,0,0,0,0,0,0,0,0,0,0,0,0,0,0,0,0,0,0,0,0,0,0,0,0,0,0,0,0,0,0,0,0,0,0,0,0,0,0,0,0,0,0,0,0,0,0],"sum_hessian":[8.261736E7,8.085332E7,1.764046E6,1.530824E6,7.93225E7,1.212046E6,5.52E5,8.16555E5,7.14269E5,2.9136246E7,5.018625E7,1.159437E6,5.2609E4,2.11305E5,3.40695E5,1.12205E5,7.0435E5,4.95695E5,2.18574E5,1.2357561E7,1.6778684E7,4.7159224E7,3.027025E6,2.67118E5,8.92319E5,5.1647E4,9.62E2,1.38867E5,7.2438E4,2.5332E5,8.7375E4,3.1163E4,8.1042E4,4.28882E5,2.75468E5,4.89074E5,6.621E3,1.93253E5,2.5321E4,1.054932E6,1.1302629E7,8.719753E6,8.058932E6,4.0198236E7,6.960986E6,1.82127E6,1.205755E6,2.6134E5,5.778E3,8.8299E5,9.329E3,4.6895E4,4.752E3,7.47E2,2.15E2,2.0658E4,1.18209E5,7.1809E4,6.29E2,2.49733E5,3.587E3,3.0612E4,5.6763E4],"tree_param":{"num_deleted":"0","num_feature":"69","num_nodes":"63","size_leaf_vector":"0"}},{"base_weights":[3.510376E-3,-2.068289E-2,5.880806E-3,-3.516808E-2,2.5617373E-3,6.99393E-3,-4.18683E-2,-5.628051E-2,-1.5656596E-2,1.1368173E-2,-3.373939E-2,5.7324558E-3,4.0855117E-2,-1.17955515E-2,-6.2372748E-2,2.6856852E-1,-5.745725E-2,-4.8005227E-2,-4.060914E-3,-9.42923E-2,1.3484695E-2,-6.517904E-2,-3.7016347E-3,1.1099877E-3,1.421545E-2,2.6728678E-2,6.398495E-2,8.957381E-3,-5.660579E-2,-7.668009E-2,-1.0338348E-3,7.364745E-1,2.3990689E-1,-2.5625544E-2,-6.828473E-2,-2.6852107E-2,-8.206902E-2,-4.4116605E-2,5.17177E-3,-2.7681077E-1,-2.4611684E-2,1.4661546E-2,-1.0891767E-1,-9.795058E-2,6.8583935E-3,-2.3158278E-1,3.6532487E-4,-8.21751E-3,1.07682E-2,1.7939072E-2,-2.187839E-2,2.8320588E-2,-1.3002096E-1,9.350072E-2,4.5212805E-2,-7.0570424E-2,3.3724584E-2,-9.160692E-2,4.065087E-2,-1.0078836E-1,-2.9348502E-2,-8.0855876E-2,1.3556786E-2],"categories":[],"categories_nodes":[],"categories_segments":[],"categories_sizes":[],"default_left":[1,1,1,1,1,1,1,1,1,1,1,1,1,1,1,1,1,1,1,1,1,1,1,1,1,1,1,1,1,1,1,0,0,0,0,0,0,0,0,0,0,0,0,0,0,0,0,0,0,0,0,0,0,0,0,0,0,0,0,0,0,0,0],"id":12,"left_children":[1,3,5,7,9,11,13,15,17,19,21,23,25,27,29,31,33,35,37,39,41,43,45,47,49,51,53,55,57,59,61,-1,-1,-1,-1,-1,-1,-1,-1,-1,-1,-1,-1,-1,-1,-1,-1,-1,-1,-1,-1,-1,-1,-1,-1,-1,-1,-1,-1,-1,-1,-1,-1],"loss_changes":[4.737978E3,2.4823152E3,3.999319E3,1.8710098E3,9.0483655E2,3.1408694E3,1.0569841E3,8.339253E2,8.8543506E2,5.0939746E2,5.2185004E2,2.7797593E3,8.629082E2,6.462474E2,8.944592E2,1.0542108E2,7.4915625E2,4.488108E2,6.426143E2,5.688947E2,3.2167755E2,6.3739404E2,2.6190445E2,4.1337363E3,3.3605024E3,4.0913184E2,5.5482764E2,9.355281E2,7.487987E2,9.430405E2,2.2451128E2,0E0,0E0,0E0,0E0,0E0,0E0,0E0,0E0,0E0,0E0,0E0,0E0,0E0,0E0,0E0,0E0,0E0,0E0,0E0,0E0,0E0,0E0,0E0,0E0,0E0,0E0,0E0,0E0,0E0,0E0,0E0,0E0],"parents":[2147483647,0,0,1,1,2,2,3,3,4,4,5,5,6,6,7,7,8,8,9,9,10,10,11,11,12,12,13,13,14,14,15,15,16,16,17,17,18,18,19,19,20,20,21,21,22,22,23,23,24,24,25,25,26,26,27,27,28,28,29,29,30,30],"right_children":[2,4,6,8,10,12,14,16,18,20,22,24,26,28,30,32,34,36,38,40,42,44,46,48,50,52,54,56,58,60,62,-1,-1,-1,-1,-1,-1,-1,-1,-1,-1,-1,-1,-1,-1,-1,-1,-1,-1,-1,-1,-1,-1,-1,-1,-1,-1,-1,-1,-1,-1,-1,-1],"split_conditions":[1.55E1,7.15E1,5E-1,5E-1,1.5853714E6,5E-1,2.05E1,1.75E1,4.65E1,4.0174503E0,1.5E0,6.05E1,6.78316E5,1.5916585E6,5.1761203E0,5E-1,-3.2899878E5,5E-1,4.360309E0,-1.5994142E6,5E-1,8.55E1,-1.1535758E6,1.95E1,8.45E1,8.95E1,5E-1,-2.0000436E6,1.844908E6,5E-1,5E-1,2.2094236E-1,7.197207E-2,-7.687663E-3,-2.048542E-2,-8.055632E-3,-2.4620706E-2,-1.3234982E-2,1.5515311E-3,-8.304323E-2,-7.3835053E-3,4.3984638E-3,-3.2675304E-2,-2.9385174E-2,2.057518E-3,-6.947484E-2,1.09597466E-4,-2.465253E-3,3.2304602E-3,5.381722E-3,-6.5635173E-3,8.496176E-3,-3.900629E-2,2.8050216E-2,1.35638425E-2,-2.1171128E-2,1.0117375E-2,-2.7482077E-2,1.2195262E-2,-3.023651E-2,-8.804551E-3,-2.4256764E-2,4.067036E-3],"split_indices":[64,61,4,56,67,27,64,61,61,65,66,61,68,67,65,0,68,62,65,67,10,61,68,64,61,61,56,67,67,62,56,0,0,0,0,0,0,0,0,0,0,0,0,0,0,0,0,0,0,0,0,0,0,0,0,0,0,0,0,0,0,0,0],"split_type":[0,0,0,0,0,0,0,0,0,0,0,0,0,0,0,0,0,0,0,0,0,0,0,0,0,0,0,0,0,0,0,0,0,0,0,0,0,0,0,0,0,0,0,0,0,0,0,0,0,0,0,0,0,0,0,0,0,0,0,0,0,0,0],"sum_hessian":[8.261736E7,7.372418E6,7.524494E7,4.542007E6,2.830411E6,7.35308E7,1.714144E6,2.181505E6,2.360502E6,2.277825E6,5.52586E5,7.088985E7,2.64095E6,6.9493E5,1.019214E6,7.873E3,2.173632E6,6.2287E5,1.737632E6,4.4731E4,2.233094E6,2.69992E5,2.82594E5,4.5886076E7,2.5003776E7,1.639584E6,1.001366E6,4.74962E5,2.19968E5,8.26445E5,1.92769E5,4.53E2,7.42E3,5.51698E5,1.621934E6,3.84255E5,2.38615E5,3.25492E5,1.41214E6,1.2358E4,3.2373E4,2.211829E6,2.1265E4,1.85571E5,8.4421E4,4.954E3,2.7764E5,2.3342686E7,2.2543388E7,2.2665492E7,2.338285E6,1.623101E6,1.6483E4,3.89284E5,6.12082E5,1.1279E5,3.62172E5,1.61755E5,5.8213E4,5.4755E5,2.78895E5,2.979E4,1.62979E5],"tree_param":{"num_deleted":"0","num_feature":"69","num_nodes":"63","size_leaf_vector":"0"}},{"base_weights":[2.4572685E-3,-2.1511149E-2,4.246929E-3,-2.117822E-3,-4.3151192E-2,2.3282247E-3,2.5681823E-2,-1.902467E-2,2.5767135E-2,-3.1401467E-2,-8.128594E-2,6.40423E-5,2.2043725E-2,8.044726E-3,5.047355E-2,-2.8835801E-2,1.8999906E-2,4.6066392E-2,-1.5986186E-3,-4.2343896E-2,-1.1273337E-2,-7.037902E-2,-1.6769977E-1,2.3594475E-3,-2.2844505E-2,1.4361564E-2,3.7719976E-2,1.1234913E-2,-5.7693467E-2,6.500176E-2,2.7891887E-2,-5.6444146E-2,-1.688161E-2,-1.5708707E-1,2.6448375E-2,-1.1113705E-1,5.1145088E-2,-5.9506383E-2,1.4116963E-2,-7.151991E-2,-2.3798738E-2,-1.1430981E-1,6.876756E-3,-7.9585955E-2,-3.502523E-3,-1.7785627E-1,3.7665993E-1,-3.1262455E-3,1.4144303E-2,-6.433259E-2,2.3337943E-3,3.203246E-2,-1.3941235E-2,2.2748452E-2,8.3884194E-2,1.911655E-3,2.8785938E-2,-2.8110761E-2,-1.5728463E-1,8.557954E-2,4.2285547E-2,3.4839027E-2,-2.2476591E-2],"categories":[],"categories_nodes":[],"categories_segments":[],"categories_sizes":[],"default_left":[1,1,1,1,1,1,1,1,1,1,1,1,1,1,1,1,1,1,1,1,1,1,1,1,1,1,1,1,1,1,1,0,0,0,0,0,0,0,0,0,0,0,0,0,0,0,0,0,0,0,0,0,0,0,0,0,0,0,0,0,0,0,0],"id":13,"left_children":[1,3,5,7,9,11,13,15,17,19,21,23,25,27,29,31,33,35,37,39,41,43,45,47,49,51,53,55,57,59,61,-1,-1,-1,-1,-1,-1,-1,-1,-1,-1,-1,-1,-1,-1,-1,-1,-1,-1,-1,-1,-1,-1,-1,-1,-1,-1,-1,-1,-1,-1,-1,-1],"loss_changes":[3.5438997E3,2.4090125E3,3.1617444E3,1.4271923E3,1.2156016E3,3.1498074E3,2.7617559E3,7.030805E2,6.3474835E2,4.5678943E2,6.022583E2,3.32819E3,8.753469E2,7.7398334E2,8.6136035E2,4.9441687E2,5.0697507E2,5.237704E2,4.4285687E2,7.2695776E2,1.3659507E3,3.4935986E2,3.960056E2,3.7190828E3,6.021319E3,2.4397302E3,1.6522122E3,5.759535E2,5.0323492E2,7.468208E2,3.5967218E2,0E0,0E0,0E0,0E0,0E0,0E0,0E0,0E0,0E0,0E0,0E0,0E0,0E0,0E0,0E0,0E0,0E0,0E0,0E0,0E0,0E0,0E0,0E0,0E0,0E0,0E0,0E0,0E0,0E0,0E0,0E0,0E0],"parents":[2147483647,0,0,1,1,2,2,3,3,4,4,5,5,6,6,7,7,8,8,9,9,10,10,11,11,12,12,13,13,14,14,15,15,16,16,17,17,18,18,19,19,20,20,21,21,22,22,23,23,24,24,25,25,26,26,27,27,28,28,29,29,30,30],"right_children":[2,4,6,8,10,12,14,16,18,20,22,24,26,28,30,32,34,36,38,40,42,44,46,48,50,52,54,56,58,60,62,-1,-1,-1,-1,-1,-1,-1,-1,-1,-1,-1,-1,-1,-1,-1,-1,-1,-1,-1,-1,-1,-1,-1,-1,-1,-1,-1,-1,-1,-1,-1,-1],"split_conditions":[4.190528E0,2.3861989E5,8.5640925E5,6.95E1,5E-1,5E-1,-5.9513625E4,5E-1,-1.9453678E5,1.5E0,5E-1,1.806009E6,1.5E0,8.25E1,5.95E1,1.7226564E5,-2.0002679E6,5.5E0,4.051346E0,6.85E1,5E-1,2.05E1,1.273143E6,3.837958E5,1.8410335E6,8.05E1,8.05E1,4.9126735E0,2.05E1,1.2729088E6,8.15E1,-1.6933244E-2,-5.064483E-3,-4.7126126E-2,7.934513E-3,-3.3341117E-2,1.5343527E-2,-1.7851915E-2,4.2350893E-3,-2.1455973E-2,-7.139622E-3,-3.4292944E-2,2.063027E-3,-2.3875788E-2,-1.050757E-3,-5.3356882E-2,1.1299799E-1,-9.378737E-4,4.243291E-3,-1.9299777E-2,7.001383E-4,9.609738E-3,-4.182371E-3,6.824536E-3,2.516526E-2,5.734965E-4,8.635782E-3,-8.433228E-3,-4.718539E-2,2.5673863E-2,1.2685665E-2,1.0451708E-2,-6.7429775E-3],"split_indices":[65,68,68,61,58,57,67,56,68,66,40,67,66,61,61,67,67,64,65,61,0,64,67,68,67,61,61,65,64,67,61,0,0,0,0,0,0,0,0,0,0,0,0,0,0,0,0,0,0,0,0,0,0,0,0,0,0,0,0,0,0,0,0],"split_type":[0,0,0,0,0,0,0,0,0,0,0,0,0,0,0,0,0,0,0,0,0,0,0,0,0,0,0,0,0,0,0,0,0,0,0,0,0,0,0,0,0,0,0,0,0,0,0,0,0,0,0,0,0,0,0,0,0,0,0,0,0,0,0],"sum_hessian":[8.261736E7,5.74022E6,7.6877144E7,3.027259E6,2.712961E6,7.056101E7,6.316136E6,1.884608E6,1.142651E6,2.073955E6,6.39006E5,6.329234E7,7.268666E6,3.690603E6,2.625533E6,1.498074E6,3.86534E5,6.56026E5,4.86625E5,1.343549E6,7.30406E5,5.67393E5,7.1613E4,5.7528104E7,5.764237E6,4.878134E6,2.390532E6,3.519793E6,1.7081E5,1.597657E6,1.027876E6,4.52656E5,1.045418E6,1.5686E4,3.70848E5,2.053E4,6.35496E5,1.03874E5,3.82751E5,5.22122E5,8.21427E5,1.09392E5,6.21014E5,4.98732E5,6.8661E4,7.0302E4,1.311E3,3.9255292E7,1.8272812E7,2.177014E6,3.587223E6,3.003127E6,1.875007E6,1.805116E6,5.85416E5,2.298703E6,1.22109E6,1.31693E5,3.9117E4,8.38284E5,7.59373E5,9.03289E5,1.24587E5],"tree_param":{"num_deleted":"0","num_feature":"69","num_nodes":"63","size_leaf_vector":"0"}},{"base_weights":[1.7200853E-3,2.595863E-3,-3.842031E-2,-4.4446785E-2,3.3862777E-3,-9.517147E-2,-3.4270246E-2,-6.9870785E-2,-1.888836E-2,1.1980952E-3,1.8120078E-2,-1.1297302E-1,2.6323963E-2,6.631685E-3,-4.0990196E-2,-3.765553E-2,-1.1128844E-1,-8.542476E-2,-4.111681E-3,4.375499E-3,-1.2442904E-2,3.6227286E-2,1.46150645E-2,-9.540453E-2,-2.6951435E-1,-3.8793758E-1,9.1186784E-2,-1.4619228E-2,9.039699E-2,-6.919208E-2,-3.406426E-2,-6.434096E-2,4.6655074E-2,-4.56198E-2,-1.6318397E-1,-9.244274E-2,3.4403187E-1,-2.0143786E-2,1.801852E-2,-6.544655E-3,9.650069E-3,-3.823748E-2,-5.586017E-3,1.4563553E-2,4.9621444E-2,-1.4250357E-1,1.5589498E-2,-8.7177955E-2,-3.8807985E-1,-3.709701E-1,-1.5563291E-1,-4.475384E-1,3.3496025E-1,6.351853E-2,3.160831E-1,-1.215228E-2,-5.5617493E-1,1.727995E-1,4.244476E-2,-4.4379678E-2,-1.1404727E-1,-4.4757117E-2,-9.779615E-3],"categories":[],"categories_nodes":[],"categories_segments":[],"categories_sizes":[],"default_left":[1,1,1,1,1,1,1,1,1,1,1,1,1,1,1,1,1,1,1,1,1,1,1,1,1,1,1,1,1,1,1,0,0,0,0,0,0,0,0,0,0,0,0,0,0,0,0,0,0,0,0,0,0,0,0,0,0,0,0,0,0,0,0],"id":14,"left_children":[1,3,5,7,9,11,13,15,17,19,21,23,25,27,29,31,33,35,37,39,41,43,45,47,49,51,53,55,57,59,61,-1,-1,-1,-1,-1,-1,-1,-1,-1,-1,-1,-1,-1,-1,-1,-1,-1,-1,-1,-1,-1,-1,-1,-1,-1,-1,-1,-1,-1,-1,-1,-1],"loss_changes":[2.9043364E3,3.0063853E3,4.154668E2,8.681643E2,2.563656E3,2.5999182E2,4.5182422E2,8.936821E2,6.5506573E2,3.000845E3,6.525813E2,2.8832397E2,4.128418E2,4.1291794E2,2.7577173E2,8.4763934E2,9.9864624E2,3.6495123E2,1.9343071E2,3.2344634E3,2.3134917E3,4.8387354E2,1.3189457E3,2.2693915E2,1.22171265E2,8.9767365E1,8.263945E1,2.4718478E2,1.8547061E2,3.0981104E2,2.9433997E2,0E0,0E0,0E0,0E0,0E0,0E0,0E0,0E0,0E0,0E0,0E0,0E0,0E0,0E0,0E0,0E0,0E0,0E0,0E0,0E0,0E0,0E0,0E0,0E0,0E0,0E0,0E0,0E0,0E0,0E0,0E0,0E0],"parents":[2147483647,0,0,1,1,2,2,3,3,4,4,5,5,6,6,7,7,8,8,9,9,10,10,11,11,12,12,13,13,14,14,15,15,16,16,17,17,18,18,19,19,20,20,21,21,22,22,23,23,24,24,25,25,26,26,27,27,28,28,29,29,30,30],"right_children":[2,4,6,8,10,12,14,16,18,20,22,24,26,28,30,32,34,36,38,40,42,44,46,48,50,52,54,56,58,60,62,-1,-1,-1,-1,-1,-1,-1,-1,-1,-1,-1,-1,-1,-1,-1,-1,-1,-1,-1,-1,-1,-1,-1,-1,-1,-1,-1,-1,-1,-1,-1,-1],"split_conditions":[5E-1,-2.2583645E6,-8.516296E5,4.870111E0,5.1142607E0,6.55E1,-4.014401E5,-2.2800972E6,3.75E1,1.5901168E6,5E-1,-8.696845E5,1.05E1,-4.9274638E5,-7.003033E5,7.15E1,3.4529338E5,6.5E0,5.85E1,5.9130766E4,3.95E1,1.5E0,1.5E0,6.45E1,5.5220008E4,3.5E0,7.75E1,5.5269613E0,4.3149185E0,-1.9488849E6,1.95E1,-1.9302288E-2,1.3996523E-2,-1.3685941E-2,-4.8955195E-2,-2.7732825E-2,1.0320956E-1,-6.043136E-3,5.405556E-3,-1.9633966E-3,2.8950209E-3,-1.1471244E-2,-1.6758052E-3,4.369066E-3,1.4886434E-2,-4.2751074E-2,4.6768496E-3,-2.6153388E-2,-1.1642396E-1,-1.11291036E-1,-4.6689875E-2,-1.3426153E-1,1.0048808E-1,1.905556E-2,9.482493E-2,-3.645684E-3,-1.6685249E-1,5.183985E-2,1.2733429E-2,-1.33139035E-2,-3.421418E-2,-1.3427136E-2,-2.9338847E-3],"split_indices":[59,67,68,65,65,61,68,67,61,67,56,68,64,68,67,61,68,66,61,67,61,66,66,61,67,66,61,65,65,67,64,0,0,0,0,0,0,0,0,0,0,0,0,0,0,0,0,0,0,0,0,0,0,0,0,0,0,0,0,0,0,0,0],"split_type":[0,0,0,0,0,0,0,0,0,0,0,0,0,0,0,0,0,0,0,0,0,0,0,0,0,0,0,0,0,0,0,0,0,0,0,0,0,0,0,0,0,0,0,0,0,0,0,0,0,0,0,0,0,0,0,0,0,0,0,0,0,0,0],"sum_hessian":[8.261736E7,8.085332E7,1.764046E6,1.336055E6,7.951726E7,1.20208E5,1.643838E6,6.69788E5,6.66267E5,6.923488E7,1.0282381E7,1.04846E5,1.5362E4,2.31963E5,1.411875E6,3.76749E5,2.93039E5,1.21077E5,5.4519E5,5.6154732E7,1.3080148E7,1.667568E6,8.614813E6,9.4268E4,1.0578E4,2.079E3,1.3283E4,1.85024E5,4.6939E4,2.78369E5,1.133506E6,2.86172E5,9.0577E4,1.29355E5,1.63684E5,1.19131E5,1.946E3,3.16154E5,2.29036E5,1.8289416E7,3.7865316E7,2.746862E6,1.0333286E7,6.37109E5,1.030459E6,5.3098E4,8.561715E6,9.1692E4,2.576E3,5.593E3,4.985E3,1.921E3,1.58E2,1.1829E4,1.454E3,1.84186E5,8.38E2,1.7266E4,2.9673E4,1.79228E5,9.9141E4,7.86985E5,3.46521E5],"tree_param":{"num_deleted":"0","num_feature":"69","num_nodes":"63","size_leaf_vector":"0"}},{"base_weights":[1.2040554E-3,3.0588363E-3,-1.4227709E-2,3.2462117E-3,-1.4140275E-1,-2.2036526E-2,1.4347484E-2,1.767555E-3,1.8704874E-2,-2.0867537E-1,-2.2764806E-2,-1.1283901E-2,-4.003081E-2,-1.934056E-2,3.668686E-2,2.493696E-3,-3.909696E-2,5.9154956E-3,3.725612E-2,-2.3463044E-1,-3.227306E-2,-8.2087494E-2,9.505762E-2,-4.1543715E-2,-2.968949E-3,-5.6373313E-2,-1.8338373E-2,-7.366779E-2,2.015273E-3,5.1674835E-2,-8.8599604E-4,-1.6388478E-2,4.0338635E-3,-2.1344435E-4,-8.206155E-2,-1.0953477E-2,1.562045E-2,2.8113015E-2,6.4846024E-2,-1.899227E-1,-2.9798165E-1,1.09065585E-2,-3.379764E-1,-4.0586095E-2,-3.795858E-1,-3.0925345E-1,1.14634894E-1,-5.220497E-2,3.5787508E-2,1.888964E-2,-1.5487541E-2,-4.6246525E-2,-1.1443098E-1,2.4800235E-2,-4.2761385E-2,-6.9837496E-2,-3.8870624E-1,-5.5844415E-2,1.214347E-2,6.908912E-2,1.9792667E-2,-9.62091E-2,1.2761563E-2],"categories":[],"categories_nodes":[],"categories_segments":[],"categories_sizes":[],"default_left":[1,1,1,1,1,1,1,1,1,1,1,1,1,1,1,1,1,1,1,1,1,1,1,1,1,1,1,1,1,1,1,0,0,0,0,0,0,0,0,0,0,0,0,0,0,0,0,0,0,0,0,0,0,0,0,0,0,0,0,0,0,0,0],"id":15,"left_children":[1,3,5,7,9,11,13,15,17,19,21,23,25,27,29,31,33,35,37,39,41,43,45,47,49,51,53,55,57,59,61,-1,-1,-1,-1,-1,-1,-1,-1,-1,-1,-1,-1,-1,-1,-1,-1,-1,-1,-1,-1,-1,-1,-1,-1,-1,-1,-1,-1,-1,-1,-1,-1],"loss_changes":[2.3647192E3,1.9963828E3,1.9780182E3,1.6836625E3,7.624922E2,1.3470491E3,1.4317847E3,1.9948503E3,1.5256711E3,2.7913208E2,2.416503E2,1.096488E3,9.231748E2,8.801071E2,6.442036E2,1.9209392E3,1.9608502E3,6.2314087E2,6.619468E2,1.5047095E2,1.03242096E2,2.838946E2,9.167888E1,7.744595E2,9.3544617E2,8.731958E2,1.1788533E3,2.582671E2,3.1910248E2,4.540149E2,4.243677E2,0E0,0E0,0E0,0E0,0E0,0E0,0E0,0E0,0E0,0E0,0E0,0E0,0E0,0E0,0E0,0E0,0E0,0E0,0E0,0E0,0E0,0E0,0E0,0E0,0E0,0E0,0E0,0E0,0E0,0E0,0E0,0E0],"parents":[2147483647,0,0,1,1,2,2,3,3,4,4,5,5,6,6,7,7,8,8,9,9,10,10,11,11,12,12,13,13,14,14,15,15,16,16,17,17,18,18,19,19,20,20,21,21,22,22,23,23,24,24,25,25,26,26,27,27,28,28,29,29,30,30],"right_children":[2,4,6,8,10,12,14,16,18,20,22,24,26,28,30,32,34,36,38,40,42,44,46,48,50,52,54,56,58,60,62,-1,-1,-1,-1,-1,-1,-1,-1,-1,-1,-1,-1,-1,-1,-1,-1,-1,-1,-1,-1,-1,-1,-1,-1,-1,-1,-1,-1,-1,-1,-1,-1],"split_conditions":[5E-1,5E-1,2.05E1,8.612361E5,5.1252537E0,2.412039E5,5E-1,2.0018878E6,-5.9513625E4,6.35E1,5.370142E0,1.424596E5,1.6311999E6,1.5E0,5E-1,-2.006938E6,8.028569E5,4.638689E0,1.0247935E6,1.5E0,5E-1,2.35E1,2.9E1,7.35E1,9.812326E5,1.4825162E6,4.818756E5,5E-1,3.55E1,3.2613638E5,3.25E1,-4.9165436E-3,1.2101592E-3,-6.403331E-5,-2.4618467E-2,-3.2860432E-3,4.686135E-3,8.4339045E-3,1.9453809E-2,-5.6976814E-2,-8.9394495E-2,3.2719676E-3,-1.01392925E-1,-1.2175829E-2,-1.1387575E-1,-9.277604E-2,3.439047E-2,-1.5661491E-2,1.0736253E-2,5.666892E-3,-4.6462626E-3,-1.3873958E-2,-3.4329295E-2,7.440071E-3,-1.2828416E-2,-2.0951249E-2,-1.16611876E-1,-1.6753325E-2,3.6430412E-3,2.0726737E-2,5.9378003E-3,-2.8862732E-2,3.828469E-3],"split_indices":[63,13,64,68,65,68,62,67,67,61,65,67,67,66,56,67,68,65,68,66,3,64,61,61,67,67,68,7,61,68,61,0,0,0,0,0,0,0,0,0,0,0,0,0,0,0,0,0,0,0,0,0,0,0,0,0,0,0,0,0,0,0,0],"split_type":[0,0,0,0,0,0,0,0,0,0,0,0,0,0,0,0,0,0,0,0,0,0,0,0,0,0,0,0,0,0,0,0,0,0,0,0,0,0,0,0,0,0,0,0,0,0,0,0,0,0,0,0,0,0,0,0,0,0,0,0,0,0,0],"sum_hessian":[8.261736E7,7.375283E7,8.86453E6,7.36573E7,9.5537E4,6.962005E6,1.902525E6,6.722689E7,6.430406E6,6.0966E4,3.4571E4,4.357906E6,2.604099E6,7.58579E5,1.143946E6,6.605316E7,1.173729E6,3.806308E6,2.624098E6,5.3146E4,7.82E3,2.2994E4,1.1577E4,9.39364E5,3.418542E6,1.485193E6,1.118906E6,2.14051E5,5.44528E5,8.17744E5,3.26202E5,4.981453E6,6.1071708E7,6.16127E5,5.57602E5,1.390086E6,2.416222E6,1.970943E6,6.53155E5,3.116E4,2.1986E4,6.853E3,9.67E2,2.018E4,2.814E3,5.34E2,1.1043E4,8.2555E5,1.13814E5,1.244876E6,2.173666E6,1.264613E6,2.2058E5,4.04476E5,7.1443E5,2.11481E5,2.57E3,8.1118E4,4.6341E5,5.2887E5,2.88874E5,4.0853E4,2.85349E5],"tree_param":{"num_deleted":"0","num_feature":"69","num_nodes":"63","size_leaf_vector":"0"}},{"base_weights":[8.4283587E-4,-1.5169043E-2,2.4116626E-3,-4.159692E-3,-2.7995534E-2,-3.2240015E-2,3.0387836E-3,-8.7716235E-3,3.2582432E-2,-4.5070596E-2,-1.2033466E-2,1.3055509E-2,-4.4802275E-2,-1.2510085E-2,4.4251466E-3,-3.7517566E-2,-2.845845E-3,-5.7718283E-3,5.736843E-2,-5.244532E-2,3.6669813E-2,-2.446776E-2,7.131373E-3,1.0837565E-2,6.556E-1,-1.48599185E-2,-5.4660033E-2,-5.6331158E-2,1.0275806E-3,5.1554786E-3,-2.8490422E-2,-1.8852271E-2,-1.0019872E-1,-3.0656198E-2,1.417079E-3,-1.2067927E-1,8.776021E-3,5.948832E-2,-4.007654E-1,-5.5305764E-2,5.8624566E-2,3.1051688E-2,4.300543E-1,-1.670633E-2,-8.6234406E-2,-1.7492633E-4,7.900171E-2,3.3165682E-2,-4.079385E-2,8.874004E-1,2.4525677E-1,8.999567E-2,-2.3036031E-2,-4.519548E-2,-9.7717516E-2,-7.453854E-2,-1.8995252E-2,2.9083507E-2,-5.0259777E-3,7.407624E-3,-6.672436E-3,-4.7041755E-2,3.8280261E-3],"categories":[],"categories_nodes":[],"categories_segments":[],"categories_sizes":[],"default_left":[1,1,1,1,1,1,1,1,1,1,1,1,1,1,1,1,1,1,1,1,1,1,1,1,1,1,1,1,1,1,1,0,0,0,0,0,0,0,0,0,0,0,0,0,0,0,0,0,0,0,0,0,0,0,0,0,0,0,0,0,0,0,0],"id":16,"left_children":[1,3,5,7,9,11,13,15,17,19,21,23,25,27,29,31,33,35,37,39,41,43,45,47,49,51,53,55,57,59,61,-1,-1,-1,-1,-1,-1,-1,-1,-1,-1,-1,-1,-1,-1,-1,-1,-1,-1,-1,-1,-1,-1,-1,-1,-1,-1,-1,-1,-1,-1,-1,-1],"loss_changes":[2.075337E3,1.0410692E3,1.6351323E3,6.722561E2,9.28095E2,7.61094E2,1.5931754E3,6.0042065E2,4.206035E2,9.917705E2,4.1939963E2,4.1387408E2,3.0908057E2,3.5892236E3,1.6312372E3,7.048138E2,3.464569E2,2.9033765E2,2.6103857E2,4.7945312E2,3.0089398E2,5.1171265E2,3.6365967E2,3.3365292E2,9.480493E1,2.223551E2,3.2103516E2,9.707134E2,7.8504144E2,1.7683544E3,8.830989E2,0E0,0E0,0E0,0E0,0E0,0E0,0E0,0E0,0E0,0E0,0E0,0E0,0E0,0E0,0E0,0E0,0E0,0E0,0E0,0E0,0E0,0E0,0E0,0E0,0E0,0E0,0E0,0E0,0E0,0E0,0E0,0E0],"parents":[2147483647,0,0,1,1,2,2,3,3,4,4,5,5,6,6,7,7,8,8,9,9,10,10,11,11,12,12,13,13,14,14,15,15,16,16,17,17,18,18,19,19,20,20,21,21,22,22,23,23,24,24,25,25,26,26,27,27,28,28,29,29,30,30],"right_children":[2,4,6,8,10,12,14,16,18,20,22,24,26,28,30,32,34,36,38,40,42,44,46,48,50,52,54,56,58,60,62,-1,-1,-1,-1,-1,-1,-1,-1,-1,-1,-1,-1,-1,-1,-1,-1,-1,-1,-1,-1,-1,-1,-1,-1,-1,-1,-1,-1,-1,-1,-1,-1],"split_conditions":[1.55E1,5E-1,2.35E1,5E-1,6.75E1,1.5E0,-7.777026E5,1.5E0,7.65E1,5E-1,1.5E0,1.501686E6,4.3010736E0,4.25E1,5E-1,5E-1,-7.3556794E5,-2.5524019E5,5E-1,5E-1,5E-1,7.411805E5,8.75E1,2.05E1,1.65E1,-2.0089632E6,2.05E1,4.915136E0,4.3896976E0,5E-1,5E-1,-5.6556817E-3,-3.0059619E-2,-9.19686E-3,4.2512373E-4,-3.6203783E-2,2.6328065E-3,1.7846497E-2,-1.20229624E-1,-1.659173E-2,1.7587371E-2,9.315507E-3,1.290163E-1,-5.0118994E-3,-2.5870323E-2,-5.2477902E-5,2.3700515E-2,9.949705E-3,-1.2238156E-2,2.6622012E-1,7.357703E-2,2.69987E-2,-6.91081E-3,-1.3558644E-2,-2.9315256E-2,-2.2361562E-2,-5.6985756E-3,8.725053E-3,-1.5077934E-3,2.2222872E-3,-2.001731E-3,-1.41125275E-2,1.1484079E-3],"split_indices":[64,62,61,57,61,66,68,66,61,3,66,68,65,61,4,63,67,67,44,29,44,68,61,64,64,67,64,65,65,58,62,0,0,0,0,0,0,0,0,0,0,0,0,0,0,0,0,0,0,0,0,0,0,0,0,0,0,0,0,0,0,0,0],"split_type":[0,0,0,0,0,0,0,0,0,0,0,0,0,0,0,0,0,0,0,0,0,0,0,0,0,0,0,0,0,0,0,0,0,0,0,0,0,0,0,0,0,0,0,0,0,0,0,0,0,0,0,0,0,0,0,0,0,0,0,0,0,0,0],"sum_hessian":[8.261736E7,7.372418E6,7.524494E7,3.96723E6,3.405188E6,1.337564E6,7.3907384E7,3.524793E6,4.42437E5,1.645234E6,1.759954E6,2.90416E5,1.047148E6,6.050254E6,6.785713E7,6.02425E5,2.922368E6,1.73681E5,2.68756E5,1.509083E6,1.36151E5,1.06741E6,6.92544E5,2.89418E5,9.98E2,2.5936E5,7.87788E5,1.427965E6,4.622289E6,6.638419E7,1.472934E6,4.64197E5,1.38228E5,3.88417E5,2.533951E6,1.9517E4,1.54164E5,2.67519E5,1.237E3,1.471195E6,3.7888E4,1.34235E5,1.916E3,9.48256E5,1.19154E5,6.28638E5,6.3906E4,2.02044E5,8.7374E4,6.37E2,3.61E2,1.876E4,2.406E5,6.45829E5,1.41959E5,9.5987E5,4.68095E5,8.20337E5,3.801952E6,5.5765852E7,1.061834E7,9.3578E5,5.37154E5],"tree_param":{"num_deleted":"0","num_feature":"69","num_nodes":"63","size_leaf_vector":"0"}},{"base_weights":[5.8997876E-4,-2.955765E-2,1.1896081E-3,-4.247808E-2,-2.7777955E-3,1.4149479E-3,-6.6170864E-2,-6.323989E-2,-1.848366E-2,-1.538081E-2,6.4870924E-2,-9.865443E-4,8.816312E-3,-8.892172E-2,-7.5816535E-3,1.4147637E-2,-7.0077956E-2,-9.627337E-3,-1.0389066E-1,2.9309887E-2,-3.66867E-2,9.433858E-2,-1.2762527E-2,-4.274882E-3,1.0038939E-2,1.2460154E-2,-5.7142293E-3,2.920012E-2,-1.1238499E-1,1.0146462E-1,-1.1437349E-1,5.994905E-3,2.4613637E-1,-3.0534696E-3,-7.948352E-2,7.679015E-2,-2.1026745E-2,-2.0358436E-1,9.977561E-3,1.8151812E-1,1.1401405E-2,3.7394967E-2,-5.74062E-2,1.2319673E-1,2.745955E-2,-3.890941E-2,2.54977E-1,-2.2042273E-3,-4.311076E-2,1.3151815E-2,-2.1780694E-2,-2.5567634E-2,1.3728836E-2,6.4683356E-3,-2.897141E-2,3.5006285E-2,-6.82334E-1,-8.2501255E-2,-1.8914457E-1,2.53696E-1,8.877721E-2,-5.8745164E-3,-1.570638E-1],"categories":[],"categories_nodes":[],"categories_segments":[],"categories_sizes":[],"default_left":[1,1,1,1,1,1,1,1,1,1,1,1,1,1,1,1,1,1,1,1,1,1,1,1,1,1,1,1,1,1,1,0,0,0,0,0,0,0,0,0,0,0,0,0,0,0,0,0,0,0,0,0,0,0,0,0,0,0,0,0,0,0,0],"id":17,"left_children":[1,3,5,7,9,11,13,15,17,19,21,23,25,27,29,31,33,35,37,39,41,43,45,47,49,51,53,55,57,59,61,-1,-1,-1,-1,-1,-1,-1,-1,-1,-1,-1,-1,-1,-1,-1,-1,-1,-1,-1,-1,-1,-1,-1,-1,-1,-1,-1,-1,-1,-1,-1,-1],"loss_changes":[1.4935074E3,5.574846E2,1.2295922E3,5.414232E2,4.4706125E2,1.4350289E3,3.600105E2,3.0833643E2,3.813476E2,4.2087766E2,1.8838675E2,2.2100437E3,1.0472192E3,5.39181E2,8.797405E2,8.947035E1,3.3749243E2,4.5000006E2,5.377209E2,3.8896677E2,4.5943738E2,1.152005E2,1.5862846E2,3.7758062E3,1.3870902E3,7.6290845E2,1.1235488E3,1.3321655E2,3.722854E2,7.21702E1,1.7678308E2,0E0,0E0,0E0,0E0,0E0,0E0,0E0,0E0,0E0,0E0,0E0,0E0,0E0,0E0,0E0,0E0,0E0,0E0,0E0,0E0,0E0,0E0,0E0,0E0,0E0,0E0,0E0,0E0,0E0,0E0,0E0,0E0],"parents":[2147483647,0,0,1,1,2,2,3,3,4,4,5,5,6,6,7,7,8,8,9,9,10,10,11,11,12,12,13,13,14,14,15,15,16,16,17,17,18,18,19,19,20,20,21,21,22,22,23,23,24,24,25,25,26,26,27,27,28,28,29,29,30,30],"right_children":[2,4,6,8,10,12,14,16,18,20,22,24,26,28,30,32,34,36,38,40,42,44,46,48,50,52,54,56,58,60,62,-1,-1,-1,-1,-1,-1,-1,-1,-1,-1,-1,-1,-1,-1,-1,-1,-1,-1,-1,-1,-1,-1,-1,-1,-1,-1,-1,-1,-1,-1,-1,-1],"split_conditions":[4.075803E0,1.5E0,9.35E1,7.15E1,6.85E1,6.65E1,1.5E0,3.15E1,5E-1,5E-1,4.98575E5,5.997401E5,8.25E1,1.25E1,5E-1,5E-1,-5.88431E5,-1.24071734E5,4.0218086E0,4.0096636E0,6.8413164E4,1.65E1,5E-1,5.637181E5,2.0018878E6,1.05E1,1.85E1,5E-1,4.5044703E0,4.294549E0,4.4191284E0,1.7984716E-3,7.3840916E-2,-9.160409E-4,-2.3845056E-2,2.3037044E-2,-6.308024E-3,-6.107531E-2,2.9932687E-3,5.445544E-2,3.4204216E-3,1.121849E-2,-1.722186E-2,3.695902E-2,8.237866E-3,-1.1672823E-2,7.64931E-2,-6.612682E-4,-1.2933229E-2,3.945545E-3,-6.5342085E-3,-7.6702903E-3,4.1186507E-3,1.9405008E-3,-8.691424E-3,1.0501886E-2,-2.0470022E-1,-2.4750378E-2,-5.6743372E-2,7.61088E-2,2.6633164E-2,-1.762355E-3,-4.711914E-2],"split_indices":[65,66,61,61,61,61,66,61,9,62,68,68,61,64,56,15,68,67,65,65,67,64,35,68,67,64,64,46,65,65,65,0,0,0,0,0,0,0,0,0,0,0,0,0,0,0,0,0,0,0,0,0,0,0,0,0,0,0,0,0,0,0,0],"split_type":[0,0,0,0,0,0,0,0,0,0,0,0,0,0,0,0,0,0,0,0,0,0,0,0,0,0,0,0,0,0,0,0,0,0,0,0,0,0,0,0,0,0,0,0,0,0,0,0,0,0,0,0,0,0,0,0,0,0,0,0,0,0,0],"sum_hessian":[8.261736E7,1.611193E6,8.100617E7,1.086831E6,5.24362E5,8.073609E7,2.70084E5,5.82664E5,5.04167E5,4.42015E5,8.2347E4,6.0957456E7,1.977863E7,1.94541E5,7.5543E4,4.7305E4,5.35359E5,4.568E5,4.7367E4,1.42697E5,2.99318E5,5.969E4,2.2657E4,4.69536E7,1.4003855E7,1.5813148E7,3.965482E6,3.2239E4,1.62302E5,3.7377E4,3.8166E4,4.57E4,1.605E3,6.5882E4,4.69477E5,5.3234E4,4.03566E5,2.5255E4,2.2112E4,1.5021E4,1.27676E5,6.5418E4,2.339E5,4.1697E4,1.7993E4,2.0642E4,2.015E3,4.457685E7,2.376751E6,1.2755956E7,1.247899E6,5.10525E5,1.5302623E7,2.602331E6,1.363151E6,3.1979E4,2.6E2,1.16823E5,4.5479E4,2.874E3,3.4503E4,1.0777E4,2.7389E4],"tree_param":{"num_deleted":"0","num_feature":"69","num_nodes":"63","size_leaf_vector":"0"}},{"base_weights":[4.129851E-4,-2.396545E-3,6.769152E-3,-2.986598E-3,4.727878E-2,5.0725034E-3,2.533889E-2,-4.0642656E-3,2.345185E-2,-5.6365978E-2,5.3083934E-2,6.4189923E-3,-3.6171257E-2,8.3045475E-2,1.823571E-2,-1.6150938E-3,-1.4616774E-2,3.8693085E-2,8.991293E-3,-1.796484E-1,-9.92355E-3,4.4592988E-2,9.300519E-2,4.2945654E-3,3.139737E-2,7.012156E-2,-6.807974E-2,-3.8263775E-2,9.111293E-2,2.99396E-2,3.2295082E-3,-5.0269505E-3,5.3933114E-3,-2.2424053E-2,1.6192476E-3,5.6101687E-2,2.2969985E-2,-4.665491E-3,2.2380598E-2,-1.08786784E-1,-3.0062354E-1,3.818758E-1,-2.0274507E-2,3.521183E-2,8.966963E-2,6.317125E-2,1.339782E-1,-1.7146619E-2,5.604466E-3,2.7067272E-2,1.0880833E-1,3.0582212E-2,1.0172465E-1,-1.0470605E-1,1.0882081E-2,-1.8308192E-1,6.30302E-2,2.6158273E-1,8.6809665E-2,5.9829306E-2,2.1887554E-2,-3.1325784E-2,2.791131E-2],"categories":[],"categories_nodes":[],"categories_segments":[],"categories_sizes":[],"default_left":[1,1,1,1,1,1,1,1,1,1,1,1,1,1,1,1,1,1,1,1,1,1,1,1,1,1,1,1,1,1,1,0,0,0,0,0,0,0,0,0,0,0,0,0,0,0,0,0,0,0,0,0,0,0,0,0,0,0,0,0,0,0,0],"id":18,"left_children":[1,3,5,7,9,11,13,15,17,19,21,23,25,27,29,31,33,35,37,39,41,43,45,47,49,51,53,55,57,59,61,-1,-1,-1,-1,-1,-1,-1,-1,-1,-1,-1,-1,-1,-1,-1,-1,-1,-1,-1,-1,-1,-1,-1,-1,-1,-1,-1,-1,-1,-1,-1,-1],"loss_changes":[1.4753678E3,1.679318E3,7.978793E2,1.6132205E3,4.0465747E2,1.2886356E3,8.6902563E2,1.4060369E3,4.8873743E2,2.042395E2,2.1587744E2,1.1924031E3,2.4881274E3,2.274071E2,3.3154407E2,1.0558154E3,1.2990352E3,2.9551062E2,2.0807285E2,8.36434E1,1.050938E2,2.2207947E2,1.365321E2,5.8164E2,5.903948E2,2.1164575E2,1.6317905E3,2.1256833E2,1.5980469E2,2.5524744E2,7.054849E2,0E0,0E0,0E0,0E0,0E0,0E0,0E0,0E0,0E0,0E0,0E0,0E0,0E0,0E0,0E0,0E0,0E0,0E0,0E0,0E0,0E0,0E0,0E0,0E0,0E0,0E0,0E0,0E0,0E0,0E0,0E0,0E0],"parents":[2147483647,0,0,1,1,2,2,3,3,4,4,5,5,6,6,7,7,8,8,9,9,10,10,11,11,12,12,13,13,14,14,15,15,16,16,17,17,18,18,19,19,20,20,21,21,22,22,23,23,24,24,25,25,26,26,27,27,28,28,29,29,30,30],"right_children":[2,4,6,8,10,12,14,16,18,20,22,24,26,28,30,32,34,36,38,40,42,44,46,48,50,52,54,56,58,60,62,-1,-1,-1,-1,-1,-1,-1,-1,-1,-1,-1,-1,-1,-1,-1,-1,-1,-1,-1,-1,-1,-1,-1,-1,-1,-1,-1,-1,-1,-1,-1,-1],"split_conditions":[4.9138165E0,5E-1,1.845387E6,5E-1,-7.53211E5,1.821653E6,5.882326E5,5E-1,9.456096E5,3.85E1,5E-1,5E-1,5.637181E5,5.694011E5,7.851026E5,6.65E1,1.95E1,5E-1,1.0324786E6,1.95E1,8.5E0,2.05E1,-4.262867E5,1.5E0,5E-1,5E-1,5.900607E5,5.0464773E0,2.95E1,5E-1,8.182933E5,-1.5080852E-3,1.6179935E-3,-6.7272163E-3,4.857743E-4,1.6830508E-2,6.890996E-3,-1.3996474E-3,6.7141796E-3,-3.2636035E-2,-9.0187065E-2,1.1456275E-1,-6.0823523E-3,1.056355E-2,2.690089E-2,1.8951377E-2,4.019346E-2,-5.143986E-3,1.6813398E-3,8.120182E-3,3.2642502E-2,9.174664E-3,3.0517396E-2,-3.1411815E-2,3.2646246E-3,-5.492458E-2,1.890906E-2,7.847482E-2,2.6042901E-2,1.7948793E-2,6.5662665E-3,-9.397736E-3,8.373393E-3],"split_indices":[65,29,67,27,68,67,68,58,67,61,58,60,68,68,68,61,64,56,67,64,64,64,68,66,3,35,68,65,61,56,68,0,0,0,0,0,0,0,0,0,0,0,0,0,0,0,0,0,0,0,0,0,0,0,0,0,0,0,0,0,0,0,0],"split_type":[0,0,0,0,0,0,0,0,0,0,0,0,0,0,0,0,0,0,0,0,0,0,0,0,0,0,0,0,0,0,0,0,0,0,0,0,0,0,0,0,0,0,0,0,0,0,0,0,0,0,0,0,0,0,0,0,0,0,0,0,0,0,0],"sum_hessian":[8.261736E7,5.7292944E7,2.532442E7,5.6620396E7,6.72547E5,2.3204328E7,2.120093E6,5.440286E7,2.217535E6,3.5671E4,6.36876E5,2.2470724E7,7.33603E5,2.32362E5,1.887731E6,4.4154804E7,1.0248056E7,1.079624E6,1.137911E6,9.76E3,2.5911E4,5.25177E5,1.11699E5,2.070938E7,1.761345E6,1.69377E5,5.64226E5,1.4489E4,2.17873E5,1.06056E6,8.27171E5,2.9697408E7,1.4457398E7,6.920333E6,3.327723E6,5.12349E5,5.67275E5,5.63329E5,5.74582E5,6.156E3,3.604E3,6.66E2,2.5245E4,4.34709E5,9.0468E4,6.4637E4,4.7062E4,1.192348E6,1.9517032E7,1.668042E6,9.3303E4,7.5242E4,9.4135E4,3.8544E5,1.78786E5,5.963E3,8.526E3,5.363E3,2.1251E5,2.25072E5,8.35488E5,3.4465E5,4.82521E5],"tree_param":{"num_deleted":"0","num_feature":"69","num_nodes":"63","size_leaf_vector":"0"}},{"base_weights":[2.8909292E-4,8.2231045E-4,-2.4150396E-2,-2.8058425E-2,1.3075671E-3,-3.1713627E-2,-4.845619E-3,-2.0025767E-2,-8.420697E-2,2.2589539E-3,-1.3200321E-2,-4.2963546E-2,-2.5183542E-3,1.8338196E-2,-5.073154E-2,-3.299607E-2,3.0677756E-3,-1.3470745E-1,-3.7351336E-2,-1.0703563E-2,3.3046266E-3,-2.5957406E-2,5.085994E-2,-4.3858394E-2,2.5452414E-1,2.839298E-2,-5.0584614E-2,-2.2669727E-1,2.3831772E-2,-1.0505188E-1,1.5712185E-2,-4.2198063E-3,-1.3712633E-1,-1.3468896E-1,9.253499E-3,-1.832462E-1,-8.7579936E-2,-6.066259E-2,5.5300917E-2,-8.864046E-4,-2.187046E-2,3.7604086E-3,-3.0092213E-2,5.4515986E-4,-7.700208E-2,7.3524185E-2,3.7417393E-2,-1.1021401E-1,-4.0011525E-2,-1.2869866E-1,3.220909E-1,4.1342698E-2,-8.307455E-2,-6.807811E-2,7.667741E-2,-3.9047652E-1,-7.867183E-2,2.5317937E-2,-5.0633913E-1,-3.8749766E-2,-1.5259318E-1,2.0021633E-3,3.9598194E-1],"categories":[],"categories_nodes":[],"categories_segments":[],"categories_sizes":[],"default_left":[1,1,1,1,1,1,1,1,1,1,1,1,1,1,1,1,1,1,1,1,1,1,1,1,1,1,1,1,1,1,1,0,0,0,0,0,0,0,0,0,0,0,0,0,0,0,0,0,0,0,0,0,0,0,0,0,0,0,0,0,0,0,0],"id":19,"left_children":[1,3,5,7,9,11,13,15,17,19,21,23,25,27,29,31,33,35,37,39,41,43,45,47,49,51,53,55,57,59,61,-1,-1,-1,-1,-1,-1,-1,-1,-1,-1,-1,-1,-1,-1,-1,-1,-1,-1,-1,-1,-1,-1,-1,-1,-1,-1,-1,-1,-1,-1,-1,-1],"loss_changes":[1.0766335E3,1.1331243E3,2.5756226E2,6.02589E2,1.0975461E3,4.1629504E2,5.282606E2,3.501036E2,3.9566443E2,1.01148987E3,3.9991682E3,2.4356958E2,5.2382043E2,4.4408392E2,6.0158716E2,2.2427747E3,3.5821164E2,1.8407593E2,1.8734573E2,6.1067267E2,1.0511062E3,5.52074E3,2.4759375E2,2.3284009E2,7.109219E1,3.0972363E2,3.0719983E2,1.7534677E2,2.5424538E2,2.890595E2,3.9087665E2,0E0,0E0,0E0,0E0,0E0,0E0,0E0,0E0,0E0,0E0,0E0,0E0,0E0,0E0,0E0,0E0,0E0,0E0,0E0,0E0,0E0,0E0,0E0,0E0,0E0,0E0,0E0,0E0,0E0,0E0,0E0,0E0],"parents":[2147483647,0,0,1,1,2,2,3,3,4,4,5,5,6,6,7,7,8,8,9,9,10,10,11,11,12,12,13,13,14,14,15,15,16,16,17,17,18,18,19,19,20,20,21,21,22,22,23,23,24,24,25,25,26,26,27,27,28,28,29,29,30,30],"right_children":[2,4,6,8,10,12,14,16,18,20,22,24,26,28,30,32,34,36,38,40,42,44,46,48,50,52,54,56,58,60,62,-1,-1,-1,-1,-1,-1,-1,-1,-1,-1,-1,-1,-1,-1,-1,-1,-1,-1,-1,-1,-1,-1,-1,-1,-1,-1,-1,-1,-1,-1,-1,-1],"split_conditions":[5E-1,-2.2583645E6,5.65E1,-2.2624648E6,5E-1,5E-1,5E-1,3.5925144E5,-2.2611955E6,1.45E1,1.844908E6,5E-1,4.545925E0,6.5E0,1.5E0,3.4623912E5,-3.124126E6,4.769745E0,5.1546664E0,5E-1,8.85E1,1.8258165E6,5E-1,-8.6100725E5,3.8E1,5.45E1,5E-1,9.435983E5,5.5968614E0,-1.5341911E5,1.8501029E6,-1.2659419E-3,-4.11379E-2,-4.040669E-2,2.7760498E-3,-5.497386E-2,-2.6273983E-2,-1.8198777E-2,1.6590277E-2,-2.6592138E-4,-6.561138E-3,1.1281227E-3,-9.027665E-3,1.6354796E-4,-2.3100624E-2,2.2057256E-2,1.1225218E-2,-3.3064205E-2,-1.2003458E-2,-3.86096E-2,9.662727E-2,1.240281E-2,-2.4922365E-2,-2.0423433E-2,2.3003224E-2,-1.1714296E-1,-2.3601549E-2,7.5953812E-3,-1.5190175E-1,-1.162493E-2,-4.5777954E-2,6.0064904E-4,1.1879458E-1],"split_indices":[59,67,61,67,37,63,63,68,67,64,67,12,65,64,66,68,67,65,65,62,61,67,56,68,61,61,37,67,65,68,67,0,0,0,0,0,0,0,0,0,0,0,0,0,0,0,0,0,0,0,0,0,0,0,0,0,0,0,0,0,0,0,0],"split_type":[0,0,0,0,0,0,0,0,0,0,0,0,0,0,0,0,0,0,0,0,0,0,0,0,0,0,0,0,0,0,0,0,0,0,0,0,0,0,0,0,0,0,0,0,0,0,0,0,0,0,0,0,0,0,0,0,0,0,0,0,0,0,0],"sum_hessian":[8.261736E7,8.085332E7,1.764046E6,1.336055E6,7.951726E7,1.267474E6,4.96572E5,1.168841E6,1.67214E5,7.462365E7,4.89361E6,9.14923E5,3.52551E5,3.29894E5,1.66678E5,7.48469E5,4.20372E5,8.0476E4,8.6738E4,5.570448E6,6.90532E7,4.080927E6,8.12683E5,9.1218E5,2.743E3,2.14565E5,1.37986E5,7.233E3,3.22661E5,9.1705E4,7.4973E4,5.86415E5,1.62054E5,1.8064E4,4.02308E5,3.9643E4,4.0833E4,6.9302E4,1.7436E4,2.964376E6,2.606072E6,6.812349E7,9.29712E5,2.686229E6,1.394698E6,3.0256E5,5.10123E5,4.9983E4,8.62197E5,4.11E2,2.332E3,1.92233E5,2.2332E4,1.21311E5,1.6675E4,3.433E3,3.8E3,3.2176E5,9.01E2,3.8297E4,5.3408E4,7.2365E4,2.608E3],"tree_param":{"num_deleted":"0","num_feature":"69","num_nodes":"63","size_leaf_vector":"0"}},{"base_weights":[2.0234878E-4,3.7189623E-4,-7.148645E-2,-6.7899562E-3,2.08136E-3,-8.730961E-2,4.080728E-2,-2.538199E-2,1.6570131E-3,1.3347764E-3,2.5014272E-2,-9.751479E-2,8.542016E-2,-4.1851684E-2,1.12148084E-1,-1.1545302E-2,-1.1390171E-1,3.7317292E-3,-5.9373222E-2,2.072677E-3,-2.0362046E-2,4.5578722E-2,1.1522362E-2,-1.3137384E-1,-6.3449934E-2,6.0485855E-2,3.262726E-1,-3.875249E-1,2.9192646E-3,-6.067061E-1,1.3050699E-1,-1.911904E-2,1.8534733E-2,-1.5018423E-1,2.1550966E-2,-5.4038493E-3,1.38319135E-2,-9.814137E-2,-2.373014E-4,-9.539761E-3,3.4825755E-3,-7.881759E-2,-9.741728E-3,3.2742467E-2,8.095376E-2,1.828542E-2,-2.6339563E-2,-2.107172E-1,-9.8593466E-2,-8.70694E-2,7.495624E-2,8.200882E-2,-2.1185984E-1,2.380884E-1,5.000837E-1,-4.2449576E-1,4.9300846E-1,-1.4844845E-1,8.592308E-2,7.3186435E-2,1.8406768E-1],"categories":[],"categories_nodes":[],"categories_segments":[],"categories_sizes":[],"default_left":[1,1,1,1,1,1,1,1,1,1,1,1,1,1,1,1,1,1,1,1,1,1,1,1,1,1,1,1,1,0,1,0,0,0,0,0,0,0,0,0,0,0,0,0,0,0,0,0,0,0,0,0,0,0,0,0,0,0,0,0,0],"id":20,"left_children":[1,3,5,7,9,11,13,15,17,19,21,23,25,27,29,31,33,35,37,39,41,43,45,47,49,51,53,55,57,-1,59,-1,-1,-1,-1,-1,-1,-1,-1,-1,-1,-1,-1,-1,-1,-1,-1,-1,-1,-1,-1,-1,-1,-1,-1,-1,-1,-1,-1,-1,-1],"loss_changes":[1.0041855E3,1.0090918E3,3.4636847E2,2.4942793E3,1.1392534E3,3.0118665E2,1.4197983E2,6.0771455E3,1.3827935E3,1.0317241E3,5.8207495E2,1.8606677E2,5.7224586E1,1.7262175E2,1.7062885E2,9.775553E2,3.2963232E3,9.7454205E2,8.231433E2,1.0203664E3,1.3158602E3,3.773949E2,3.2438037E2,2.1041052E2,2.6290927E2,5.065647E1,1.3583626E1,4.1845932E1,1.24095795E2,0E0,3.86763E1,0E0,0E0,0E0,0E0,0E0,0E0,0E0,0E0,0E0,0E0,0E0,0E0,0E0,0E0,0E0,0E0,0E0,0E0,0E0,0E0,0E0,0E0,0E0,0E0,0E0,0E0,0E0,0E0,0E0,0E0],"parents":[2147483647,0,0,1,1,2,2,3,3,4,4,5,5,6,6,7,7,8,8,9,9,10,10,11,11,12,12,13,13,14,14,15,15,16,16,17,17,18,18,19,19,20,20,21,21,22,22,23,23,24,24,25,25,26,26,27,27,28,28,30,30],"right_children":[2,4,6,8,10,12,14,16,18,20,22,24,26,28,30,32,34,36,38,40,42,44,46,48,50,52,54,56,58,-1,60,-1,-1,-1,-1,-1,-1,-1,-1,-1,-1,-1,-1,-1,-1,-1,-1,-1,-1,-1,-1,-1,-1,-1,-1,-1,-1,-1,-1,-1,-1],"split_conditions":[5E-1,-7.4653894E5,7.25E1,-1.2951185E5,8.944858E5,5.416971E0,1.5E0,-1.4716475E5,-7.610564E5,1.9592755E6,5.15E1,5E-1,5E-1,1.45E1,4.0334053E0,-1.7324703E5,-2.005586E6,1.95E1,4.8475847E0,-7.771431E5,4.422015E0,5E-1,7.85E1,4.813614E0,2.15E1,6.45E1,5E-1,5E-1,5E-1,-1.8201183E-1,1.6208868E6,-5.735712E-3,5.56042E-3,-4.505527E-2,6.46529E-3,-1.6211548E-3,4.1495743E-3,-2.9442413E-2,-7.119042E-5,-2.8619282E-3,1.0447727E-3,-2.3645278E-2,-2.9225186E-3,9.82274E-3,2.428613E-2,5.485626E-3,-7.901869E-3,-6.321517E-2,-2.9578041E-2,-2.6120821E-2,2.2486873E-2,2.4602646E-2,-6.355795E-2,7.1426526E-2,1.5002511E-1,-1.2734874E-1,1.4790255E-1,-4.4534538E-2,2.5776926E-2,2.1955932E-2,5.5220306E-2],"split_indices":[13,67,61,68,68,65,66,68,67,67,61,63,4,64,65,68,67,64,65,68,65,28,61,65,64,61,60,56,57,0,67,0,0,0,0,0,0,0,0,0,0,0,0,0,0,0,0,0,0,0,0,0,0,0,0,0,0,0,0,0,0],"split_type":[0,0,0,0,0,0,0,0,0,0,0,0,0,0,0,0,0,0,0,0,0,0,0,0,0,0,0,0,0,0,0,0,0,0,0,0,0,0,0,0,0,0,0,0,0,0,0,0,0,0,0,0,0,0,0,0,0,0,0,0,0],"sum_hessian":[8.261736E7,8.242243E7,1.94932E5,1.5882441E7,6.653999E7,1.70857E5,2.4075E4,4.961665E6,1.0920776E7,6.444207E7,2.097918E6,1.61326E5,9.531E3,1.1153E4,1.2922E4,4.290941E6,6.70724E5,1.0561732E7,3.59044E5,6.2322508E7,2.119564E6,8.31119E5,1.266799E6,8.0906E4,8.042E4,8.638E3,8.93E2,1.278E3,9.875E3,3.21E2,1.2601E4,3.427855E6,8.63086E5,5.2902E5,1.41704E5,5.545683E6,5.016049E6,2.16869E5,1.42175E5,6.747514E6,5.557499E7,3.25879E5,1.793685E6,6.09835E5,2.21284E5,1.074812E6,1.91987E5,2.3652E4,5.7254E4,6.8697E4,1.1723E4,8.006E3,6.32E2,5.94E2,2.99E2,1.227E3,5.1E1,3.497E3,6.378E3,6.088E3,6.513E3],"tree_param":{"num_deleted":"0","num_feature":"69","num_nodes":"61","size_leaf_vector":"0"}},{"base_weights":[1.416539E-4,-1.055442E-3,9.159626E-3,-2.718227E-3,7.6459595E-3,8.62172E-2,7.6366663E-3,-3.7760396E-2,-2.1936588E-3,5.5157924E-3,2.4603251E-2,4.0899077E-1,7.86881E-2,9.408657E-3,-2.5192464E-2,-2.1165036E-1,-3.4970272E-2,-1.8535965E-4,-1.0653408E-2,2.111331E-2,2.7563137E-3,5.82211E-2,1.9363865E-2,4.885137E-1,2.0396222E-1,9.510871E-2,-3.8297572E-3,1.0439925E-2,-3.951747E-2,-5.093221E-3,-5.4649554E-2,-2.6044318E-1,1.5442194E-1,1.00903384E-1,-3.8573466E-2,2.8055627E-4,-4.581975E-2,-1.2610907E-2,4.490143E-2,2.4940893E-2,-8.743371E-2,1.3951496E-3,2.9663328E-2,6.181677E-2,-5.842965E-1,-1.8188088E-1,2.0336626E-2,5.08291E-1,-2.0615195E-1,-2.4245276E-1,3.3424753E-1,5.6557808E-2,1.3323471E-1,-1.6198859E-1,5.2290604E-2,7.3344554E-3,2.5166674E-2,-7.955702E-3,-1.1995459E-1,-7.6449454E-2,1.138302E-2,-7.513123E-2,5.0419822E-2],"categories":[],"categories_nodes":[],"categories_segments":[],"categories_sizes":[],"default_left":[1,1,1,1,1,1,1,1,1,1,1,1,1,1,1,1,1,1,1,1,1,1,1,1,1,1,1,1,1,1,1,0,0,0,0,0,0,0,0,0,0,0,0,0,0,0,0,0,0,0,0,0,0,0,0,0,0,0,0,0,0,0,0],"id":21,"left_children":[1,3,5,7,9,11,13,15,17,19,21,23,25,27,29,31,33,35,37,39,41,43,45,47,49,51,53,55,57,59,61,-1,-1,-1,-1,-1,-1,-1,-1,-1,-1,-1,-1,-1,-1,-1,-1,-1,-1,-1,-1,-1,-1,-1,-1,-1,-1,-1,-1,-1,-1,-1,-1],"loss_changes":[8.9188574E2,1.0552716E3,1.1362207E3,1.1256045E3,4.2267816E2,4.5597693E2,5.5230695E2,4.3816858E2,1.0250046E3,4.4743582E2,2.3001355E2,6.963458E1,2.4846155E2,4.5450787E2,2.878725E2,2.5478375E2,4.3517566E2,1.0366484E3,1.2587115E3,6.492586E2,3.2350284E2,4.0683282E2,2.2117804E2,4.243341E1,6.9700134E1,2.2477356E2,2.7013852E2,4.0346307E2,4.7208246E2,3.397931E2,4.243819E2,0E0,0E0,0E0,0E0,0E0,0E0,0E0,0E0,0E0,0E0,0E0,0E0,0E0,0E0,0E0,0E0,0E0,0E0,0E0,0E0,0E0,0E0,0E0,0E0,0E0,0E0,0E0,0E0,0E0,0E0,0E0,0E0],"parents":[2147483647,0,0,1,1,2,2,3,3,4,4,5,5,6,6,7,7,8,8,9,9,10,10,11,11,12,12,13,13,14,14,15,15,16,16,17,17,18,18,19,19,20,20,21,21,22,22,23,23,24,24,25,25,26,26,27,27,28,28,29,29,30,30],"right_children":[2,4,6,8,10,12,14,16,18,20,22,24,26,28,30,32,34,36,38,40,42,44,46,48,50,52,54,56,58,60,62,-1,-1,-1,-1,-1,-1,-1,-1,-1,-1,-1,-1,-1,-1,-1,-1,-1,-1,-1,-1,-1,-1,-1,-1,-1,-1,-1,-1,-1,-1,-1,-1],"split_conditions":[5E-1,5.0899086E0,4.65E1,-2.2572032E6,1.8310145E6,-2.1781022E6,5E-1,-6.13566E6,1.5869402E6,3.85E1,5.794835E5,4.8642135E0,4.894039E0,5E-1,8.05E1,5E-1,-6.1308155E6,5E-1,2.038579E6,1.8258165E6,5E-1,5E-1,5.8009906E5,5E-1,5E-1,1.85E1,4.9578457E0,4.772908E0,8.25E1,1.349527E6,1.5E0,-7.813296E-2,4.6326585E-2,3.0271016E-2,-1.1572041E-2,8.416688E-5,-1.3745925E-2,-3.783272E-3,1.347043E-2,7.4822684E-3,-2.6230114E-2,4.185449E-4,8.898999E-3,1.8545032E-2,-1.7528896E-1,-5.4564264E-2,6.100988E-3,1.5248731E-1,-6.1845586E-2,-7.273583E-2,1.00274265E-1,1.6967343E-2,3.9970413E-2,-4.859658E-2,1.5687183E-2,2.2003367E-3,7.5500025E-3,-2.3867106E-3,-3.598638E-2,-2.2934837E-2,3.4149063E-3,-2.253937E-2,1.5125947E-2],"split_indices":[57,65,61,67,67,67,43,67,67,61,68,65,65,54,61,3,67,33,67,67,60,2,68,4,62,64,65,65,61,67,66,0,0,0,0,0,0,0,0,0,0,0,0,0,0,0,0,0,0,0,0,0,0,0,0,0,0,0,0,0,0,0,0],"split_type":[0,0,0,0,0,0,0,0,0,0,0,0,0,0,0,0,0,0,0,0,0,0,0,0,0,0,0,0,0,0,0,0,0,0,0,0,0,0,0,0,0,0,0,0,0,0,0,0,0,0,0,0,0,0,0,0,0,0,0,0,0,0,0],"sum_hessian":[8.261736E7,7.2935496E7,9.681864E6,6.123405E7,1.1701453E7,1.87642E5,9.494222E6,9.0313E5,6.0330916E7,1.0395568E7,1.305885E6,4.276E3,1.83366E5,9.008005E6,4.86217E5,1.4261E4,8.88869E5,4.875641E7,1.1574509E7,1.562692E6,8.832876E6,1.7608E5,1.129805E6,3.08E3,1.196E3,1.52933E5,3.0433E4,8.822054E6,1.85951E5,2.89016E5,1.97201E5,1.2584E4,1.677E3,2.2962E4,8.65907E5,4.826365E7,4.92759E5,1.1180558E7,3.93951E5,1.509466E6,5.3226E4,8.407558E6,4.25318E5,1.75101E5,9.79E2,5.434E3,1.124371E6,2.995E3,8.5E1,2.7E2,9.26E2,7.6044E4,7.6889E4,7.97E3,2.2463E4,7.2857E6,1.536354E6,1.3355E5,5.2401E4,5.4215E4,2.34801E5,1.65031E5,3.217E4],"tree_param":{"num_deleted":"0","num_feature":"69","num_nodes":"63","size_leaf_vector":"0"}},{"base_weights":[9.915771E-5,6.120042E-4,-1.8124336E-2,1.0319323E-3,-2.3385657E-2,-4.0051952E-2,3.9635785E-3,-7.2585987E-3,2.2250286E-3,-6.9911785E-2,-1.0455433E-2,-4.8951738E-2,2.8911242E-2,-9.55497E-3,3.5704304E-2,7.197585E-3,-1.968841E-2,3.1686698E-3,-1.1792872E-2,-1.02073975E-1,1.656692E-2,-2.2274792E-2,2.0005172E-2,-5.8680516E-2,-1.8839354E-2,2.7081007E-1,1.5059881E-2,-7.973372E-3,-2.7826896E-1,7.898643E-2,2.0323947E-2,-5.0711874E-2,1.0272667E-2,-2.2819815E-2,2.2625744E-2,-6.783384E-2,3.3307157E-3,-4.001335E-2,-4.1370862E-5,4.7550173E-4,-1.1742688E-1,-1.0074451E-1,3.5748903E-2,-7.6799475E-2,-1.0650549E-2,-4.752921E-1,2.1225423E-2,-5.635133E-2,-2.5205368E-1,-1.7259268E-2,-9.0465647E-1,3.0410677E-1,-2.949045E-1,-8.794683E-3,8.965554E-2,-3.6442325E-5,-5.405671E-2,2.1058379E-1,-3.348257E-1,8.138508E-2,-7.791854E-1,2.3801118E-2,-2.2356811E-1],"categories":[],"categories_nodes":[],"categories_segments":[],"categories_sizes":[],"default_left":[1,1,1,1,1,1,1,1,1,1,1,1,1,1,1,1,1,1,1,1,1,1,1,1,1,1,1,1,1,1,1,0,0,0,0,0,0,0,0,0,0,0,0,0,0,0,0,0,0,0,0,0,0,0,0,0,0,0,0,0,0,0,0],"id":22,"left_children":[1,3,5,7,9,11,13,15,17,19,21,23,25,27,29,31,33,35,37,39,41,43,45,47,49,51,53,55,57,59,61,-1,-1,-1,-1,-1,-1,-1,-1,-1,-1,-1,-1,-1,-1,-1,-1,-1,-1,-1,-1,-1,-1,-1,-1,-1,-1,-1,-1,-1,-1,-1,-1],"loss_changes":[7.7212994E2,8.097708E2,1.0952672E3,7.811639E2,8.3136755E2,6.964994E2,4.8340033E2,1.7852688E3,9.1323413E2,8.358987E2,3.8933417E2,2.9444946E2,4.3460593E2,3.3577863E2,2.240033E2,8.1795667E2,7.078447E2,7.44236E2,1.4440446E3,3.4490283E2,1.8333954E2,4.9379968E2,1.8272092E2,3.4214062E2,3.4351297E2,1.3241559E2,2.1831401E2,2.8728818E2,1.2788681E2,1.8166882E2,2.1055609E2,0E0,0E0,0E0,0E0,0E0,0E0,0E0,0E0,0E0,0E0,0E0,0E0,0E0,0E0,0E0,0E0,0E0,0E0,0E0,0E0,0E0,0E0,0E0,0E0,0E0,0E0,0E0,0E0,0E0,0E0,0E0,0E0],"parents":[2147483647,0,0,1,1,2,2,3,3,4,4,5,5,6,6,7,7,8,8,9,9,10,10,11,11,12,12,13,13,14,14,15,15,16,16,17,17,18,18,19,19,20,20,21,21,22,22,23,23,24,24,25,25,26,26,27,27,28,28,29,29,30,30],"right_children":[2,4,6,8,10,12,14,16,18,20,22,24,26,28,30,32,34,36,38,40,42,44,46,48,50,52,54,56,58,60,62,-1,-1,-1,-1,-1,-1,-1,-1,-1,-1,-1,-1,-1,-1,-1,-1,-1,-1,-1,-1,-1,-1,-1,-1,-1,-1,-1,-1,-1,-1,-1,-1],"split_conditions":[5.5E0,2.35E1,3.177058E5,4.29918E0,4.15E1,5E-1,2.05E1,1.0630522E5,5E-1,3.5E0,5E-1,2.05E1,3.25E1,5E-1,3.85E1,-1.9985335E6,5E-1,-1.16268E6,4.35E1,-4.014401E5,4.7669635E0,1.5E0,4.013889E0,5E-1,1.35E1,2.97444E5,9.367857E5,5E-1,1.15E1,5E-1,5E-1,-1.5213563E-2,3.0818002E-3,-6.845945E-3,6.7877234E-3,-2.0350153E-2,9.992147E-4,-1.2004006E-2,-1.2411259E-5,1.4265052E-4,-3.5228066E-2,-3.0223353E-2,1.0724671E-2,-2.3039844E-2,-3.195165E-3,-1.4258763E-1,6.367627E-3,-1.6905399E-2,-7.561611E-2,-5.1777805E-3,-2.7139696E-1,9.123203E-2,-8.847135E-2,-2.638405E-3,2.6896663E-2,-1.09326975E-5,-1.6217014E-2,6.317514E-2,-1.00447714E-1,2.4415527E-2,-2.3375563E-1,7.1403356E-3,-6.707044E-2],"split_indices":[66,64,68,65,61,3,64,68,48,66,62,64,61,33,61,67,27,68,61,68,65,66,65,33,66,68,67,63,64,33,17,0,0,0,0,0,0,0,0,0,0,0,0,0,0,0,0,0,0,0,0,0,0,0,0,0,0,0,0,0,0,0,0],"split_type":[0,0,0,0,0,0,0,0,0,0,0,0,0,0,0,0,0,0,0,0,0,0,0,0,0,0,0,0,0,0,0,0,0,0,0,0,0,0,0,0,0,0,0,0,0,0,0,0,0,0,0,0,0,0,0,0,0,0,0,0,0,0,0],"sum_hessian":[8.261736E7,8.035598E7,2.261381E6,7.897404E7,1.381943E6,1.134808E6,1.126573E6,9.935399E6,6.903864E7,3.00536E5,1.081407E6,1.005099E6,1.29709E5,7.90076E5,3.36497E5,4.593289E6,5.34211E6,6.4684296E7,4.354344E6,2.19064E5,8.1472E4,7.791E5,3.02307E5,7.59664E5,2.45435E5,7.024E3,1.22685E5,7.85454E5,4.622E3,8.8223E4,2.48274E5,2.31611E5,4.361678E6,4.974015E6,3.68095E5,1.47289E5,6.453701E7,1.280148E6,3.074196E6,2.8526E4,1.90538E5,1.1449E4,7.0023E4,1.36909E5,6.42191E5,7.42E2,3.01565E5,7.50624E5,9.04E3,2.44999E5,4.36E2,6.634E3,3.9E2,9.2959E4,2.9726E4,6.70052E5,1.15402E5,4.79E2,4.143E3,8.7978E4,2.45E2,2.44785E5,3.489E3],"tree_param":{"num_deleted":"0","num_feature":"69","num_nodes":"63","size_leaf_vector":"0"}},{"base_weights":[6.9401256E-5,-2.1838862E-3,3.2454277E-3,3.6194418E-3,-8.880375E-3,-4.366117E-3,1.3047657E-2,2.828009E-2,4.1924434E-4,-3.105965E-2,-2.2641383E-3,-2.2302257E-2,-1.9531483E-4,-1.4983443E-2,1.7238032E-2,1.02852415E-2,5.0362013E-2,7.0501496E-3,-8.43054E-3,2.3880674E-2,-3.501382E-2,1.0799546E-2,-5.7086186E-3,-1.5042699E-2,-1.3685301E-1,4.810449E-3,-9.645743E-3,-2.5425298E-2,1.13063995E-2,1.972028E-2,-2.4033459E-2,6.603274E-3,1.1414434E-1,-2.2220213E-2,5.7656474E-2,-1.088585E-2,9.664951E-3,-3.983365E-2,-2.6429798E-3,3.7774917E-2,-7.874577E-2,-2.9200688E-2,-6.1029732E-2,2.2372685E-2,-4.09767E-3,-1.1548539E-2,3.200259E-4,2.7831724E-2,-2.6598023E-2,-4.05439E-2,-1.8589777E-1,-3.8637616E-5,1.6236948E-2,-4.9897425E-2,-4.6185493E-3,-2.129941E-2,-9.985106E-2,3.50938E-2,-4.4774916E-2,3.0006828E-2,8.761969E-3,-4.1782167E-2,2.3573248E-2],"categories":[],"categories_nodes":[],"categories_segments":[],"categories_sizes":[],"default_left":[1,1,1,1,1,1,1,1,1,1,1,1,1,1,1,1,1,1,1,1,1,1,1,1,1,1,1,1,1,1,1,0,0,0,0,0,0,0,0,0,0,0,0,0,0,0,0,0,0,0,0,0,0,0,0,0,0,0,0,0,0,0,0],"id":23,"left_children":[1,3,5,7,9,11,13,15,17,19,21,23,25,27,29,31,33,35,37,39,41,43,45,47,49,51,53,55,57,59,61,-1,-1,-1,-1,-1,-1,-1,-1,-1,-1,-1,-1,-1,-1,-1,-1,-1,-1,-1,-1,-1,-1,-1,-1,-1,-1,-1,-1,-1,-1,-1,-1],"loss_changes":[5.912512E2,1.8781694E3,2.5582363E3,2.0433148E3,3.2926255E3,1.443855E3,1.7604192E3,1.1817383E3,1.3448373E3,1.119998E3,7.776711E2,3.0281245E3,7.4079364E2,5.350526E2,1.3357131E3,6.266209E2,7.069946E2,6.1442773E2,1.7840822E3,4.9356982E2,7.2733545E2,6.2171E2,4.8150412E2,1.696526E3,1.0250586E3,5.672128E2,1.0972393E3,4.28367E2,7.391522E2,1.3863276E3,6.250051E2,0E0,0E0,0E0,0E0,0E0,0E0,0E0,0E0,0E0,0E0,0E0,0E0,0E0,0E0,0E0,0E0,0E0,0E0,0E0,0E0,0E0,0E0,0E0,0E0,0E0,0E0,0E0,0E0,0E0,0E0,0E0,0E0],"parents":[2147483647,0,0,1,1,2,2,3,3,4,4,5,5,6,6,7,7,8,8,9,9,10,10,11,11,12,12,13,13,14,14,15,15,16,16,17,17,18,18,19,19,20,20,21,21,22,22,23,23,24,24,25,25,26,26,27,27,28,28,29,29,30,30],"right_children":[2,4,6,8,10,12,14,16,18,20,22,24,26,28,30,32,34,36,38,40,42,44,46,48,50,52,54,56,58,60,62,-1,-1,-1,-1,-1,-1,-1,-1,-1,-1,-1,-1,-1,-1,-1,-1,-1,-1,-1,-1,-1,-1,-1,-1,-1,-1,-1,-1,-1,-1,-1,-1],"split_conditions":[1.95E1,5E-1,5E-1,3.45E1,4.35E1,1.5E0,3.05E1,3.217873E5,1.65E1,5E-1,-3.3826684E5,5E-1,2.15E1,2.5E0,7.85E1,5E-1,4.251029E0,-7.481917E5,1.75E1,5E-1,4.5E0,4.551456E0,6.45E1,3.45E1,4.689308E0,3.5E0,3.55E1,2.25E1,5E-1,5E-1,1.5E0,1.9809823E-3,3.4243304E-2,-6.6660643E-3,1.7296944E-2,-3.265755E-3,2.8994854E-3,-1.1950095E-2,-7.92894E-4,1.1332476E-2,-2.3623731E-2,-8.760206E-3,-1.830892E-2,6.7118057E-3,-1.229301E-3,-3.4645617E-3,9.6007774E-5,8.349517E-3,-7.979407E-3,-1.2163171E-2,-5.576933E-2,-1.1591285E-5,4.8710844E-3,-1.4969228E-2,-1.3855648E-3,-6.3898233E-3,-2.9955318E-2,1.052814E-2,-1.3432476E-2,9.0020485E-3,2.628591E-3,-1.2534651E-2,7.0719747E-3],"split_indices":[64,62,62,61,61,66,61,68,64,0,68,56,64,66,61,5,65,67,64,2,66,65,61,61,65,66,61,64,60,56,66,0,0,0,0,0,0,0,0,0,0,0,0,0,0,0,0,0,0,0,0,0,0,0,0,0,0,0,0,0,0,0,0],"split_type":[0,0,0,0,0,0,0,0,0,0,0,0,0,0,0,0,0,0,0,0,0,0,0,0,0,0,0,0,0,0,0,0,0,0,0,0,0,0,0,0,0,0,0,0,0,0,0,0,0,0,0,0,0,0,0,0,0,0,0,0,0,0,0],"sum_hessian":[8.261736E7,4.8329296E7,3.4288064E7,2.5891308E7,2.243799E7,1.9300784E7,1.4987282E7,2.973968E6,2.291734E7,5.155492E6,1.7282498E7,3.641378E6,1.5659406E7,1.949083E6,1.3038199E7,1.638629E6,1.335339E6,1.3101064E7,9.816275E6,3.46139E5,4.809353E6,3.606047E6,1.3676451E7,3.424363E6,2.17015E5,1.0237004E7,5.422402E6,1.39501E6,5.54073E5,1.2298513E7,7.39686E5,1.582527E6,5.6102E4,1.21945E5,1.213394E6,1.666926E6,1.1434138E7,1.527594E6,8.288681E6,3.04865E5,4.1274E4,3.930993E6,8.7836E5,2.029442E6,1.576605E6,6.946961E6,6.72949E6,7.26985E5,2.697378E6,7.3225E4,1.4379E5,7.18703E6,3.049974E6,6.02034E5,4.820368E6,1.321739E6,7.3271E4,3.89053E5,1.6502E5,6.343696E6,5.954817E6,5.38808E5,2.00878E5],"tree_param":{"num_deleted":"0","num_feature":"69","num_nodes":"63","size_leaf_vector":"0"}},{"base_weights":[4.8585163E-5,-2.8468478E-2,2.8882842E-4,-4.6286926E-2,8.317435E-3,1.2180599E-4,4.043656E-2,-1.1355389E-1,-3.2563537E-2,1.197497E-2,-1.4348528E-1,5.309476E-4,-2.95244E-2,8.330644E-2,2.6810782E-2,-1.602504E-1,-3.8275924E-2,1.5630305E-1,-3.753657E-2,1.360593E-2,-2.9167706E-1,-3.9613384E-1,3.2678466E-2,-7.116674E-5,1.2237153E-2,-4.0650787E-3,-4.8746213E-2,1.3328736E-1,4.7517076E-2,1.1555732E-2,4.893246E-2,7.617922E-2,-1.810244E-1,-4.526688E-3,-2.3742703E-1,6.4061546E-1,1.214454E-1,-3.13553E-2,-1.6970891E-1,-6.802773E-4,4.400708E-2,3.2125196E-1,-5.4683584E-1,-4.7390994E-1,2.1073726E-1,5.991226E-2,-7.000079E-1,7.778436E-4,-4.4308808E-2,3.784044E-2,7.700923E-3,-5.4028414E-2,1.601074E-2,-1.0237909E-1,-1.1291613E-2,1.8396074E-1,7.8496784E-2,-1.2790912E-2,9.0963475E-2,-4.721082E-2,2.6102876E-2,9.514539E-2,2.7826821E-2],"categories":[],"categories_nodes":[],"categories_segments":[],"categories_sizes":[],"default_left":[1,1,1,1,1,1,1,1,1,1,1,1,1,1,1,1,1,1,1,1,1,1,1,1,1,1,1,1,1,1,1,0,0,0,0,0,0,0,0,0,0,0,0,0,0,0,0,0,0,0,0,0,0,0,0,0,0,0,0,0,0,0,0],"id":24,"left_children":[1,3,5,7,9,11,13,15,17,19,21,23,25,27,29,31,33,35,37,39,41,43,45,47,49,51,53,55,57,59,61,-1,-1,-1,-1,-1,-1,-1,-1,-1,-1,-1,-1,-1,-1,-1,-1,-1,-1,-1,-1,-1,-1,-1,-1,-1,-1,-1,-1,-1,-1,-1,-1],"loss_changes":[5.660142E2,4.524037E2,5.493684E2,4.292281E2,1.25052536E2,9.896183E2,1.982655E2,2.7694733E2,3.627289E2,1.089221E2,2.3585825E2,5.672407E2,5.4352295E2,1.4642719E2,8.691751E1,2.3883484E2,2.0273714E2,1.6718896E2,3.074135E2,9.500865E1,1.8393887E2,1.0285446E2,6.2357754E1,2.874714E3,4.5723877E2,4.792625E2,1.2712626E3,9.482263E1,1.2499613E2,1.3031998E2,1.0252745E2,0E0,0E0,0E0,0E0,0E0,0E0,0E0,0E0,0E0,0E0,0E0,0E0,0E0,0E0,0E0,0E0,0E0,0E0,0E0,0E0,0E0,0E0,0E0,0E0,0E0,0E0,0E0,0E0,0E0,0E0,0E0,0E0],"parents":[2147483647,0,0,1,1,2,2,3,3,4,4,5,5,6,6,7,7,8,8,9,9,10,10,11,11,12,12,13,13,14,14,15,15,16,16,17,17,18,18,19,19,20,20,21,21,22,22,23,23,24,24,25,25,26,26,27,27,28,28,29,29,30,30],"right_children":[2,4,6,8,10,12,14,16,18,20,22,24,26,28,30,32,34,36,38,40,42,44,46,48,50,52,54,56,58,60,62,-1,-1,-1,-1,-1,-1,-1,-1,-1,-1,-1,-1,-1,-1,-1,-1,-1,-1,-1,-1,-1,-1,-1,-1,-1,-1,-1,-1,-1,-1,-1,-1],"split_conditions":[6.5E0,4.583765E0,2.0583362E6,-7.937817E4,5E-1,2.0083565E6,1.5E0,2.8946275E5,2.95E1,5E-1,8.281008E5,1.8366015E6,8.045292E5,5E-1,2.5E0,4.45E1,2.5E0,4.328873E4,5E-1,4.8654003E0,5.1E1,3.5E0,7.5E0,1.821653E6,5E-1,7.469295E5,8.1929875E5,5.95E1,1.85E1,4.95E1,4.7101164E0,2.2853767E-2,-5.4307323E-2,-1.3580064E-3,-7.122811E-2,1.9218464E-1,3.6433622E-2,-9.40659E-3,-5.0912675E-2,-2.040832E-4,1.3202125E-2,9.637559E-2,-1.6405076E-1,-1.4217299E-1,6.322118E-2,1.7973678E-2,-2.1000238E-1,2.3335309E-4,-1.3292643E-2,1.1352133E-2,2.310277E-3,-1.6208526E-2,4.8032226E-3,-3.0713728E-2,-3.387484E-3,5.5188224E-2,2.3549037E-2,-3.8372737E-3,2.7289044E-2,-1.4163246E-2,7.830863E-3,2.8543618E-2,8.348047E-3],"split_indices":[64,65,67,67,19,67,66,68,61,33,67,67,68,62,66,61,64,67,40,65,61,66,66,67,0,68,68,61,64,61,65,0,0,0,0,0,0,0,0,0,0,0,0,0,0,0,0,0,0,0,0,0,0,0,0,0,0,0,0,0,0,0,0],"split_type":[0,0,0,0,0,0,0,0,0,0,0,0,0,0,0,0,0,0,0,0,0,0,0,0,0,0,0,0,0,0,0,0,0,0,0,0,0,0,0,0,0,0,0,0,0,0,0,0,0,0,0,0,0,0,0,0,0,0,0,0,0,0,0],"sum_hessian":[8.261736E7,6.90198E5,8.192717E7,4.64973E5,2.25225E5,8.158774E7,3.3942E5,7.8786E4,3.86187E5,2.19927E5,5.298E3,8.0477096E7,1.110648E6,8.1861E4,2.57559E5,4.8623E4,3.0163E4,9.907E3,3.7628E5,2.18753E5,1.174E3,2.176E3,3.122E3,7.6540216E7,3.936882E6,4.77801E5,6.32847E5,3.4157E4,4.7704E4,1.52439E5,1.0512E5,3.927E3,4.4696E4,2.5793E4,4.37E3,6.64E2,9.243E3,3.5947E5,1.681E4,1.4882E5,6.9933E4,3.45E2,8.29E2,1.929E3,2.47E2,3.011E3,1.11E2,7.509891E7,1.4413E6,5.9253E5,3.344352E6,1.36955E5,3.40846E5,2.60222E5,3.72625E5,1.7744E4,1.6413E4,1.9976E4,2.7728E4,