{"learner":{"attributes":{"best_iteration":"99","best_ntree_limit":"100","scikit_learn":"{\"n_estimators\": 100, \"objective\": \"reg:squarederror\", \"max_depth\": 5, \"max_leaves\": null, \"max_bin\": null, \"grow_policy\": null, \"learning_rate\": null, \"verbosity\": null, \"booster\": null, \"tree_method\": null, \"gamma\": null, \"min_child_weight\": null, \"max_delta_step\": null, \"subsample\": null, \"sampling_method\": null, \"colsample_bytree\": null, \"colsample_bylevel\": null, \"colsample_bynode\": null, \"reg_alpha\": null, \"reg_lambda\": null, \"scale_pos_weight\": null, \"base_score\": null, \"missing\": NaN, \"num_parallel_tree\": null, \"random_state\": null, \"n_jobs\": null, \"monotone_constraints\": null, \"interaction_constraints\": null, \"importance_type\": null, \"gpu_id\": null, \"validate_parameters\": null, \"predictor\": null, \"enable_categorical\": false, \"max_cat_to_onehot\": null, \"eval_metric\": null, \"early_stopping_rounds\": null, \"callbacks\": null, \"_estimator_type\": \"regressor\"}"},"feature_names":[],"feature_types":[],"gradient_booster":{"model":{"gbtree_model_param":{"num_parallel_tree":"1","num_trees":"100","size_leaf_vector":"0"},"tree_info":[0,0,0,0,0,0,0,0,0,0,0,0,0,0,0,0,0,0,0,0,0,0,0,0,0,0,0,0,0,0,0,0,0,0,0,0,0,0,0,0,0,0,0,0,0,0,0,0,0,0,0,0,0,0,0,0,0,0,0,0,0,0,0,0,0,0,0,0,0,0,0,0,0,0,0,0,0,0,0,0,0,0,0,0,0,0,0,0,0,0,0,0,0,0,0,0,0,0,0,0],"trees":[{"base_weights":[2.4679095E-1,3.0369878E-1,-4.315593E-2,1.9297819E-1,3.600644E-1,-1.9846272E-1,1.2853442E-1,-1.0848062E-2,2.5721276E-1,2.3505467E-1,3.8960168E-1,-2.8541854E-1,-1.1056032E-1,1.8171255E-1,-7.413373E-2,1.9836895E-2,-1.949208E-1,1.9670536E-1,3.5826862E-1,1.1278909E-1,2.9024303E-1,2.9750848E-1,4.190123E-1,-3.618166E-1,-2.2079772E-1,-1.9772622E-1,-2.2564415E-2,6.637404E-2,2.4268885E-1,-1.7878635E-1,7.834437E-2,-7.9608046E-2,8.101885E-2,-2.9886857E-1,-1.2564158E-1,9.2975825E-2,2.4012654E-1,1.8622673E-1,3.7481627E-1,1.2962833E-1,-2.56997E-1,3.1090543E-1,-3.4884837E-2,2.2563845E-1,3.3980665E-1,4.2375502E-1,1.65321E-1,-3.4482977E-1,-4.4337723E-1,-3.3326834E-1,-2.0061551E-1,-1.4615007E-1,-3.496814E-1,4.393252E-3,-1.8643501E-1,-8.2136355E-2,1.1334227E-1,1.5984918E-1,3.039245E-1,-2.5308695E-1,-1.0338283E-1,5.7938737E-3,1.8358763E-1],"categories":[],"categories_nodes":[],"categories_segments":[],"categories_sizes":[],"default_left":[1,1,1,1,1,1,1,1,1,1,1,1,1,1,1,1,1,1,1,1,1,1,1,1,1,1,1,1,1,1,1,0,0,0,0,0,0,0,0,0,0,0,0,0,0,0,0,0,0,0,0,0,0,0,0,0,0,0,0,0,0,0,0],"id":0,"left_children":[1,3,5,7,9,11,13,15,17,19,21,23,25,27,29,31,33,35,37,39,41,43,45,47,49,51,53,55,57,59,61,-1,-1,-1,-1,-1,-1,-1,-1,-1,-1,-1,-1,-1,-1,-1,-1,-1,-1,-1,-1,-1,-1,-1,-1,-1,-1,-1,-1,-1,-1,-1,-1],"loss_changes":[1.458196E6,4.6104E5,3.8662172E5,3.2628644E5,1.807585E5,5.8190375E4,7.421901E4,3.373033E4,1.1586875E5,6.3131438E4,1.0725E5,1.8893781E4,2.9038469E4,3.8365266E4,2.2840654E4,3.1142428E4,6.14466E3,5.338503E4,2.0203688E4,1.8118832E4,4.3305938E4,2.9137375E4,3.61105E4,2.4295625E3,4.7062344E3,1.4905641E4,8.322532E3,1.3159422E4,1.810214E4,4.7553887E3,4.4481753E3,0E0,0E0,0E0,0E0,0E0,0E0,0E0,0E0,0E0,0E0,0E0,0E0,0E0,0E0,0E0,0E0,0E0,0E0,0E0,0E0,0E0,0E0,0E0,0E0,0E0,0E0,0E0,0E0,0E0,0E0,0E0,0E0],"parents":[2147483647,0,0,1,1,2,2,3,3,4,4,5,5,6,6,7,7,8,8,9,9,10,10,11,11,12,12,13,13,14,14,15,15,16,16,17,17,18,18,19,19,20,20,21,21,22,22,23,23,24,24,25,25,26,26,27,27,28,28,29,29,30,30],"right_children":[2,4,6,8,10,12,14,16,18,20,22,24,26,28,30,32,34,36,38,40,42,44,46,48,50,52,54,56,58,60,62,-1,-1,-1,-1,-1,-1,-1,-1,-1,-1,-1,-1,-1,-1,-1,-1,-1,-1,-1,-1,-1,-1,-1,-1,-1,-1,-1,-1,-1,-1,-1,-1],"split_conditions":[5E-1,4.698987E0,3.85E1,5.35E1,4.05E1,2.85E1,5E-1,5E-1,5E-1,4.908887E0,5E-1,4.647285E0,4.777789E0,4.571767E0,4.687083E0,3.75E1,4.05E1,4.276117E0,5E-1,5E-1,5E-1,5.75E1,5E-1,5E-1,-1.1646005E2,5E-1,5E-1,4.95E1,5.15E1,4.4095945E0,2.05E1,-2.3882415E-2,2.4305657E-2,-8.966057E-2,-3.7692476E-2,2.7892748E-2,7.2037965E-2,5.586802E-2,1.12444885E-1,3.88885E-2,-7.70991E-2,9.327163E-2,-1.04654515E-2,6.7691535E-2,1.01941995E-1,1.2712651E-1,4.9596306E-2,-1.03448935E-1,-1.3301317E-1,-9.998051E-2,-6.0184654E-2,-4.384502E-2,-1.0490443E-1,1.3179757E-3,-5.5930506E-2,-2.4640908E-2,3.4002684E-2,4.7954757E-2,9.117735E-2,-7.592609E-2,-3.101485E-2,1.7381621E-3,5.507629E-2],"split_indices":[60,65,61,61,61,61,63,63,56,65,56,65,65,65,65,61,61,65,0,4,4,61,4,63,67,63,9,61,61,65,64,0,0,0,0,0,0,0,0,0,0,0,0,0,0,0,0,0,0,0,0,0,0,0,0,0,0,0,0,0,0,0,0],"split_type":[0,0,0,0,0,0,0,0,0,0,0,0,0,0,0,0,0,0,0,0,0,0,0,0,0,0,0,0,0,0,0,0,0,0,0,0,0,0,0,0,0,0,0,0,0,0,0,0,0,0,0,0,0,0,0,0,0,0,0,0,0,0,0],"sum_hessian":[8.837419E7,7.38748E7,1.4499396E7,2.4921256E7,4.8953544E7,7.61293E6,6.886466E6,5.971803E6,1.8949452E7,9.356086E6,3.9597456E7,3.82707E6,3.78586E6,5.455101E6,1.431365E6,5.118542E6,8.53261E5,1.1852653E7,7.0968E6,2.909753E6,6.446333E6,9.584778E6,3.001268E7,1.753723E6,2.073347E6,1.901899E6,1.883961E6,1.88658E6,3.568521E6,8.48797E5,5.82568E5,1.949626E6,3.168916E6,3.41246E5,5.12015E5,3.497478E6,8.355175E6,6.22705E5,6.474095E6,2.783021E6,1.26732E5,6.061138E6,3.85195E5,3.551067E6,6.033711E6,2.9461896E7,5.50785E5,1.451434E6,3.02289E5,3.15443E5,1.757904E6,1.419947E6,4.81952E5,1.617821E6,2.6614E5,4.53294E5,1.433286E6,1.516713E6,2.051808E6,4.27524E5,4.21273E5,3.44846E5,2.37722E5],"tree_param":{"num_deleted":"0","num_feature":"69","num_nodes":"63","size_leaf_vector":"0"}},{"base_weights":[1.7275366E-1,-6.425523E-2,2.0827253E-1,-1.6434503E-1,7.330613E-2,1.2489774E-1,2.7059853E-1,-2.4153675E-1,-1.2190328E-1,-5.601818E-2,1.3978845E-1,-6.121216E-3,1.5747933E-1,2.7688032E-1,2.6682083E-2,-2.8430244E-1,-2.0862722E-1,-2.042603E-1,-9.070486E-2,-1.7045148E-1,2.323271E-5,4.7443867E-2,1.9920234E-1,-8.929888E-2,7.435972E-2,6.571121E-2,1.9347608E-1,2.8576732E-1,1.4274646E-1,-7.8527726E-2,1.506935E-1,-2.551836E-1,-3.0573958E-1,-1.8043192E-1,-2.9760608E-1,-1.5721759E-1,-2.6080725E-1,-7.475483E-2,-2.3038968E-1,-2.7233973E-1,-1.2811418E-1,-1.1410523E-1,5.117713E-2,7.311059E-2,-1.8077229E-1,2.119102E-1,-7.513154E-2,-5.1882442E-2,-2.0534678E-1,9.321967E-2,-7.259817E-2,-6.6418266E-3,1.6447607E-1,2.104791E-1,7.086546E-2,2.5866628E-1,3.1257257E-1,5.6320243E-2,1.951491E-1,-1.3917394E-1,1.495895E-1,9.701875E-2,2.2565375E-1],"categories":[],"categories_nodes":[],"categories_segments":[],"categories_sizes":[],"default_left":[1,1,1,1,1,1,1,1,1,1,1,1,1,1,1,1,1,1,1,1,1,1,1,1,1,1,1,1,1,1,1,0,0,0,0,0,0,0,0,0,0,0,0,0,0,0,0,0,0,0,0,0,0,0,0,0,0,0,0,0,0,0,0],"id":1,"left_children":[1,3,5,7,9,11,13,15,17,19,21,23,25,27,29,31,33,35,37,39,41,43,45,47,49,51,53,55,57,59,61,-1,-1,-1,-1,-1,-1,-1,-1,-1,-1,-1,-1,-1,-1,-1,-1,-1,-1,-1,-1,-1,-1,-1,-1,-1,-1,-1,-1,-1,-1,-1,-1],"loss_changes":[7.439595E5,1.585843E5,3.9937725E5,2.1842078E4,4.170713E4,1.4034378E5,6.7387E4,3.3287344E3,1.1053027E4,1.0562442E4,1.7578262E4,4.383028E4,8.6974375E4,5.11095E4,1.4406894E4,6.419922E2,3.3532852E3,3.1438984E3,6.9510625E3,2.3355693E3,6.454592E3,7.347332E3,6.796539E3,1.3980672E4,9.22308E3,5.300871E4,3.9424812E4,2.92115E4,1.2065988E4,8.264607E3,2.0391543E3,0E0,0E0,0E0,0E0,0E0,0E0,0E0,0E0,0E0,0E0,0E0,0E0,0E0,0E0,0E0,0E0,0E0,0E0,0E0,0E0,0E0,0E0,0E0,0E0,0E0,0E0,0E0,0E0,0E0,0E0,0E0,0E0],"parents":[2147483647,0,0,1,1,2,2,3,3,4,4,5,5,6,6,7,7,8,8,9,9,10,10,11,11,12,12,13,13,14,14,15,15,16,16,17,17,18,18,19,19,20,20,21,21,22,22,23,23,24,24,25,25,26,26,27,27,28,28,29,29,30,30],"right_children":[2,4,6,8,10,12,14,16,18,20,22,24,26,28,30,32,34,36,38,40,42,44,46,48,50,52,54,56,58,60,62,-1,-1,-1,-1,-1,-1,-1,-1,-1,-1,-1,-1,-1,-1,-1,-1,-1,-1,-1,-1,-1,-1,-1,-1,-1,-1,-1,-1,-1,-1,-1,-1],"split_conditions":[3.35E1,5E-1,5E-1,4.5911202E0,4.7985816E0,4.75E1,5E-1,2.55E1,2.55E1,2.5E0,2.5E0,4.740402E0,4.4013143E0,5E-1,5.013343E0,5E-1,5E-1,2.05E1,5E-1,-9.697714E1,4.542078E0,5E-1,5E-1,5E-1,5E-1,5E-1,5E-1,4.9696026E0,5.25E1,6.05E1,5.2588763E0,-7.655509E-2,-9.172188E-2,-5.412958E-2,-8.928183E-2,-4.716528E-2,-7.8242175E-2,-2.2426449E-2,-6.9116905E-2,-8.170192E-2,-3.8434256E-2,-3.423157E-2,1.53531395E-2,2.1933177E-2,-5.423169E-2,6.357306E-2,-2.2539463E-2,-1.5564733E-2,-6.1604034E-2,2.7965901E-2,-2.1779452E-2,-1.9925481E-3,4.9342822E-2,6.314373E-2,2.125964E-2,7.759988E-2,9.377178E-2,1.6896073E-2,5.854473E-2,-4.1752182E-2,4.487685E-2,2.9105626E-2,6.769613E-2],"split_indices":[61,56,56,65,65,61,4,61,61,66,66,65,65,63,65,62,63,64,63,67,65,9,63,63,9,57,63,65,61,61,65,0,0,0,0,0,0,0,0,0,0,0,0,0,0,0,0,0,0,0,0,0,0,0,0,0,0,0,0,0,0,0,0],"split_type":[0,0,0,0,0,0,0,0,0,0,0,0,0,0,0,0,0,0,0,0,0,0,0,0,0,0,0,0,0,0,0,0,0,0,0,0,0,0,0,0,0,0,0,0,0,0,0,0,0,0,0,0,0,0,0,0,0,0,0,0,0,0,0],"sum_hessian":[8.837419E7,1.1517915E7,7.685628E7,6.666999E6,4.850916E6,3.2876586E7,4.3979696E7,2.365215E6,4.301784E6,1.647034E6,3.203882E6,6.547482E6,2.6329104E7,4.2875484E7,1.10421E6,1.028578E6,1.336637E6,1.181878E6,3.119906E6,5.41441E5,1.105593E6,1.25433E6,1.949552E6,3.219797E6,3.327685E6,7.418019E6,1.8911084E7,4.02113E7,2.664186E6,5.97391E5,5.06819E5,4.36151E5,5.92427E5,1.015008E6,3.21629E5,6.45159E5,5.36719E5,2.800168E6,3.19738E5,1.58938E5,3.82503E5,3.42174E5,7.63419E5,1.127522E6,1.26808E5,1.863242E6,8.631E4,2.434773E6,7.85024E5,2.949198E6,3.78487E5,4.281491E6,3.136528E6,1.6607976E7,2.303109E6,1.9995324E7,2.0215976E7,1.00563E6,1.658556E6,4.71927E5,1.25464E5,2.95343E5,2.11476E5],"tree_param":{"num_deleted":"0","num_feature":"69","num_nodes":"63","size_leaf_vector":"0"}},{"base_weights":[1.20927565E-1,-3.7434753E-2,1.4754835E-1,-1.1137458E-1,5.7260264E-2,8.958567E-2,1.9096845E-1,-1.4950216E-1,-5.975431E-2,-3.0611996E-2,1.1072804E-1,3.300446E-2,1.3307512E-1,1.4284302E-1,2.0822583E-1,-2.1028666E-1,-1.3000984E-1,-1.5770869E-1,-3.8567677E-2,-1.2839423E-2,-2.3828456E-1,1.2548E-1,-1.281796E-1,-1.5257088E-2,1.3272084E-1,5.1722344E-2,1.5870528E-1,3.8834188E-2,1.7704561E-1,1.7109076E-2,2.1197273E-1,-2.4756843E-1,-1.854258E-1,-1.8494439E-1,-1.0459006E-1,-1.6987377E-1,6.5554436E-3,-1.4901516E-2,-1.614486E-1,-1.0166464E-1,2.875302E-2,-3.0638635E-1,-2.0736247E-1,-2.942482E-2,1.4810482E-1,-2.0668073E-1,2.164255E-3,1.2175375E-2,-1.2518016E-1,6.328695E-2,1.6120704E-1,7.6010704E-2,-8.887268E-2,1.2899338E-1,1.9527966E-1,5.845438E-2,-1.1731914E-1,1.9116405E-1,4.4462215E-2,3.389367E-2,-1.1999723E-1,1.4255193E-1,2.2013202E-1],"categories":[],"categories_nodes":[],"categories_segments":[],"categories_sizes":[],"default_left":[1,1,1,1,1,1,1,1,1,1,1,1,1,1,1,1,1,1,1,1,1,1,1,1,1,1,1,1,1,1,1,0,0,0,0,0,0,0,0,0,0,0,0,0,0,0,0,0,0,0,0,0,0,0,0,0,0,0,0,0,0,0,0],"id":2,"left_children":[1,3,5,7,9,11,13,15,17,19,21,23,25,27,29,31,33,35,37,39,41,43,45,47,49,51,53,55,57,59,61,-1,-1,-1,-1,-1,-1,-1,-1,-1,-1,-1,-1,-1,-1,-1,-1,-1,-1,-1,-1,-1,-1,-1,-1,-1,-1,-1,-1,-1,-1,-1,-1],"loss_changes":[3.7256175E5,8.904711E4,1.9040775E5,1.4055734E4,2.6199283E4,7.973116E4,3.5923625E4,4.8668125E3,6.2964385E3,7.7857734E3,1.2218344E4,6.776678E4,3.819978E4,4.0613484E4,2.279875E4,9.243867E2,4.3431914E3,1.078124E3,7.254116E3,7.178967E3,3.5013086E2,1.1443559E4,2.0629944E3,2.8613596E4,9.083617E3,1.4987969E4,1.5139156E4,8.655879E3,1.6082094E4,1.4088073E3,1.768675E4,0E0,0E0,0E0,0E0,0E0,0E0,0E0,0E0,0E0,0E0,0E0,0E0,0E0,0E0,0E0,0E0,0E0,0E0,0E0,0E0,0E0,0E0,0E0,0E0,0E0,0E0,0E0,0E0,0E0,0E0,0E0,0E0],"parents":[2147483647,0,0,1,1,2,2,3,3,4,4,5,5,6,6,7,7,8,8,9,9,10,10,11,11,12,12,13,13,14,14,15,15,16,16,17,17,18,18,19,19,20,20,21,21,22,22,23,23,24,24,25,25,26,26,27,27,28,28,29,29,30,30],"right_children":[2,4,6,8,10,12,14,16,18,20,22,24,26,28,30,32,34,36,38,40,42,44,46,48,50,52,54,56,58,60,62,-1,-1,-1,-1,-1,-1,-1,-1,-1,-1,-1,-1,-1,-1,-1,-1,-1,-1,-1,-1,-1,-1,-1,-1,-1,-1,-1,-1,-1,-1,-1,-1],"split_conditions":[3.45E1,5E-1,5E-1,4.777028E0,4.8398867E0,5.95E1,4.85E1,-9.653457E1,-1.1701754E2,5E-1,5E-1,4.887392E0,4.3208733E0,4.8598585E0,1.5E0,3.4564438E1,4.405772E0,5E-1,-7.40864E1,2.5E0,2.75E1,-1.1702588E2,5.159191E0,5E-1,4.35E1,5E-1,5E-1,5E-1,5E-1,5E-1,4.5185404E0,-7.427053E-2,-5.5627745E-2,-5.548332E-2,-3.1377017E-2,-5.0962135E-2,1.9666331E-3,-4.470455E-3,-4.843458E-2,-3.0499393E-2,8.625906E-3,-9.1915905E-2,-6.2208746E-2,-8.827446E-3,4.4431448E-2,-6.200422E-2,6.492765E-4,3.6526124E-3,-3.7554048E-2,1.8986087E-2,4.8362114E-2,2.2803212E-2,-2.6661804E-2,3.8698014E-2,5.85839E-2,1.7536314E-2,-3.519574E-2,5.7349216E-2,1.33386655E-2,1.0168102E-2,-3.599917E-2,4.276558E-2,6.603961E-2],"split_indices":[61,56,56,65,65,61,61,67,67,63,4,65,65,65,66,68,65,3,67,66,61,67,65,63,61,63,57,63,9,63,65,0,0,0,0,0,0,0,0,0,0,0,0,0,0,0,0,0,0,0,0,0,0,0,0,0,0,0,0,0,0,0,0],"split_type":[0,0,0,0,0,0,0,0,0,0,0,0,0,0,0,0,0,0,0,0,0,0,0,0,0,0,0,0,0,0,0,0,0,0,0,0,0,0,0,0,0,0,0,0,0,0,0,0,0,0,0,0,0,0,0,0,0,0,0,0,0,0,0],"sum_hessian":[8.837419E7,1.2717866E7,7.565633E7,7.141576E6,5.57629E6,3.2402008E7,4.325432E7,4.107619E6,3.033957E6,2.109465E6,3.466825E6,1.4081506E7,1.8320504E7,1.1416712E7,3.1837608E7,9.97384E5,3.110235E6,5.39522E5,2.494435E6,1.94317E6,1.66295E5,3.265207E6,2.01618E5,9.488962E6,4.592544E6,4.389089E6,1.3931414E7,2.825246E6,8.591466E6,6.12183E5,3.1225426E7,3.99011E5,5.98373E5,9.83909E5,2.126326E6,5.02321E5,3.7201E4,2.091605E6,4.0283E5,6.1971E5,1.32346E6,5.1926E4,1.14369E5,4.16126E5,2.849081E6,1.25833E5,7.5785E4,7.59384E6,1.895122E6,1.33603E6,3.256514E6,3.742549E6,6.4654E5,7.686853E6,6.244561E6,2.509887E6,3.15359E5,7.764632E6,8.26834E5,5.45414E5,6.6769E4,3.284055E6,2.7941372E7],"tree_param":{"num_deleted":"0","num_feature":"69","num_nodes":"63","size_leaf_vector":"0"}},{"base_weights":[8.464928E-2,-6.6673435E-2,9.960591E-2,-9.947579E-2,-6.853313E-3,3.70585E-2,1.2294061E-1,-6.5488935E-2,-1.3271855E-1,-8.0256656E-2,3.1092977E-2,-3.548159E-2,8.468848E-2,9.020746E-2,1.4764926E-1,-2.9100422E-2,-1.14805475E-1,-1.4683682E-1,-8.965007E-2,-1.8173562E-1,-5.53287E-2,-1.472963E-1,5.0055396E-2,-1.3245216E-2,-1.2503013E-1,9.72894E-2,-1.8763673E-2,4.8187762E-2,1.3733369E-1,1.0935378E-1,1.5703942E-1,-1.329085E-1,2.6896112E-3,-1.01922624E-1,-2.5386703E-1,-1.511235E-1,-3.7512712E-2,-7.50856E-2,-1.622546E-1,-2.3556982E-1,-1.0758339E-1,-8.5370146E-2,3.2417506E-2,-7.9162925E-2,-1.9917391E-1,-5.0004214E-2,7.1270555E-2,-1.4675528E-1,2.9952507E-3,-7.757249E-2,-1.8307415E-1,3.1008726E-2,1.1299108E-1,4.606944E-2,-9.458067E-2,-8.907344E-2,6.696469E-2,1.5016581E-1,4.1779313E-2,1.1655662E-1,-2.7681138E-2,1.6226667E-1,9.085571E-2],"categories":[],"categories_nodes":[],"categories_segments":[],"categories_sizes":[],"default_left":[1,1,1,1,1,1,1,1,1,1,1,1,1,1,1,1,1,1,1,1,1,1,1,1,1,1,1,1,1,1,1,0,0,0,0,0,0,0,0,0,0,0,0,0,0,0,0,0,0,0,0,0,0,0,0,0,0,0,0,0,0,0,0],"id":3,"left_children":[1,3,5,7,9,11,13,15,17,19,21,23,25,27,29,31,33,35,37,39,41,43,45,47,49,51,53,55,57,59,61,-1,-1,-1,-1,-1,-1,-1,-1,-1,-1,-1,-1,-1,-1,-1,-1,-1,-1,-1,-1,-1,-1,-1,-1,-1,-1,-1,-1,-1,-1,-1,-1],"loss_changes":[2.0001531E5,1.5598148E4,1.17382375E5,5.800418E3,7.8414224E3,7.550042E4,4.7373438E4,4.5555938E3,1.5781172E3,2.426897E3,6.2776885E3,1.7246361E4,1.7195484E4,4.9892406E4,1.2002625E4,4.820556E3,1.9308975E3,9.160078E2,6.7754834E2,7.5521875E2,2.0302334E3,6.302595E2,3.5609868E3,1.5043986E4,4.7458945E3,1.2237375E4,7.040156E3,3.4328332E4,1.4561953E4,6.4875156E3,9.2734375E3,0E0,0E0,0E0,0E0,0E0,0E0,0E0,0E0,0E0,0E0,0E0,0E0,0E0,0E0,0E0,0E0,0E0,0E0,0E0,0E0,0E0,0E0,0E0,0E0,0E0,0E0,0E0,0E0,0E0,0E0,0E0,0E0],"parents":[2147483647,0,0,1,1,2,2,3,3,4,4,5,5,6,6,7,7,8,8,9,9,10,10,11,11,12,12,13,13,14,14,15,15,16,16,17,17,18,18,19,19,20,20,21,21,22,22,23,23,24,24,25,25,26,26,27,27,28,28,29,29,30,30],"right_children":[2,4,6,8,10,12,14,16,18,20,22,24,26,28,30,32,34,36,38,40,42,44,46,48,50,52,54,56,58,60,62,-1,-1,-1,-1,-1,-1,-1,-1,-1,-1,-1,-1,-1,-1,-1,-1,-1,-1,-1,-1,-1,-1,-1,-1,-1,-1,-1,-1,-1,-1,-1,-1],"split_conditions":[3.05E1,5E-1,4.6020813E0,5E-1,2.65E1,6.15E1,5.35E1,2.05E1,4.8648076E0,-1.04706406E2,5E-1,5E-1,5E-1,5.0254083E0,1.5E0,2.25E1,5E-1,5E-1,-7.407805E1,4.036775E1,4.082618E1,5E-1,-1.04775276E2,-1.1682217E2,3.5652054E1,4.202352E0,3.6053978E1,-1.1496478E2,5E-1,8.75E1,5E-1,-3.987255E-2,8.068834E-4,-3.0576788E-2,-7.616011E-2,-4.533705E-2,-1.1253814E-2,-2.2525681E-2,-4.8676383E-2,-7.067095E-2,-3.2275017E-2,-2.5611045E-2,9.725252E-3,-2.3748878E-2,-5.9752177E-2,-1.5001264E-2,2.1381168E-2,-4.4026583E-2,8.9857524E-4,-2.3271747E-2,-5.4922245E-2,9.302618E-3,3.3897325E-2,1.3820833E-2,-2.8374203E-2,-2.6722034E-2,2.0089408E-2,4.5049746E-2,1.2533794E-2,3.4966987E-2,-8.304342E-3,4.8680004E-2,2.7256714E-2],"split_indices":[61,56,65,62,61,61,61,64,65,67,0,63,63,65,66,61,4,27,67,68,68,4,67,67,68,65,68,67,9,61,63,0,0,0,0,0,0,0,0,0,0,0,0,0,0,0,0,0,0,0,0,0,0,0,0,0,0,0,0,0,0,0,0],"split_type":[0,0,0,0,0,0,0,0,0,0,0,0,0,0,0,0,0,0,0,0,0,0,0,0,0,0,0,0,0,0,0,0,0,0,0,0,0,0,0,0,0,0,0,0,0,0,0,0,0,0,0,0,0,0,0,0,0,0,0,0,0,0,0],"sum_hessian":[8.837419E7,7.949151E6,8.042505E7,5.13395E6,2.815201E6,2.1851984E7,5.8573064E7,2.538565E6,2.595385E6,9.59378E5,1.855823E6,8.661138E6,1.3190845E7,2.5195268E7,3.3377794E7,1.460746E6,1.077819E6,1.954634E6,6.40751E5,1.89192E5,7.70186E5,1.78315E5,1.677508E6,6.938256E6,1.722882E6,1.1758597E7,1.432248E6,1.3319263E7,1.1876005E7,6.572691E6,2.6805104E7,3.42461E5,1.118285E6,9.86436E5,9.1383E4,1.880883E6,7.3751E4,5.33694E5,1.07057E5,1.09612E5,7.958E4,5.73752E5,1.96434E5,7.7082E4,1.01233E5,2.93454E5,1.384054E6,7.52454E5,6.185802E6,9.47882E5,7.75E5,2.252067E6,9.50653E6,7.72049E5,6.60199E5,1.60278E6,1.1716483E7,1.0469977E7,1.406028E6,6.244469E6,3.28222E5,2.484298E7,1.962122E6],"tree_param":{"num_deleted":"0","num_feature":"69","num_nodes":"63","size_leaf_vector":"0"}},{"base_weights":[5.925449E-2,6.475882E-4,7.952274E-2,-5.186232E-2,4.835399E-2,2.4872132E-2,9.301043E-2,-1.1238279E-1,-3.5799462E-2,-2.9584603E-2,7.323937E-2,3.905852E-2,-6.0636524E-2,9.552639E-2,-8.177664E-2,-1.09204255E-1,-2.0022814E-1,-2.9204799E-2,-2.0148179E-1,-1.7683359E-2,-1.7156586E-1,-5.8861557E-2,8.763138E-2,-5.9957646E-2,5.0995428E-2,-1.0162995E-1,3.1976487E-2,1.0143798E-1,3.4783952E-2,-1.0652934E-1,-3.2997232E-2,-1.5609936E-1,-1.03155896E-1,-1.7288081E-1,-2.8442538E-1,-1.6274815E-2,-1.1506177E-1,-2.2908515E-1,-1.1386631E-1,-1.2263922E-1,-2.4214827E-3,-2.1169834E-1,-5.1800024E-2,-4.2338476E-2,-2.383822E-1,9.630541E-2,-7.130911E-2,-1.6574633E-1,-2.8531142E-2,6.1118588E-2,-5.6902077E-2,-5.4574005E-2,-1.6098572E-1,5.5050503E-2,-2.1404205E-1,1.0665296E-1,4.427998E-2,1.6479417E-3,8.590056E-2,-8.653214E-2,-1.5720463E-1,-2.3029702E-2,-3.0589363E-1],"categories":[],"categories_nodes":[],"categories_segments":[],"categories_sizes":[],"default_left":[1,1,1,1,1,1,1,1,1,1,1,1,1,1,1,1,1,1,1,1,1,1,1,1,1,1,1,1,1,1,1,0,0,0,0,0,0,0,0,0,0,0,0,0,0,0,0,0,0,0,0,0,0,0,0,0,0,0,0,0,0,0,0],"id":4,"left_children":[1,3,5,7,9,11,13,15,17,19,21,23,25,27,29,31,33,35,37,39,41,43,45,47,49,51,53,55,57,59,61,-1,-1,-1,-1,-1,-1,-1,-1,-1,-1,-1,-1,-1,-1,-1,-1,-1,-1,-1,-1,-1,-1,-1,-1,-1,-1,-1,-1,-1,-1,-1,-1],"loss_changes":[1.0497609E5,5.688783E4,4.8402406E4,1.0509076E4,2.307816E4,1.57675E4,2.3160594E4,6.330801E2,9.334186E3,4.8660605E3,1.7147074E4,1.3176959E4,7.022079E3,1.86435E4,9.0236426E2,6.2064844E2,1.8225928E2,9.120742E3,7.908633E2,4.256091E3,1.0704878E3,2.628278E3,1.1212621E4,3.9875361E3,1.0867053E4,3.5809658E3,3.2215085E3,1.4103469E4,7.7995728E3,5.0238574E2,6.8431116E2,0E0,0E0,0E0,0E0,0E0,0E0,0E0,0E0,0E0,0E0,0E0,0E0,0E0,0E0,0E0,0E0,0E0,0E0,0E0,0E0,0E0,0E0,0E0,0E0,0E0,0E0,0E0,0E0,0E0,0E0,0E0,0E0],"parents":[2147483647,0,0,1,1,2,2,3,3,4,4,5,5,6,6,7,7,8,8,9,9,10,10,11,11,12,12,13,13,14,14,15,15,16,16,17,17,18,18,19,19,20,20,21,21,22,22,23,23,24,24,25,25,26,26,27,27,28,28,29,29,30,30],"right_children":[2,4,6,8,10,12,14,16,18,20,22,24,26,28,30,32,34,36,38,40,42,44,46,48,50,52,54,56,58,60,62,-1,-1,-1,-1,-1,-1,-1,-1,-1,-1,-1,-1,-1,-1,-1,-1,-1,-1,-1,-1,-1,-1,-1,-1,-1,-1,-1,-1,-1,-1,-1,-1],"split_conditions":[4.25E1,5E-1,4.4771285E0,4.466719E0,2.5E0,5E-1,5E-1,5E-1,5E-1,5E-1,4.5975857E0,-1.1703886E2,7.05E1,5E-1,2.05E1,-1.1195178E2,3.45E1,5E-1,2.5E0,-1.17658356E2,5.159507E0,5E-1,5E-1,5E-1,-7.419393E1,3.5953377E1,-7.443475E1,5E-1,5.094034E0,5E-1,5E-1,-4.6829812E-2,-3.094677E-2,-5.1864248E-2,-8.532762E-2,-4.8824446E-3,-3.4518532E-2,-6.872555E-2,-3.4159895E-2,-3.6791768E-2,-7.264448E-4,-6.35095E-2,-1.55400075E-2,-1.2701543E-2,-7.1514666E-2,2.8891623E-2,-2.1392735E-2,-4.97239E-2,-8.5593425E-3,1.8335577E-2,-1.7070623E-2,-1.6372202E-2,-4.8295718E-2,1.6515153E-2,-6.421262E-2,3.199589E-2,1.3283995E-2,4.943825E-4,2.5770169E-2,-2.5959643E-2,-4.716139E-2,-6.908911E-3,-9.176809E-2],"split_indices":[61,56,65,65,66,63,59,4,4,4,65,67,61,9,64,67,61,63,66,67,65,4,4,0,67,68,67,63,65,63,4,0,0,0,0,0,0,0,0,0,0,0,0,0,0,0,0,0,0,0,0,0,0,0,0,0,0,0,0,0,0,0,0],"split_type":[0,0,0,0,0,0,0,0,0,0,0,0,0,0,0,0,0,0,0,0,0,0,0,0,0,0,0,0,0,0,0,0,0,0,0,0,0,0,0,0,0,0,0,0,0,0,0,0,0,0,0,0,0,0,0,0,0,0,0,0,0,0,0],"sum_hessian":[8.837419E7,2.2709176E7,6.566502E7,1.0810347E7,1.189883E7,1.2998126E7,5.2666892E7,2.267399E6,8.542948E6,2.879746E6,9.019084E6,1.1148521E7,1.849605E6,5.1919544E7,7.4735E5,2.188224E6,7.9175E4,8.21593E6,3.27018E5,2.657028E6,2.22718E5,8.86068E5,8.133016E6,1.199415E6,9.949106E6,1.282105E6,5.675E5,4.731477E7,4.604776E6,4.95773E5,2.51577E5,2.49984E5,1.93824E6,5.9766E4,1.9409E4,7.140568E6,1.075362E6,2.48672E5,7.8346E4,3.37314E5,2.319714E6,1.66818E5,5.59E4,8.11389E5,7.4679E4,7.712134E6,4.20882E5,2.74702E5,9.24713E5,9.095727E6,8.53379E5,7.15151E5,5.66954E5,5.18839E5,4.8661E4,4.3358796E7,3.955971E6,2.793748E6,1.811028E6,3.55493E5,1.4028E5,2.42713E5,8.864E3],"tree_param":{"num_deleted":"0","num_feature":"69","num_nodes":"63","size_leaf_vector":"0"}},{"base_weights":[4.1478135E-2,1.2844356E-2,6.466609E-2,-6.3117403E-3,7.503891E-2,6.825867E-2,-5.9020333E-2,-2.5767839E-2,3.4940932E-2,8.55837E-2,-4.8106145E-3,-3.6887877E-2,7.211052E-2,-1.0273616E-1,2.0950546E-2,-6.9450185E-2,-1.2170266E-2,-7.0447363E-3,5.6971066E-2,3.1788267E-2,9.201923E-2,-4.3894295E-2,1.4908311E-1,-2.6981508E-2,-2.2321491E-1,3.336213E-2,7.818982E-2,-1.2184501E-1,3.807399E-2,-3.442016E-1,3.0267926E-2,-1.00830816E-1,-2.7145613E-2,-2.890615E-3,-8.970993E-2,-3.487314E-2,5.7269525E-2,6.010331E-2,-1.2461451E-1,-3.374657E-2,7.3206015E-2,9.630684E-2,4.2614184E-2,-5.0098044E-3,-7.866424E-2,5.5024326E-2,1.5651546E-1,-9.885515E-2,-1.9230602E-3,-1.5212537E-1,-2.7878252E-1,1.2081911E-2,7.3499426E-2,-3.878631E-2,8.009708E-2,-1.5363497E-1,-4.7031622E-2,5.9244644E-2,-2.3274037E-1,-4.203245E-1,2.4714208E-1,4.8667105E-4,1.2293621E-1],"categories":[],"categories_nodes":[],"categories_segments":[],"categories_sizes":[],"default_left":[1,1,1,1,1,1,1,1,1,1,1,1,1,1,1,1,1,1,1,1,1,1,1,1,1,1,1,1,1,1,1,0,0,0,0,0,0,0,0,0,0,0,0,0,0,0,0,0,0,0,0,0,0,0,0,0,0,0,0,0,0,0,0],"id":5,"left_children":[1,3,5,7,9,11,13,15,17,19,21,23,25,27,29,31,33,35,37,39,41,43,45,47,49,51,53,55,57,59,61,-1,-1,-1,-1,-1,-1,-1,-1,-1,-1,-1,-1,-1,-1,-1,-1,-1,-1,-1,-1,-1,-1,-1,-1,-1,-1,-1,-1,-1,-1,-1,-1],"loss_changes":[5.867683E4,4.711242E4,2.1698047E4,2.4264719E4,7.840297E3,1.921861E4,4.8185083E3,1.220212E4,8.96169E3,2.8476172E3,6.533354E3,3.0952532E3,1.0782969E4,2.3978398E3,1.6574048E3,6.474047E3,1.1272681E4,5.9675703E3,3.614291E3,2.3854888E3,1.5561953E3,1.1711554E3,1.5378369E2,2.8677002E3,3.3436426E2,5.3022915E3,8.827719E3,1.8661748E3,6.105261E2,5.457284E2,1.3109635E3,0E0,0E0,0E0,0E0,0E0,0E0,0E0,0E0,0E0,0E0,0E0,0E0,0E0,0E0,0E0,0E0,0E0,0E0,0E0,0E0,0E0,0E0,0E0,0E0,0E0,0E0,0E0,0E0,0E0,0E0,0E0,0E0],"parents":[2147483647,0,0,1,1,2,2,3,3,4,4,5,5,6,6,7,7,8,8,9,9,10,10,11,11,12,12,13,13,14,14,15,15,16,16,17,17,18,18,19,19,20,20,21,21,22,22,23,23,24,24,25,25,26,26,27,27,28,28,29,29,30,30],"right_children":[2,4,6,8,10,12,14,16,18,20,22,24,26,28,30,32,34,36,38,40,42,44,46,48,50,52,54,56,58,60,62,-1,-1,-1,-1,-1,-1,-1,-1,-1,-1,-1,-1,-1,-1,-1,-1,-1,-1,-1,-1,-1,-1,-1,-1,-1,-1,-1,-1,-1,-1,-1,-1],"split_conditions":[5E-1,5E-1,5E-1,4.8451104E0,8.85E1,2.85E1,5.0945587E0,-9.656708E1,4.05E1,1.45E1,1.5E0,5E-1,-1.1444116E2,6.35E1,1.5E0,5.75E1,-7.438138E1,4.0889965E1,5E-1,7.45E1,-7.41192E1,3.9116337E1,1.05E1,2.45E1,4.673479E0,5.149758E0,1.5E0,5E-1,5E-1,5.95E1,4.1014534E1,-3.0249245E-2,-8.143684E-3,-8.6718454E-4,-2.691298E-2,-1.0461942E-2,1.7180858E-2,1.8030994E-2,-3.7384354E-2,-1.0123972E-2,2.1961804E-2,2.8892053E-2,1.2784256E-2,-1.5029414E-3,-2.3599274E-2,1.6507298E-2,4.6954643E-2,-2.9656546E-2,-5.769181E-4,-4.5637615E-2,-8.363476E-2,3.6245733E-3,2.204983E-2,-1.1635894E-2,2.4029125E-2,-4.609049E-2,-1.4109488E-2,1.7773394E-2,-6.982212E-2,-1.2609735E-1,7.414263E-2,1.4600132E-4,3.6880866E-2],"split_indices":[56,57,4,65,61,61,65,67,61,64,66,63,67,61,66,61,67,68,4,61,67,68,64,61,65,65,66,62,63,61,68,0,0,0,0,0,0,0,0,0,0,0,0,0,0,0,0,0,0,0,0,0,0,0,0,0,0,0,0,0,0,0,0],"split_type":[0,0,0,0,0,0,0,0,0,0,0,0,0,0,0,0,0,0,0,0,0,0,0,0,0,0,0,0,0,0,0,0,0,0,0,0,0,0,0,0,0,0,0,0,0,0,0,0,0,0,0,0,0,0,0,0,0,0,0,0,0,0,0],"sum_hessian":[8.837419E7,3.9543584E7,4.8830612E7,3.0232036E7,9.31155E6,4.745232E7,1.378293E6,2.0543196E7,9.688838E6,8.225327E6,1.086223E6,1.676897E6,4.577542E7,8.91149E5,4.87144E5,4.87671E6,1.5666487E7,3.334277E6,6.354561E6,8.78856E5,7.346471E6,8.66231E5,2.19992E5,1.592244E6,8.4653E4,6.207823E6,3.95676E7,7.84665E5,1.06484E5,1.212E4,4.75024E5,2.799844E6,2.076866E6,1.3991981E7,1.674506E6,2.327278E6,1.006999E6,6.246808E6,1.07753E5,3.4034E5,5.38516E5,6.75982E6,5.86651E5,4.08921E5,4.5731E5,1.6111E4,2.03881E5,4.11619E5,1.180625E6,3.7141E4,4.7512E4,4.056909E6,2.150914E6,6.34788E5,3.893281E7,5.50671E5,2.33994E5,9.8764E4,7.72E3,1.0738E4,1.382E3,3.59493E5,1.15531E5],"tree_param":{"num_deleted":"0","num_feature":"69","num_nodes":"63","size_leaf_vector":"0"}},{"base_weights":[2.9034687E-2,-2.2964221E-3,4.2415753E-2,-2.973652E-2,3.8878568E-2,-1.6850851E-2,4.703024E-2,-1.8745653E-2,-9.6187726E-2,4.962062E-2,-4.7556743E-2,-5.7878274E-2,3.074303E-2,2.3909202E-2,5.6783907E-2,-7.673771E-2,-5.56753E-3,-1.1566873E-1,-3.790872E-2,6.1737273E-2,-2.9844444E-2,-2.7868837E-1,3.577205E-2,-3.5621878E-2,-1.5419418E-1,-4.6108007E-2,4.2207018E-2,-4.637909E-2,2.9976655E-2,4.3380044E-2,7.4014306E-2,-1.1470373E-1,-4.5708586E-2,-1.5406498E-2,8.609226E-2,-9.522504E-2,-1.6918513E-1,-7.248805E-2,6.49373E-4,6.375444E-2,-1.4977042E-1,-6.1457366E-2,6.648343E-2,-2.983364E-1,6.608311E-2,6.779437E-2,-3.842965E-2,-8.114375E-2,-1.3178425E-2,-1.3746294E-1,-3.1179765E-1,-2.3761116E-1,-2.9416516E-2,5.2637316E-2,-2.3900801E-2,-7.86202E-2,1.0521943E-2,1.1928319E-3,4.1326955E-2,1.412653E-2,6.1944354E-2,3.993488E-2,7.6570295E-2],"categories":[],"categories_nodes":[],"categories_segments":[],"categories_sizes":[],"default_left":[1,1,1,1,1,1,1,1,1,1,1,1,1,1,1,1,1,1,1,1,1,1,1,1,1,1,1,1,1,1,1,0,0,0,0,0,0,0,0,0,0,0,0,0,0,0,0,0,0,0,0,0,0,0,0,0,0,0,0,0,0,0,0],"id":6,"left_children":[1,3,5,7,9,11,13,15,17,19,21,23,25,27,29,31,33,35,37,39,41,43,45,47,49,51,53,55,57,59,61,-1,-1,-1,-1,-1,-1,-1,-1,-1,-1,-1,-1,-1,-1,-1,-1,-1,-1,-1,-1,-1,-1,-1,-1,-1,-1,-1,-1,-1,-1,-1,-1],"loss_changes":[3.705032E4,2.988199E4,1.693593E4,1.1591482E4,9.820532E3,8.734782E3,1.2956523E4,1.0407641E4,2.5573027E3,9.058193E3,2.2518188E4,5.149821E3,1.8245209E3,7.2695713E3,9.332203E3,2.9706367E3,1.0007582E4,1.846957E3,7.52398E2,3.4827227E3,3.7903013E3,2.0987578E3,2.0419252E3,1.993721E3,1.1890195E3,8.592754E2,1.2425913E3,2.484932E3,5.126448E3,1.2342504E4,1.5400391E3,0E0,0E0,0E0,0E0,0E0,0E0,0E0,0E0,0E0,0E0,0E0,0E0,0E0,0E0,0E0,0E0,0E0,0E0,0E0,0E0,0E0,0E0,0E0,0E0,0E0,0E0,0E0,0E0,0E0,0E0,0E0,0E0],"parents":[2147483647,0,0,1,1,2,2,3,3,4,4,5,5,6,6,7,7,8,8,9,9,10,10,11,11,12,12,13,13,14,14,15,15,16,16,17,17,18,18,19,19,20,20,21,21,22,22,23,23,24,24,25,25,26,26,27,27,28,28,29,29,30,30],"right_children":[2,4,6,8,10,12,14,16,18,20,22,24,26,28,30,32,34,36,38,40,42,44,46,48,50,52,54,56,58,60,62,-1,-1,-1,-1,-1,-1,-1,-1,-1,-1,-1,-1,-1,-1,-1,-1,-1,-1,-1,-1,-1,-1,-1,-1,-1,-1,-1,-1,-1,-1,-1,-1],"split_conditions":[4.55E1,4.954315E0,1.55E1,5E-1,-7.405552E1,7.05E1,1.5E0,-1.0483232E2,2.05E1,5E-1,-7.388853E1,5E-1,4.140665E0,4.1431713E0,6.35E1,3.794725E1,4.318695E1,4.701352E0,3.55E1,5E-1,5.3222914E0,4.089076E1,-7.1265175E1,4.464862E0,-7.426486E1,-1.17789795E2,-7.580893E1,7.35E1,-9.532884E1,4.9138403E0,5E-1,-3.441112E-2,-1.3712577E-2,-4.6219495E-3,2.582768E-2,-2.8567513E-2,-5.075554E-2,-2.1746416E-2,1.948119E-4,1.9126333E-2,-4.493113E-2,-1.843721E-2,1.994503E-2,-8.950092E-2,1.9824933E-2,2.0338312E-2,-1.1528896E-2,-2.4343127E-2,-3.9535277E-3,-4.1238885E-2,-9.35393E-2,-7.128335E-2,-8.824956E-3,1.5791196E-2,-7.170241E-3,-2.3586063E-2,3.156583E-3,3.5784958E-4,1.2398087E-2,4.237959E-3,1.8583307E-2,1.1980465E-2,2.297109E-2],"split_indices":[61,65,64,63,67,61,66,67,64,9,67,63,65,65,61,68,68,65,61,13,65,68,67,65,67,67,67,61,67,65,0,0,0,0,0,0,0,0,0,0,0,0,0,0,0,0,0,0,0,0,0,0,0,0,0,0,0,0,0,0,0,0,0],"split_type":[0,0,0,0,0,0,0,0,0,0,0,0,0,0,0,0,0,0,0,0,0,0,0,0,0,0,0,0,0,0,0,0,0,0,0,0,0,0,0,0,0,0,0,0,0,0,0,0,0,0,0,0,0,0,0,0,0,0,0,0,0,0,0],"sum_hessian":[8.837419E7,2.6447848E7,6.1926348E7,1.5870998E7,1.0576851E7,4.473285E6,5.7453064E7,1.3618528E7,2.25247E6,9.407679E6,1.169172E6,2.402368E6,2.070917E6,1.7045878E7,4.0407184E7,2.521654E6,1.1096874E7,1.688164E6,5.64306E5,8.163003E6,1.244676E6,3.09818E5,8.59354E5,1.951437E6,4.50931E5,2.68821E5,1.802096E6,1.354515E6,1.5691363E7,2.272723E7,1.7679954E7,1.13406E6,1.387594E6,1.0021179E7,1.075695E6,1.221532E6,4.66632E5,2.97502E5,2.66804E5,8.085888E6,7.7115E4,9.37129E5,3.07547E5,2.93114E5,1.6704E4,6.00293E5,2.59061E5,6.44401E5,1.307036E6,4.07656E5,4.3275E4,2.1551E4,2.4727E5,1.556514E6,2.45582E5,8.64611E5,4.89904E5,4.437663E6,1.12537E7,8.823392E6,1.3903838E7,1.233499E6,1.6446455E7],"tree_param":{"num_deleted":"0","num_feature":"69","num_nodes":"63","size_leaf_vector":"0"}},{"base_weights":[2.0324277E-2,-4.976202E-2,2.4277175E-2,-8.1020884E-2,-3.5433535E-2,2.9729668E-2,-2.6438722E-2,2.6789886E-1,-8.304988E-2,-1.2198676E-2,-6.0811806E-2,-9.152046E-3,3.4748364E-2,-4.8016153E-2,3.0846106E-2,1.5259524E-1,4.8507446E-1,-4.594177E-2,-9.434372E-2,9.2018285E-4,-9.594072E-2,-6.411214E-2,7.7142395E-2,-7.462285E-2,7.939848E-3,3.976435E-2,-6.7593637E-3,-6.80437E-2,6.7587397E-3,7.926574E-3,7.5874895E-2,3.5328704E-1,2.9619856E-4,5.0758E-1,-2.949973E-1,-1.9230654E-2,-9.846857E-2,-9.594779E-2,9.93028E-2,-6.932084E-2,1.7624548E-2,-9.8186985E-2,2.8082207E-1,-7.646583E-2,-3.1558678E-2,-2.2015986E-1,1.036998E-1,-2.3632322E-2,-1.2669626E-1,-1.40070375E-2,3.442705E-2,4.135143E-2,-6.762653E-2,-8.572241E-2,2.8639147E-2,-1.499087E-1,-5.311523E-2,2.053922E-2,-1.2576161E-1,2.0009467E-2,-8.279567E-2,-3.2870516E-2,8.629925E-2],"categories":[],"categories_nodes":[],"categories_segments":[],"categories_sizes":[],"default_left":[1,1,1,1,1,1,1,1,1,1,1,1,1,1,1,1,1,1,1,1,1,1,1,1,1,1,1,1,1,1,1,0,0,0,0,0,0,0,0,0,0,0,0,0,0,0,0,0,0,0,0,0,0,0,0,0,0,0,0,0,0,0,0],"id":7,"left_children":[1,3,5,7,9,11,13,15,17,19,21,23,25,27,29,31,33,35,37,39,41,43,45,47,49,51,53,55,57,59,61,-1,-1,-1,-1,-1,-1,-1,-1,-1,-1,-1,-1,-1,-1,-1,-1,-1,-1,-1,-1,-1,-1,-1,-1,-1,-1,-1,-1,-1,-1,-1,-1],"loss_changes":[2.4483547E4,2.1132568E3,2.313323E4,1.0499053E3,1.9077012E3,1.4739586E4,1.0037823E4,2.1462866E2,6.1791016E2,1.8554827E3,7.040298E2,9.662941E3,1.3928711E4,6.471127E3,2.2931191E3,1.7122598E2,5.2343445E1,4.8269202E2,3.5112793E2,1.7133013E3,1.936228E2,6.0732275E2,2.8528217E2,4.7466055E3,3.980562E3,1.0172961E4,2.0161203E4,5.2789707E3,2.884232E3,1.6140901E3,8.496094E2,0E0,0E0,0E0,0E0,0E0,0E0,0E0,0E0,0E0,0E0,0E0,0E0,0E0,0E0,0E0,0E0,0E0,0E0,0E0,0E0,0E0,0E0,0E0,0E0,0E0,0E0,0E0,0E0,0E0,0E0,0E0,0E0],"parents":[2147483647,0,0,1,1,2,2,3,3,4,4,5,5,6,6,7,7,8,8,9,9,10,10,11,11,12,12,13,13,14,14,15,15,16,16,17,17,18,18,19,19,20,20,21,21,22,22,23,23,24,24,25,25,26,26,27,27,28,28,29,29,30,30],"right_children":[2,4,6,8,10,12,14,16,18,20,22,24,26,28,30,32,34,36,38,40,42,44,46,48,50,52,54,56,58,60,62,-1,-1,-1,-1,-1,-1,-1,-1,-1,-1,-1,-1,-1,-1,-1,-1,-1,-1,-1,-1,-1,-1,-1,-1,-1,-1,-1,-1,-1,-1,-1,-1],"split_conditions":[2.75E1,2.35E1,5E-1,1.75E1,2.05E1,-1.1790179E2,2.05E1,4.7817073E0,1.5E0,5E-1,5E-1,3.4193794E1,-7.427072E1,6.65E1,5.95E1,1.65E1,5E-1,2.05E1,5.3667636E0,-1.0340179E2,5E-1,5E-1,5E-1,3.4004597E1,-1.2195275E2,5E-1,-7.379051E1,-9.535088E1,-7.436434E1,-7.4371704E1,-1.1506256E2,1.0598612E-1,8.885957E-5,1.52274E-1,-8.8499196E-2,-5.7691964E-3,-2.9540572E-2,-2.8784337E-2,2.9790841E-2,-2.0796254E-2,5.2873646E-3,-2.9456096E-2,8.424662E-2,-2.2939749E-2,-9.467604E-3,-6.604796E-2,3.1109942E-2,-7.089697E-3,-3.800888E-2,-4.2021116E-3,1.0328116E-2,1.240543E-2,-2.0287959E-2,-2.5716724E-2,8.591744E-3,-4.4972613E-2,-1.593457E-2,6.1617666E-3,-3.7728485E-2,6.0028406E-3,-2.4838703E-2,-9.861155E-3,2.5889775E-2],"split_indices":[61,61,63,61,64,67,64,65,66,63,19,68,67,61,61,61,7,64,65,67,57,56,0,68,67,59,67,67,67,67,67,0,0,0,0,0,0,0,0,0,0,0,0,0,0,0,0,0,0,0,0,0,0,0,0,0,0,0,0,0,0,0,0],"split_type":[0,0,0,0,0,0,0,0,0,0,0,0,0,0,0,0,0,0,0,0,0,0,0,0,0,0,0,0,0,0,0,0,0,0,0,0,0,0,0,0,0,0,0,0,0,0,0,0,0,0,0,0,0,0,0,0,0,0,0,0,0,0,0],"sum_hessian":[8.837419E7,4.718233E6,8.365596E7,1.482979E6,3.235254E6,7.553514E7,8.120823E6,8.573E3,1.474406E6,1.688951E6,1.546303E6,8.635181E6,6.689996E7,5.898892E6,2.221931E6,5.601E3,2.972E3,3.44031E5,1.130375E6,1.4602E6,2.28751E5,1.510175E6,3.6128E4,1.78763E6,6.847551E6,5.96871E7,7.212859E6,4.319527E6,1.579365E6,1.472456E6,7.49475E5,2.416E3,3.185E3,2.889E3,8.3E1,2.28059E5,1.15972E5,1.121089E6,9.286E3,2.8054E5,1.17966E6,2.27396E5,1.355E3,1.094734E6,4.15441E5,2.962E3,3.3166E4,9.03207E5,8.84423E5,3.744728E6,3.102823E6,5.8817856E7,8.69243E5,2.232607E6,4.980252E6,6.662E5,3.653327E6,1.430601E6,1.48764E5,1.299396E6,1.7306E5,6.556E4,6.83915E5],"tree_param":{"num_deleted":"0","num_feature":"69","num_nodes":"63","size_leaf_vector":"0"}},{"base_weights":[1.4226976E-2,6.3901246E-3,4.1890323E-2,-1.181884E-2,2.5016943E-2,3.5393793E-2,5.8916904E-2,-2.4754317E-2,1.7267331E-2,2.6581442E-2,-8.7776005E-2,4.0152796E-2,-2.8039942E-2,6.004637E-2,-5.0449744E-2,-2.057369E-2,-1.4298558E-1,-3.6091592E-2,2.9164279E-2,3.3225954E-2,-1.0256475E-4,-6.226262E-2,-1.4400713E-1,-2.9453728E-2,4.4251326E-2,-1.3574806E-1,4.5365155E-2,6.383864E-2,2.9293315E-2,-1.3180234E-1,-5.302451E-3,-5.7448354E-2,-4.4110883E-3,-1.9483936E-1,4.664723E-2,-4.900864E-2,3.7431803E-2,3.5352852E-2,-6.616896E-2,3.7176374E-2,-1.5091294E-2,-1.7064549E-2,2.8821724E-2,-1.6639529E-1,-4.689216E-2,-1.0968377E-1,-2.5510588E-1,-1.290632E-1,2.3978685E-3,3.2646496E-2,5.187703E-2,3.4696113E-2,-1.7044036E-1,1.2226032E-2,7.908226E-2,1.0242994E-1,6.0323026E-2,-1.6316805E-3,7.031486E-2,-6.0229152E-2,-3.049295E-1,9.844837E-3,-1.74402E-1],"categories":[],"categories_nodes":[],"categories_segments":[],"categories_sizes":[],"default_left":[1,1,1,1,1,1,1,1,1,1,1,1,1,1,1,1,1,1,1,1,1,1,1,1,1,1,1,1,1,1,1,0,0,0,0,0,0,0,0,0,0,0,0,0,0,0,0,0,0,0,0,0,0,0,0,0,0,0,0,0,0,0,0],"id":8,"left_children":[1,3,5,7,9,11,13,15,17,19,21,23,25,27,29,31,33,35,37,39,41,43,45,47,49,51,53,55,57,59,61,-1,-1,-1,-1,-1,-1,-1,-1,-1,-1,-1,-1,-1,-1,-1,-1,-1,-1,-1,-1,-1,-1,-1,-1,-1,-1,-1,-1,-1,-1,-1,-1],"loss_changes":[1.9158957E4,2.3357342E4,2.1579648E3,1.310199E4,6.007201E3,4.2629004E3,6.655547E2,1.1913942E4,6.8048765E3,5.9531445E3,6.68136E2,3.7473984E3,7.7915156E3,6.219375E2,2.022815E2,1.3874898E4,8.0945723E3,1.856021E3,5.171305E3,5.131127E3,3.2841191E3,5.1275964E2,5.542556E2,2.3174734E3,1.0977969E3,2.3617808E3,6.548419E2,6.440879E2,7.426651E2,2.4354428E2,9.07265E1,0E0,0E0,0E0,0E0,0E0,0E0,0E0,0E0,0E0,0E0,0E0,0E0,0E0,0E0,0E0,0E0,0E0,0E0,0E0,0E0,0E0,0E0,0E0,0E0,0E0,0E0,0E0,0E0,0E0,0E0,0E0,0E0],"parents":[2147483647,0,0,1,1,2,2,3,3,4,4,5,5,6,6,7,7,8,8,9,9,10,10,11,11,12,12,13,13,14,14,15,15,16,16,17,17,18,18,19,19,20,20,21,21,22,22,23,23,24,24,25,25,26,26,27,27,28,28,29,29,30,30],"right_children":[2,4,6,8,10,12,14,16,18,20,22,24,26,28,30,32,34,36,38,40,42,44,46,48,50,52,54,56,58,60,62,-1,-1,-1,-1,-1,-1,-1,-1,-1,-1,-1,-1,-1,-1,-1,-1,-1,-1,-1,-1,-1,-1,-1,-1,-1,-1,-1,-1,-1,-1,-1,-1],"split_conditions":[5.0965796E0,5.85E1,4.1116936E1,4.093123E1,5E-1,-7.4064415E1,8.45E1,-7.41192E1,4.5166674E0,5E-1,5E-1,-1.2195275E2,-7.389078E1,-7.1422E1,1.5E0,-9.527051E1,-7.378754E1,5E-1,5E-1,8.65E1,1.95E1,4.15488E0,4.0628723E1,3.85E1,3.4182125E1,4.0649223E1,-7.359937E1,3.35E1,-7.102901E1,9.25E1,5E-1,-1.7234506E-2,-1.3233265E-3,-5.845181E-2,1.3994169E-2,-1.4702593E-2,1.1229541E-2,1.0605856E-2,-1.9850688E-2,1.1152913E-2,-4.5273886E-3,-5.1193647E-3,8.646517E-3,-4.991859E-2,-1.4067648E-2,-3.290513E-2,-7.653177E-2,-3.871896E-2,7.193606E-4,9.793949E-3,1.5563109E-2,1.0408835E-2,-5.113211E-2,3.6678098E-3,2.3724679E-2,3.0728983E-2,1.8096909E-2,-4.895042E-4,2.109446E-2,-1.8068746E-2,-9.1478854E-2,2.9534511E-3,-5.2320603E-2],"split_indices":[65,61,68,68,59,67,61,67,65,58,63,67,67,67,66,67,67,27,26,61,64,65,68,61,68,68,67,61,67,61,11,0,0,0,0,0,0,0,0,0,0,0,0,0,0,0,0,0,0,0,0,0,0,0,0,0,0,0,0,0,0,0,0],"split_type":[0,0,0,0,0,0,0,0,0,0,0,0,0,0,0,0,0,0,0,0,0,0,0,0,0,0,0,0,0,0,0,0,0,0,0,0,0,0,0,0,0,0,0,0,0,0,0,0,0,0,0,0,0,0,0,0,0,0,0,0,0,0,0],"sum_hessian":[8.837419E7,6.886514E7,1.9509056E7,3.482316E7,3.4041976E7,1.4121117E7,5.38794E6,2.4103588E7,1.0719575E7,3.3576256E7,4.6572E5,1.313564E7,9.85477E5,5.332866E6,5.5074E4,2.32804E7,8.23188E5,1.95431E6,8.765265E6,2.6882354E7,6.693903E6,3.20365E5,1.45355E5,7.30436E5,1.2405204E7,3.99413E5,5.86064E5,4.747442E6,5.85424E5,1.9655E4,3.5419E4,7.094479E6,1.618592E7,6.46427E5,1.76761E5,1.662272E6,2.92038E5,8.230952E6,5.34313E5,2.4850572E7,2.031783E6,4.219484E6,2.474419E6,4.1204E4,2.79161E5,1.11049E5,3.4306E4,1.76976E5,5.5346E5,4.919178E6,7.486026E6,6.7548E4,3.31865E5,2.95566E5,2.90498E5,3.96373E5,4.351069E6,3.3379E5,2.51634E5,1.3907E4,5.748E3,3.2508E4,2.911E3],"tree_param":{"num_deleted":"0","num_feature":"69","num_nodes":"63","size_leaf_vector":"0"}},{"base_weights":[9.958876E-3,-3.295194E-3,2.077078E-2,-1.8742723E-2,1.8741883E-2,2.2552587E-2,-4.5531888E-2,-3.0428229E-2,3.0035193E-3,-7.13549E-2,2.1025278E-2,1.623885E-2,3.6559284E-2,-1.4970052E-1,-2.8263535E-2,-6.1306518E-2,-1.9989781E-2,8.517073E-3,-1.1269349E-1,-4.4783764E-2,-2.562581E-1,2.6607102E-2,-1.3549943E-2,1.9149408E-2,-4.688707E-2,2.215144E-3,4.0507752E-2,-1.6833192E-1,5.4369524E-2,-4.4379972E-2,5.6887127E-2,-1.4945948E-1,-5.6448743E-2,-7.1903005E-2,-1.439821E-2,-4.529274E-2,1.5124459E-2,-3.650148E-2,-1.3672099E-1,-6.620961E-2,6.8793856E-2,-2.932971E-1,1.1806533E-1,-2.956628E-3,3.1324968E-2,-5.8980035E-3,-9.34277E-2,-4.7587056E-2,2.0864356E-2,-1.2283906E-1,3.696089E-2,-2.846028E-2,1.9862926E-2,4.489043E-2,1.158089E-3,-9.898903E-2,-2.183611E-1,1.12976454E-1,-1.7026411E-1,8.117742E-3,-6.709003E-2,7.158194E-2,-7.985441E-2],"categories":[],"categories_nodes":[],"categories_segments":[],"categories_sizes":[],"default_left":[1,1,1,1,1,1,1,1,1,1,1,1,1,1,1,1,1,1,1,1,1,1,1,1,1,1,1,1,1,1,1,0,0,0,0,0,0,0,0,0,0,0,0,0,0,0,0,0,0,0,0,0,0,0,0,0,0,0,0,0,0,0,0],"id":9,"left_children":[1,3,5,7,9,11,13,15,17,19,21,23,25,27,29,31,33,35,37,39,41,43,45,47,49,51,53,55,57,59,61,-1,-1,-1,-1,-1,-1,-1,-1,-1,-1,-1,-1,-1,-1,-1,-1,-1,-1,-1,-1,-1,-1,-1,-1,-1,-1,-1,-1,-1,-1,-1,-1],"loss_changes":[1.2664177E4,1.3515661E4,5.7499336E3,5.9313975E3,3.3660513E3,4.1915684E3,2.2912417E3,4.8937236E3,5.2043623E3,1.9869397E3,3.0796538E3,6.002623E3,1.9970488E3,6.886741E2,1.4994366E3,1.6426025E3,3.2937407E3,2.7687693E3,6.793911E2,8.6050586E2,7.045493E2,1.9163252E3,1.3557278E3,3.574333E3,9.170255E3,8.2205835E2,2.2778535E3,5.7577E2,1.9952298E2,1.0953403E3,3.4941656E2,0E0,0E0,0E0,0E0,0E0,0E0,0E0,0E0,0E0,0E0,0E0,0E0,0E0,0E0,0E0,0E0,0E0,0E0,0E0,0E0,0E0,0E0,0E0,0E0,0E0,0E0,0E0,0E0,0E0,0E0,0E0,0E0],"parents":[2147483647,0,0,1,1,2,2,3,3,4,4,5,5,6,6,7,7,8,8,9,9,10,10,11,11,12,12,13,13,14,14,15,15,16,16,17,17,18,18,19,19,20,20,21,21,22,22,23,23,24,24,25,25,26,26,27,27,28,28,29,29,30,30],"right_children":[2,4,6,8,10,12,14,16,18,20,22,24,26,28,30,32,34,36,38,40,42,44,46,48,50,52,54,56,58,60,62,-1,-1,-1,-1,-1,-1,-1,-1,-1,-1,-1,-1,-1,-1,-1,-1,-1,-1,-1,-1,-1,-1,-1,-1,-1,-1,-1,-1,-1,-1,-1,-1],"split_conditions":[4.785365E0,6.55E1,5E-1,1.95E1,4.0536547E0,4.093123E1,1.5E0,4.361822E0,5E-1,5E-1,-7.656383E1,-7.407805E1,-1.2200569E2,6.25E1,5.342521E0,4.0400085E0,-1.1515086E2,2.65E1,-1.1164615E2,1.5E0,-1.1715548E2,-1.1496478E2,5E-1,-1.2220332E2,-7.3846664E1,4.55E1,-7.145691E1,3.45E1,4.196852E1,2.05E1,5E-1,-4.4837847E-2,-1.6934624E-2,-2.1570902E-2,-4.319463E-3,-1.3587822E-2,4.537338E-3,-1.0950444E-2,-4.1016296E-2,-1.9862883E-2,2.0638157E-2,-8.798914E-2,3.54196E-2,-8.869885E-4,9.397491E-3,-1.7694011E-3,-2.8028311E-2,-1.4276117E-2,6.2593073E-3,-3.685172E-2,1.1088267E-2,-8.538084E-3,5.958878E-3,1.3467129E-2,3.474267E-4,-2.969671E-2,-6.550833E-2,3.3892937E-2,-5.1079236E-2,2.4353226E-3,-2.012701E-2,2.1474581E-2,-2.3956323E-2],"split_indices":[65,61,4,64,65,68,66,65,4,9,67,67,67,61,65,65,67,61,67,66,67,67,63,67,67,61,67,61,68,64,37,0,0,0,0,0,0,0,0,0,0,0,0,0,0,0,0,0,0,0,0,0,0,0,0,0,0,0,0,0,0,0,0],"split_type":[0,0,0,0,0,0,0,0,0,0,0,0,0,0,0,0,0,0,0,0,0,0,0,0,0,0,0,0,0,0,0,0,0,0,0,0,0,0,0,0,0,0,0,0,0,0,0,0,0,0,0,0,0,0,0,0,0,0,0,0,0,0,0],"sum_hessian":[8.837419E7,3.9703084E7,4.867111E7,2.3341312E7,1.636177E7,4.7397364E7,1.273748E6,1.5182749E7,8.158564E6,4.04419E5,1.5957351E7,3.2670588E7,1.4726777E7,1.81126E5,1.092622E6,3.835837E6,1.1346912E7,7.787453E6,3.71111E5,3.53606E5,5.0813E4,1.3739282E7,2.218069E6,3.1230632E7,1.439956E6,1.518523E6,1.3208254E7,1.65973E5,1.5153E4,9.18734E5,1.73888E5,2.00337E5,3.6355E6,1.103334E6,1.0243578E7,8.51656E5,6.935797E6,8.8974E4,2.82137E5,2.97487E5,5.6119E4,4.6238E4,4.575E3,1.890814E6,1.1848468E7,2.024164E6,1.93905E5,7.82436E5,3.0448196E7,7.55553E5,6.84403E5,5.54569E5,9.63954E5,1.1884577E7,1.323677E6,6.9561E4,9.6412E4,1.2018E4,3.135E3,2.77425E5,6.41309E5,1.57015E5,1.6873E4],"tree_param":{"num_deleted":"0","num_feature":"69","num_nodes":"63","size_leaf_vector":"0"}},{"base_weights":[6.9712033E-3,-2.1074656E-3,1.6656747E-2,-1.1200502E-2,1.752187E-2,1.890582E-2,-4.8760846E-2,-5.7524093E-3,-4.704474E-2,4.3484084E-3,2.7433947E-2,1.04325265E-2,3.3885337E-2,-7.787063E-2,-7.846883E-3,-1.10431835E-2,2.6617957E-2,-2.6694799E-2,-8.451815E-2,2.4967078E-2,-1.2685343E-2,1.2624619E-2,3.190182E-2,-1.711149E-2,2.0008592E-2,1.6776536E-2,3.9610334E-2,-1.0555823E-1,-3.2878444E-2,-1.2589113E-1,6.1909663E-3,-6.19415E-2,-7.2576194E-3,-3.4359325E-2,4.1506078E-2,-9.6487485E-2,-8.038863E-3,-9.321547E-2,1.8995492E-2,-1.09465495E-2,4.412822E-2,-5.6428865E-2,-4.218494E-3,-1.6406292E-2,2.0198593E-2,5.005594E-2,2.5491102E-2,-1.1315667E-2,-8.775112E-2,2.382741E-2,-4.954432E-2,-7.412881E-4,4.2727236E-2,-5.1269297E-2,4.0591788E-2,-2.5453523E-3,-1.1524748E-1,-1.2005578E-3,-9.5190115E-2,-2.8456498E-2,-1.6722734E-1,-5.016851E-3,9.4519675E-2],"categories":[],"categories_nodes":[],"categories_segments":[],"categories_sizes":[],"default_left":[1,1,1,1,1,1,1,1,1,1,1,1,1,1,1,1,1,1,1,1,1,1,1,1,1,1,1,1,1,1,1,0,0,0,0,0,0,0,0,0,0,0,0,0,0,0,0,0,0,0,0,0,0,0,0,0,0,0,0,0,0,0,0],"id":10,"left_children":[1,3,5,7,9,11,13,15,17,19,21,23,25,27,29,31,33,35,37,39,41,43,45,47,49,51,53,55,57,59,61,-1,-1,-1,-1,-1,-1,-1,-1,-1,-1,-1,-1,-1,-1,-1,-1,-1,-1,-1,-1,-1,-1,-1,-1,-1,-1,-1,-1,-1,-1,-1,-1],"loss_changes":[7.7709067E3,8.142048E3,6.2909365E3,6.0879097E3,1.8856987E3,5.246713E3,1.6926077E3,4.634697E3,3.1366455E3,2.1777278E3,5.4525977E2,6.9639307E3,1.4628145E3,1.0344111E3,9.7900806E2,4.481698E3,3.4513445E3,3.470776E3,1.3032363E3,1.9303267E3,1.2575808E3,4.1996176E2,7.367842E2,2.78857E3,5.2035874E3,1.7022408E3,9.980957E2,5.130698E2,6.244122E2,2.5289093E2,5.2271564E2,0E0,0E0,0E0,0E0,0E0,0E0,0E0,0E0,0E0,0E0,0E0,0E0,0E0,0E0,0E0,0E0,0E0,0E0,0E0,0E0,0E0,0E0,0E0,0E0,0E0,0E0,0E0,0E0,0E0,0E0,0E0,0E0],"parents":[2147483647,0,0,1,1,2,2,3,3,4,4,5,5,6,6,7,7,8,8,9,9,10,10,11,11,12,12,13,13,14,14,15,15,16,16,17,17,18,18,19,19,20,20,21,21,22,22,23,23,24,24,25,25,26,26,27,27,28,28,29,29,30,30],"right_children":[2,4,6,8,10,12,14,16,18,20,22,24,26,28,30,32,34,36,38,40,42,44,46,48,50,52,54,56,58,60,62,-1,-1,-1,-1,-1,-1,-1,-1,-1,-1,-1,-1,-1,-1,-1,-1,-1,-1,-1,-1,-1,-1,-1,-1,-1,-1,-1,-1,-1,-1,-1,-1],"split_conditions":[1.95E1,6.75E1,5E-1,5E-1,1.5E0,2.5E0,5.057172E0,4.31715E1,3.8803795E1,3.8381474E1,7.05E1,4.55E1,3.422222E1,5E-1,1.5E0,-1.1777382E2,-1.2200569E2,-9.535088E1,5.1056805E0,-9.479915E1,1.55E1,5E-1,5E-1,2.25E1,8.35E1,5.140272E0,2.45E1,2.9623945E1,-8.025311E1,3.45E1,5.477483E0,-1.858245E-2,-2.177286E-3,-1.0307798E-2,1.2451824E-2,-2.8946247E-2,-2.4116589E-3,-2.7964642E-2,5.698648E-3,-3.283965E-3,1.3238466E-2,-1.692866E-2,-1.2655483E-3,-4.921888E-3,6.059578E-3,1.5016782E-2,7.647331E-3,-3.3947004E-3,-2.6325338E-2,7.148223E-3,-1.4863296E-2,-2.2238644E-4,1.2818172E-2,-1.53807895E-2,1.2177537E-2,-7.6360576E-4,-3.4574244E-2,-3.6016735E-4,-2.8557036E-2,-8.53695E-3,-5.0168205E-2,-1.5050553E-3,2.8355904E-2],"split_indices":[64,61,4,63,66,66,65,68,68,68,61,61,68,62,66,67,67,67,65,67,64,56,56,64,61,65,61,68,67,61,65,0,0,0,0,0,0,0,0,0,0,0,0,0,0,0,0,0,0,0,0,0,0,0,0,0,0,0,0,0,0,0,0],"split_type":[0,0,0,0,0,0,0,0,0,0,0,0,0,0,0,0,0,0,0,0,0,0,0,0,0,0,0,0,0,0,0,0,0,0,0,0,0,0,0,0,0,0,0,0,0,0,0,0,0,0,0,0,0,0,0,0,0,0,0,0,0,0,0],"sum_hessian":[8.837419E7,4.5616204E7,4.275799E7,3.1174856E7,1.4441349E7,4.1336824E7,1.421169E6,2.706166E7,4.113196E6,6.200583E6,8.240766E6,2.6402196E7,1.4934628E7,8.3037E5,5.90799E5,2.325994E7,3.80172E6,2.665628E6,1.447568E6,2.80511E6,3.395473E6,1.909962E6,6.330804E6,6.811115E6,1.959108E7,3.744481E6,1.1190147E7,5.14037E5,3.16333E5,6.279E4,5.28009E5,1.610199E6,2.164974E7,7.46064E5,3.055656E6,5.62244E5,2.103384E6,1.335369E6,1.12199E5,9.7593E5,1.82918E6,5.50636E5,2.844837E6,3.95193E5,1.514769E6,1.652157E6,4.678647E6,6.294654E6,5.16461E5,1.8571412E7,1.019667E6,2.235455E6,1.509026E6,1.19556E5,1.1070591E7,4.4193E4,4.69844E5,2.09718E5,1.06615E5,1.8704E4,4.4086E4,4.68556E5,5.9453E4],"tree_param":{"num_deleted":"0","num_feature":"69","num_nodes":"63","size_leaf_vector":"0"}},{"base_weights":[4.8798476E-3,-3.3097867E-2,6.820755E-3,-5.0756216E-2,8.772273E-3,7.831274E-3,-5.1537212E-2,-2.7866295E-2,-8.011436E-2,4.573635E-2,-8.9911866E-4,-3.2739762E-2,9.243617E-3,-5.5135787E-2,6.946955E-2,-1.872435E-2,-8.4656805E-2,-1.2388888E-1,-6.772209E-2,6.743356E-2,2.3948113E-3,-3.07221E-2,1.9798318E-2,-3.0000394E-2,-1.2290954E-1,-2.6133193E-3,1.41644E-2,-9.284877E-2,-4.7626838E-2,1.2105752E-1,-7.486748E-2,-2.1118185E-2,9.120619E-2,-1.4109552E-1,-5.4685738E-2,-7.421952E-2,-1.5232961E-1,-1.1238805E-1,-5.187765E-2,-6.9011474E-1,6.901909E-2,-6.787568E-1,6.7557585E-3,-8.008557E-2,-6.082003E-3,2.1865135E-2,-1.1282093E-1,-3.9593913E-3,-3.9032765E-2,-8.746915E-2,-2.2461875E-1,-1.5650786E-2,1.5105384E-2,2.1343224E-2,-3.6442643E-3,-1.3025887E-1,-5.899806E-2,-3.9792348E-2,-1.03868596E-1,3.2642654E-1,9.1962054E-2,-4.9925548E-1,-6.865127E-3],"categories":[],"categories_nodes":[],"categories_segments":[],"categories_sizes":[],"default_left":[1,1,1,1,1,1,1,1,1,1,1,1,1,1,1,1,1,1,1,1,1,1,1,1,1,1,1,1,1,1,1,0,0,0,0,0,0,0,0,0,0,0,0,0,0,0,0,0,0,0,0,0,0,0,0,0,0,0,0,0,0,0,0],"id":11,"left_children":[1,3,5,7,9,11,13,15,17,19,21,23,25,27,29,31,33,35,37,39,41,43,45,47,49,51,53,55,57,59,61,-1,-1,-1,-1,-1,-1,-1,-1,-1,-1,-1,-1,-1,-1,-1,-1,-1,-1,-1,-1,-1,-1,-1,-1,-1,-1,-1,-1,-1,-1,-1,-1],"loss_changes":[6.514171E3,3.1769429E3,4.9581885E3,2.0309849E3,4.5566876E2,4.735648E3,6.2317456E2,8.816714E2,7.1825E2,2.4857697E2,6.23609E2,6.8674414E2,4.659812E3,3.935547E2,3.077545E2,3.8493243E2,3.982931E2,4.126621E2,7.302993E2,2.1162494E2,2.6195218E2,5.0343344E2,1.634723E2,6.3467017E2,2.9546484E2,5.411133E3,7.215823E3,2.9222217E2,5.1067993E2,1.819061E2,3.1407324E2,0E0,0E0,0E0,0E0,0E0,0E0,0E0,0E0,0E0,0E0,0E0,0E0,0E0,0E0,0E0,0E0,0E0,0E0,0E0,0E0,0E0,0E0,0E0,0E0,0E0,0E0,0E0,0E0,0E0,0E0,0E0,0E0],"parents":[2147483647,0,0,1,1,2,2,3,3,4,4,5,5,6,6,7,7,8,8,9,9,10,10,11,11,12,12,13,13,14,14,15,15,16,16,17,17,18,18,19,19,20,20,21,21,22,22,23,23,24,24,25,25,26,26,27,27,28,28,29,29,30,30],"right_children":[2,4,6,8,10,12,14,16,18,20,22,24,26,28,30,32,34,36,38,40,42,44,46,48,50,52,54,56,58,60,62,-1,-1,-1,-1,-1,-1,-1,-1,-1,-1,-1,-1,-1,-1,-1,-1,-1,-1,-1,-1,-1,-1,-1,-1,-1,-1,-1,-1,-1,-1,-1,-1],"split_conditions":[1.45E1,7.55E1,5E-1,5E-1,3.3734283E1,2.55E1,5E-1,5E-1,4.236537E0,4.543074E0,4.3411374E0,5E-1,-9.526498E1,-1.11738525E2,4.773456E0,7.5E0,1.5E0,3.5042343E1,4.55E1,-1.5794882E2,4.5446873E0,5E-1,5.5E0,1.5E0,3.8582336E1,3.7812645E1,-7.764217E1,5.25E1,-7.4427E1,4.1789675E0,3.65E1,-6.3354555E-3,2.7361859E-2,-4.2328656E-2,-1.6405722E-2,-2.2265855E-2,-4.5698885E-2,-3.3716418E-2,-1.5563296E-2,-2.0703442E-1,2.0705726E-2,-2.0362704E-1,2.0267277E-3,-2.4025671E-2,-1.824601E-3,6.559541E-3,-3.384628E-2,-1.1878174E-3,-1.170983E-2,-2.6240747E-2,-6.738563E-2,-4.695236E-3,4.5316154E-3,6.4029675E-3,-1.0932793E-3,-3.9077662E-2,-1.7699419E-2,-1.1937705E-2,-3.116058E-2,9.7927965E-2,2.7588617E-2,-1.4977665E-1,-2.0595382E-3],"split_indices":[64,61,59,62,68,61,45,63,65,65,65,51,67,67,65,66,66,68,61,67,65,57,66,66,68,68,67,61,67,65,61,0,0,0,0,0,0,0,0,0,0,0,0,0,0,0,0,0,0,0,0,0,0,0,0,0,0,0,0,0,0,0,0],"split_type":[0,0,0,0,0,0,0,0,0,0,0,0,0,0,0,0,0,0,0,0,0,0,0,0,0,0,0,0,0,0,0,0,0,0,0,0,0,0,0,0,0,0,0,0,0,0,0,0,0,0,0,0,0,0,0,0,0,0,0,0,0,0,0],"sum_hessian":[8.837419E7,4.296895E6,8.4077304E7,3.022277E6,1.274618E6,8.264621E7,1.431089E6,1.698216E6,1.324061E6,2.64333E5,1.010285E6,2.780262E6,7.986595E7,1.38976E6,4.1329E4,1.462749E6,2.35467E5,2.9213E5,1.031931E6,1.7615E5,8.8183E4,4.13898E5,5.96387E5,2.698289E6,8.1973E4,2.3424104E7,5.6441844E7,2.30763E5,1.158997E6,3.0447E4,1.0882E4,1.431576E6,3.1173E4,8.167E4,1.53797E5,1.06369E5,1.85761E5,2.70206E5,7.61725E5,3.67E2,1.75783E5,5.6E2,8.7623E4,1.3781E5,2.76088E5,5.87236E5,9.151E3,6.94885E5,2.003404E6,6.0792E4,2.1181E4,1.3494683E7,9.929422E6,4.022629E7,1.6215558E7,1.09617E5,1.21146E5,1.01729E6,1.41707E5,3.777E3,2.667E4,1.502E3,9.38E3],"tree_param":{"num_deleted":"0","num_feature":"69","num_nodes":"63","size_leaf_vector":"0"}},{"base_weights":[3.4158803E-3,-1.7503655E-2,6.1874227E-3,1.3921676E-2,-2.6771897E-2,3.1313458E-3,2.1714203E-2,-3.2529965E-2,3.1644996E-2,-3.6282748E-2,-1.087062E-3,-2.6537895E-3,1.5266121E-2,-8.278587E-3,2.4028854E-2,-3.530002E-2,1.1565982E-1,-1.0843726E-2,5.0509993E-2,-4.0011443E-2,3.1676415E-2,5.436834E-3,-6.219712E-2,-3.8303193E-2,9.627034E-4,1.7111296E-2,-4.550969E-2,4.488017E-3,-1.5482801E-1,4.178591E-2,2.1407157E-2,-6.1577987E-2,-1.8210474E-2,2.839925E-1,2.5808439E-3,2.879027E-3,-1.0037779E-1,3.8329244E-2,6.8213254E-2,-8.8183776E-2,-3.5346705E-2,6.53686E-2,2.1040745E-3,1.0789418E-2,-5.3540893E-2,-4.4675194E-2,-2.1876132E-1,-1.3874696E-1,-1.978402E-2,-2.4383118E-2,6.5317648E-3,1.9266061E-2,7.1724755E-4,-8.849298E-2,1.0350536E-2,9.215397E-3,-1.3688357E-1,-2.0489153E-1,-1.7640991E-2,-2.0270813E-2,5.1480263E-2,1.5434852E-2,3.148933E-2],"categories":[],"categories_nodes":[],"categories_segments":[],"categories_sizes":[],"default_left":[1,1,1,1,1,1,1,1,1,1,1,1,1,1,1,1,1,1,1,1,1,1,1,1,1,1,1,1,1,1,1,0,0,0,0,0,0,0,0,0,0,0,0,0,0,0,0,0,0,0,0,0,0,0,0,0,0,0,0,0,0,0,0],"id":12,"left_children":[1,3,5,7,9,11,13,15,17,19,21,23,25,27,29,31,33,35,37,39,41,43,45,47,49,51,53,55,57,59,61,-1,-1,-1,-1,-1,-1,-1,-1,-1,-1,-1,-1,-1,-1,-1,-1,-1,-1,-1,-1,-1,-1,-1,-1,-1,-1,-1,-1,-1,-1,-1,-1],"loss_changes":[5.123881E3,3.0111997E3,3.7028691E3,1.9385647E3,1.9503491E3,4.5772734E3,8.90937E2,2.669485E2,1.3661553E3,1.476417E3,8.601342E2,5.692427E3,2.360519E3,1.720233E3,5.5463965E2,2.866762E2,2.2714256E2,6.43896E2,2.5452197E2,1.241166E3,3.0194675E2,6.1538434E2,5.708942E2,7.5643926E3,5.658257E3,7.216665E2,1.4892225E3,5.6524457E2,5.0602856E2,9.220857E2,6.2509814E2,0E0,0E0,0E0,0E0,0E0,0E0,0E0,0E0,0E0,0E0,0E0,0E0,0E0,0E0,0E0,0E0,0E0,0E0,0E0,0E0,0E0,0E0,0E0,0E0,0E0,0E0,0E0,0E0,0E0,0E0,0E0,0E0],"parents":[2147483647,0,0,1,1,2,2,3,3,4,4,5,5,6,6,7,7,8,8,9,9,10,10,11,11,12,12,13,13,14,14,15,15,16,16,17,17,18,18,19,19,20,20,21,21,22,22,23,23,24,24,25,25,26,26,27,27,28,28,29,29,30,30],"right_children":[2,4,6,8,10,12,14,16,18,20,22,24,26,28,30,32,34,36,38,40,42,44,46,48,50,52,54,56,58,60,62,-1,-1,-1,-1,-1,-1,-1,-1,-1,-1,-1,-1,-1,-1,-1,-1,-1,-1,-1,-1,-1,-1,-1,-1,-1,-1,-1,-1,-1,-1,-1,-1],"split_conditions":[4.3663297E0,3.369297E1,5.187069E0,5.25E1,5E-1,6.45E1,1.5E0,3.3647697E1,-9.532884E1,5E-1,5E-1,-1.18112335E2,9.05E1,5E-1,5E-1,-9.323643E1,1.65E1,5E-1,1.75E1,5E-1,5E-1,9.35E1,-7.443475E1,3.4182125E1,3.3073776E1,8.25E1,1.5E0,5E-1,6.65E1,2.95E1,3.5E0,-1.8473396E-2,-5.4631424E-3,8.5197754E-2,7.742532E-4,8.6370815E-4,-3.0113338E-2,1.14987735E-2,2.0463977E-2,-2.6455134E-2,-1.0604012E-2,1.961058E-2,6.312224E-4,3.2368253E-3,-1.6062269E-2,-1.3402559E-2,-6.56284E-2,-4.162409E-2,-5.9352065E-3,-7.314936E-3,1.9595295E-3,5.7798186E-3,2.1517427E-4,-2.6547896E-2,3.1051608E-3,2.7646192E-3,-4.1065075E-2,-6.146746E-2,-5.2922973E-3,-6.0812444E-3,1.5444079E-2,4.6304557E-3,9.4468E-3],"split_indices":[65,68,65,61,57,61,66,68,67,27,63,67,61,56,56,67,64,63,64,0,62,61,67,68,68,61,66,59,61,61,66,0,0,0,0,0,0,0,0,0,0,0,0,0,0,0,0,0,0,0,0,0,0,0,0,0,0,0,0,0,0,0,0],"split_type":[0,0,0,0,0,0,0,0,0,0,0,0,0,0,0,0,0,0,0,0,0,0,0,0,0,0,0,0,0,0,0,0,0,0,0,0,0,0,0,0,0,0,0,0,0,0,0,0,0,0,0,0,0,0,0,0,0,0,0,0,0,0,0],"sum_hessian":[8.837419E7,1.033861E7,7.803558E7,2.35469E6,7.98392E6,6.5202108E7,1.2833479E7,6.50299E5,1.704391E6,5.826443E6,2.157477E6,4.415273E7,2.104938E7,9.19448E5,1.1914031E7,6.38367E5,1.1932E4,5.24065E5,1.180326E6,5.523393E6,3.0305E5,1.94937E6,2.08107E5,4.066582E6,4.0086144E7,2.0429144E7,6.20235E5,8.4577E5,7.3678E4,1.53272E6,1.0381311E7,2.51556E5,3.86811E5,4.794E3,7.138E3,4.54418E5,6.9647E4,6.99226E5,4.811E5,4.87633E5,5.03576E6,1.41657E5,1.61393E5,1.787174E6,1.62196E5,1.87162E5,2.0945E4,6.33051E5,3.433531E6,7.221188E6,3.2864956E7,1.8055946E7,2.373199E6,3.50518E5,2.69717E5,8.18404E5,2.7366E4,5.3979E4,1.9699E4,2.07087E5,1.325633E6,6.519439E6,3.861872E6],"tree_param":{"num_deleted":"0","num_feature":"69","num_nodes":"63","size_leaf_vector":"0"}},{"base_weights":[2.3911244E-3,4.371202E-3,-1.9203035E-2,4.716751E-3,-1.1470568E-1,-1.0993298E-1,-1.3282379E-3,3.4347363E-3,3.5619717E-2,-1.809262E-1,-6.804186E-2,-1.2826094E-1,9.551046E-3,-7.452102E-3,4.6041254E-2,-2.742277E-3,1.0219099E-2,1.6366497E-2,5.35743E-2,-2.3952414E-1,-3.8445253E-2,-1.7065944E-1,-3.8557936E-2,-1.5763602E-1,-3.424108E-2,-5.0238814E-2,6.0142253E-2,6.1910064E-3,-3.7493307E-2,3.0987183E-2,7.3276915E-2,-1.6787559E-2,3.7329164E-3,3.1446752E-3,1.7730057E-2,9.217577E-3,4.6267416E-2,9.400047E-2,4.401892E-2,-2.6981714E-1,-1.3672443E-1,-3.2678306E-1,-6.8961675E-3,6.511824E-2,-2.0955962E-1,-1.2700741E-1,2.7654106E-2,-1.177873E-1,-1.9595748E-1,-1.12437546E-1,1.2570826E-2,-1.1403919E-1,4.4727914E-2,-5.155853E-1,6.261837E-2,-2.9638909E-2,1.450493E-2,-6.109642E-2,1.2246215E-2,4.4169843E-2,-9.634452E-3,1.0816152E-1,4.8252203E-2],"categories":[],"categories_nodes":[],"categories_segments":[],"categories_sizes":[],"default_left":[1,1,1,1,1,1,1,1,1,1,1,1,1,1,1,1,1,1,1,1,1,1,1,1,1,1,1,1,1,1,1,0,0,0,0,0,0,0,0,0,0,0,0,0,0,0,0,0,0,0,0,0,0,0,0,0,0,0,0,0,0,0,0],"id":13,"left_children":[1,3,5,7,9,11,13,15,17,19,21,23,25,27,29,31,33,35,37,39,41,43,45,47,49,51,53,55,57,59,61,-1,-1,-1,-1,-1,-1,-1,-1,-1,-1,-1,-1,-1,-1,-1,-1,-1,-1,-1,-1,-1,-1,-1,-1,-1,-1,-1,-1,-1,-1,-1,-1],"loss_changes":[3.7787144E3,3.330899E3,1.2038209E4,3.197856E3,7.2379175E2,2.6753867E3,1.7988558E3,3.2478816E3,1.1114346E3,8.0839966E2,4.1573077E2,2.9253867E3,4.9147012E2,2.2506177E3,2.910625E2,3.689383E3,1.9625754E3,3.3164368E2,6.426621E2,2.1361914E2,2.5669107E2,2.8129437E2,6.2512366E2,1.2324102E3,9.230249E2,4.5120633E2,1.25494934E2,1.1249026E3,2.0133989E3,2.4482938E2,2.2060132E2,0E0,0E0,0E0,0E0,0E0,0E0,0E0,0E0,0E0,0E0,0E0,0E0,0E0,0E0,0E0,0E0,0E0,0E0,0E0,0E0,0E0,0E0,0E0,0E0,0E0,0E0,0E0,0E0,0E0,0E0,0E0,0E0],"parents":[2147483647,0,0,1,1,2,2,3,3,4,4,5,5,6,6,7,7,8,8,9,9,10,10,11,11,12,12,13,13,14,14,15,15,16,16,17,17,18,18,19,19,20,20,21,21,22,22,23,23,24,24,25,25,26,26,27,27,28,28,29,29,30,30],"right_children":[2,4,6,8,10,12,14,16,18,20,22,24,26,28,30,32,34,36,38,40,42,44,46,48,50,52,54,56,58,60,62,-1,-1,-1,-1,-1,-1,-1,-1,-1,-1,-1,-1,-1,-1,-1,-1,-1,-1,-1,-1,-1,-1,-1,-1,-1,-1,-1,-1,-1,-1,-1,-1],"split_conditions":[-7.407713E1,5E-1,-7.389078E1,5E-1,-7.702599E1,4.0913467E1,4.347575E1,1.95E1,4.2741974E1,5.2765713E0,1.75E1,5E-1,4.92947E0,-7.145691E1,-6.9996124E1,5.05E1,5E-1,5E-1,3.95E1,6.15E1,2.95E1,-7.70031E1,3.95E1,4.069513E1,4.887616E0,-7.40255E1,4.5E0,-7.379051E1,5.1080575E0,-7.054962E1,5E-1,-5.036268E-3,1.119875E-3,9.434026E-4,5.3190175E-3,2.7652732E-3,1.3880226E-2,2.8200144E-2,1.3205676E-2,-8.094515E-2,-4.101733E-2,-9.8034926E-2,-2.0688504E-3,1.9535473E-2,-6.286789E-2,-3.8102224E-2,8.296232E-3,-3.5336193E-2,-5.8787245E-2,-3.3731267E-2,3.771248E-3,-3.421176E-2,1.3418375E-2,-1.546756E-1,1.878551E-2,-8.891673E-3,4.351479E-3,-1.8328926E-2,3.6738645E-3,1.32509535E-2,-2.8903356E-3,3.2448456E-2,1.4475661E-2],"split_indices":[67,13,67,27,67,68,68,64,68,65,64,35,65,67,67,61,62,60,61,61,61,67,61,68,65,67,64,67,65,67,56,0,0,0,0,0,0,0,0,0,0,0,0,0,0,0,0,0,0,0,0,0,0,0,0,0,0,0,0,0,0,0,0],"split_type":[0,0,0,0,0,0,0,0,0,0,0,0,0,0,0,0,0,0,0,0,0,0,0,0,0,0,0,0,0,0,0,0,0,0,0,0,0,0,0,0,0,0,0,0,0,0,0,0,0,0,0,0,0,0,0,0,0,0,0,0,0,0,0],"sum_hessian":[8.837419E7,8.095136E7,7.422839E6,8.071713E7,2.34232E5,1.221693E6,6.201146E6,7.7501944E7,3.215181E6,9.6825E4,1.37407E5,1.059217E6,1.62476E5,5.491246E6,7.099E5,4.056678E7,3.6935164E7,1.551483E6,1.663698E6,6.8608E4,2.8217E4,3.0667E4,1.0674E5,8.07062E5,2.52155E5,7.4468E4,8.8008E4,3.776268E6,1.714978E6,4.57195E5,2.52705E5,1.2800763E7,2.7766016E7,1.9020312E7,1.7914852E7,1.252119E6,2.99364E5,3.18061E5,1.345637E6,5.2991E4,1.5617E4,2.782E3,2.5435E4,4.343E3,2.6324E4,4.5696E4,6.1044E4,3.95649E5,4.11413E5,9.4424E4,1.57731E5,4.4543E4,2.9925E4,3.76E2,8.7632E4,7.11211E5,3.065057E6,1.163064E6,5.51914E5,3.45177E5,1.12018E5,1.05556E5,1.47149E5],"tree_param":{"num_deleted":"0","num_feature":"69","num_nodes":"63","size_leaf_vector":"0"}},{"base_weights":[1.6737895E-3,3.4983912E-3,-1.5269083E-2,-6.2573077E-3,6.1662975E-3,-5.5472176E-3,-5.7395417E-2,-2.3803843E-2,1.9350442E-3,-6.6922214E-3,8.614493E-3,-7.8826144E-2,1.530875E-3,-1.1304962E-1,-4.4011235E-2,-1.6791156E-2,-4.878813E-2,2.0072272E-2,-3.5530068E-3,-2.0746784E-2,6.184097E-3,9.752305E-3,-2.2939585E-2,-1.6342685E-2,-8.844113E-2,-2.4572685E-2,1.1409349E-2,-1.3179141E-1,3.3453144E-2,-1.4618408E-3,-6.858129E-2,-3.6883984E-2,-8.365066E-3,-1.0804575E-1,-4.064724E-2,4.2941966E-3,3.0526549E-2,-1.3012135E-2,1.3292142E-2,-2.6438296E-2,4.7802333E-2,5.1414217E-3,8.564869E-2,-1.3083039E-2,1.1525182E-2,-6.3891658E-3,-7.988833E-2,2.016213E-2,-1.3239747E-1,-1.12621866E-1,-4.5793924E-2,-1.0114221E-2,-5.899474E-2,7.598495E-3,9.861105E-2,-4.8305508E-2,-1.6472623E-1,-3.041439E-2,1.1135351E-1,3.2496803E-2,-4.037564E-2,-1.1057065E-1,-3.687577E-2],"categories":[],"categories_nodes":[],"categories_segments":[],"categories_sizes":[],"default_left":[1,1,1,1,1,1,1,1,1,1,1,1,1,1,1,1,1,1,1,1,1,1,1,1,1,1,1,1,1,1,1,0,0,0,0,0,0,0,0,0,0,0,0,0,0,0,0,0,0,0,0,0,0,0,0,0,0,0,0,0,0,0,0],"id":14,"left_children":[1,3,5,7,9,11,13,15,17,19,21,23,25,27,29,31,33,35,37,39,41,43,45,47,49,51,53,55,57,59,61,-1,-1,-1,-1,-1,-1,-1,-1,-1,-1,-1,-1,-1,-1,-1,-1,-1,-1,-1,-1,-1,-1,-1,-1,-1,-1,-1,-1,-1,-1,-1,-1],"loss_changes":[2.7319995E3,2.0765178E3,3.518771E3,2.462803E3,1.9722153E3,3.6207888E3,1.2000288E3,9.5543164E2,1.1625734E3,1.8133871E3,1.8895259E3,3.6941333E2,1.6415453E3,8.575571E2,1.3577222E3,7.208977E2,5.765498E2,4.4752832E2,1.428734E3,1.8691858E3,4.3328195E2,2.056496E3,1.7264358E3,3.4741318E2,5.4953516E2,8.698135E2,1.5347029E3,7.613545E2,1.7624857E2,6.2823914E2,1.0960466E3,0E0,0E0,0E0,0E0,0E0,0E0,0E0,0E0,0E0,0E0,0E0,0E0,0E0,0E0,0E0,0E0,0E0,0E0,0E0,0E0,0E0,0E0,0E0,0E0,0E0,0E0,0E0,0E0,0E0,0E0,0E0,0E0],"parents":[2147483647,0,0,1,1,2,2,3,3,4,4,5,5,6,6,7,7,8,8,9,9,10,10,11,11,12,12,13,13,14,14,15,15,16,16,17,17,18,18,19,19,20,20,21,21,22,22,23,23,24,24,25,25,26,26,27,27,28,28,29,29,30,30],"right_children":[2,4,6,8,10,12,14,16,18,20,22,24,26,28,30,32,34,36,38,40,42,44,46,48,50,52,54,56,58,60,62,-1,-1,-1,-1,-1,-1,-1,-1,-1,-1,-1,-1,-1,-1,-1,-1,-1,-1,-1,-1,-1,-1,-1,-1,-1,-1,-1,-1,-1,-1,-1,-1],"split_conditions":[5E-1,4.5440927E0,4.0694733E1,5.55E1,3.3073776E1,-1.0483232E2,4.1057674E1,5E-1,3.401442E1,5.55E1,5E-1,3.25E1,4.25E1,5.1712875E0,4.1737396E1,4.294356E0,4.1381445E0,-9.4761215E1,1.5E0,5E-1,5E-1,-1.21878265E2,3.8817867E1,5E-1,4.9092884E0,5E-1,5E-1,4.45E1,5.296994E0,-8.340468E1,-8.606701E1,-1.1065195E-2,-2.50952E-3,-3.2413725E-2,-1.21941725E-2,1.288259E-3,9.157965E-3,-3.9036407E-3,3.987643E-3,-7.9314895E-3,1.4340701E-2,1.5424265E-3,2.5694609E-2,-3.924912E-3,3.4575548E-3,-1.9167498E-3,-2.39665E-2,6.0486393E-3,-3.9719243E-2,-3.378656E-2,-1.3738178E-2,-3.0342664E-3,-1.7698422E-2,2.2795487E-3,2.9583316E-2,-1.4491653E-2,-4.9417872E-2,-9.124317E-3,3.3406053E-2,9.749041E-3,-1.2112692E-2,-3.3171196E-2,-1.1062731E-2],"split_indices":[63,65,68,61,68,67,68,58,68,61,51,61,61,65,68,65,65,67,66,23,4,67,68,56,65,56,29,61,65,67,67,0,0,0,0,0,0,0,0,0,0,0,0,0,0,0,0,0,0,0,0,0,0,0,0,0,0,0,0,0,0,0,0],"split_type":[0,0,0,0,0,0,0,0,0,0,0,0,0,0,0,0,0,0,0,0,0,0,0,0,0,0,0,0,0,0,0,0,0,0,0,0,0,0,0,0,0,0,0,0,0,0,0,0,0,0,0,0,0,0,0,0,0,0,0,0,0,0,0],"sum_hessian":[8.837419E7,7.978233E7,8.59187E6,1.7132852E7,6.2649476E7,6.980841E6,1.611029E6,5.453162E6,1.1679689E7,1.0020316E7,5.262916E7,6.14893E5,6.365948E6,3.12322E5,1.298707E6,4.258009E6,1.195153E6,2.713141E6,8.966548E6,4.79096E6,5.229356E6,5.079745E7,1.831712E6,8.2002E4,5.32891E5,1.747701E6,4.618247E6,2.76899E5,3.5423E4,4.75411E5,8.23296E5,1.258054E6,2.999955E6,1.44358E5,1.050795E6,1.081258E6,1.631883E6,5.74214E6,3.224408E6,4.423671E6,3.67289E5,5.16163E6,6.7726E4,3.659654E6,4.713779E7,1.419251E6,4.12461E5,6.2381E4,1.9621E4,3.40071E5,1.9282E5,1.230746E6,5.16955E5,4.424874E6,1.93373E5,7.8334E4,1.98565E5,1.9465E4,1.5958E4,2.53869E5,2.21542E5,3.54203E5,4.69093E5],"tree_param":{"num_deleted":"0","num_feature":"69","num_nodes":"63","size_leaf_vector":"0"}},{"base_weights":[1.1716525E-3,1.8764841E-3,-3.8116157E-2,2.6593176E-3,-2.9893896E-2,-1.0222962E-1,-3.2452416E-2,-1.9426811E-2,3.759722E-3,-1.3651818E-2,-6.0899466E-2,-2.3883665E-2,-1.4165756E-1,-3.19392E-2,-4.5992434E-1,-2.9965756E-2,9.91867E-3,4.269742E-3,-4.4661086E-2,-2.8288804E-2,2.1161137E-2,-2.172363E-1,-5.7423882E-2,-5.30004E-2,3.0072796E-1,-9.65275E-2,-2.1852602E-1,-3.4349017E-2,4.8993904E-2,-5.155374E-1,2.8402558E-1,-1.6812269E-2,-4.6808142E-2,2.7851386E-2,-3.8910548E-3,2.7141646E-3,1.9146696E-2,-3.3653557E-2,-1.5245454E-1,-4.6692573E-2,2.145315E-3,1.0567653E-2,1.6556787E-1,-1.6790578E-1,-3.757305E-1,3.369283E-2,-6.313641E-2,-9.865549E-2,5.056935E-2,-3.6431655E-1,3.4631807E-1,-3.6995953E-1,-7.524117E-2,-2.2575478E-1,3.793675E-1,-3.221627E-2,-1.1374745E-1,9.121903E-2,-4.0468566E-2,9.2454225E-2,-5.870805E-1],"categories":[],"categories_nodes":[],"categories_segments":[],"categories_sizes":[],"default_left":[1,1,1,1,1,1,1,1,1,1,1,1,1,1,1,1,1,1,1,1,1,1,1,1,1,1,1,1,1,1,0,0,0,0,0,0,0,0,0,0,0,0,0,0,0,0,0,0,0,0,0,0,0,0,0,0,0,0,0,0,0],"id":15,"left_children":[1,3,5,7,9,11,13,15,17,19,21,23,25,27,29,31,33,35,37,39,41,43,45,47,49,51,53,55,57,59,-1,-1,-1,-1,-1,-1,-1,-1,-1,-1,-1,-1,-1,-1,-1,-1,-1,-1,-1,-1,-1,-1,-1,-1,-1,-1,-1,-1,-1,-1,-1],"loss_changes":[2.4471958E3,2.1592104E3,5.65563E2,2.0592249E3,1.0513796E3,3.9051355E2,3.139441E2,1.2436174E3,1.9931249E3,6.981224E2,3.899558E2,4.0004678E2,2.9172156E2,2.7877795E2,7.114307E1,6.554358E2,2.6313205E2,1.848292E3,9.9815967E2,5.402335E2,6.203691E2,1.21969604E2,3.654441E2,1.8366412E2,1.0575906E2,3.0839322E2,1.3453967E2,2.3504333E2,1.5613043E2,6.951993E1,0E0,0E0,0E0,0E0,0E0,0E0,0E0,0E0,0E0,0E0,0E0,0E0,0E0,0E0,0E0,0E0,0E0,0E0,0E0,0E0,0E0,0E0,0E0,0E0,0E0,0E0,0E0,0E0,0E0,0E0,0E0],"parents":[2147483647,0,0,1,1,2,2,3,3,4,4,5,5,6,6,7,7,8,8,9,9,10,10,11,11,12,12,13,13,14,14,15,15,16,16,17,17,18,18,19,19,20,20,21,21,22,22,23,23,24,24,25,25,26,26,27,27,28,28,29,29],"right_children":[2,4,6,8,10,12,14,16,18,20,22,24,26,28,30,32,34,36,38,40,42,44,46,48,50,52,54,56,58,60,-1,-1,-1,-1,-1,-1,-1,-1,-1,-1,-1,-1,-1,-1,-1,-1,-1,-1,-1,-1,-1,-1,-1,-1,-1,-1,-1,-1,-1,-1,-1],"split_conditions":[5E-1,5E-1,1.45E1,1.45E1,-8.033394E1,3.405805E1,5.670709E0,7.75E1,9.05E1,3.5E0,2.5942108E1,3.384475E1,4.4761066E0,5E-1,5E-1,5E-1,5E-1,5E-1,4.3643173E1,5E-1,-8.232535E1,5.1095724E0,1.15E1,4.6004252E0,-1.1832879E2,3.4375698E1,5E-1,5E-1,4.705985E0,1.75E1,8.520768E-2,-5.043681E-3,-1.4042444E-2,8.355416E-3,-1.1673165E-3,8.142494E-4,5.744009E-3,-1.0096068E-2,-4.5736365E-2,-1.4007772E-2,6.4359454E-4,3.170296E-3,4.9670365E-2,-5.0371736E-2,-1.12719156E-1,1.0107849E-2,-1.8940926E-2,-2.959665E-2,1.5170806E-2,-1.0929497E-1,1.03895426E-1,-1.10987864E-1,-2.2572352E-2,-6.772644E-2,1.13810256E-1,-9.664881E-3,-3.4124237E-2,2.736571E-2,-1.214057E-2,2.7736269E-2,-1.7612416E-1],"split_indices":[59,4,64,64,67,68,65,61,61,66,68,68,65,45,47,62,62,57,68,62,67,65,64,65,67,68,8,35,65,64,0,0,0,0,0,0,0,0,0,0,0,0,0,0,0,0,0,0,0,0,0,0,0,0,0,0,0,0,0,0,0],"split_type":[0,0,0,0,0,0,0,0,0,0,0,0,0,0,0,0,0,0,0,0,0,0,0,0,0,0,0,0,0,0,0,0,0,0,0,0,0,0,0,0,0,0,0,0,0,0,0,0,0,0,0,0,0,0,0,0,0,0,0,0,0],"sum_hessian":[8.837419E7,8.681669E7,1.557509E6,8.4728936E7,2.08775E6,1.2642E5,1.431089E6,4.021131E6,8.070781E7,1.370056E6,7.17694E5,4.2323E4,8.4097E4,1.429374E6,1.715E3,2.958599E6,1.062532E6,7.986657E7,8.41239E5,9.64525E5,4.05531E5,1.5607E4,7.02087E5,3.884E4,3.483E3,5.2989E4,3.1108E4,1.388045E6,4.1329E4,1.596E3,1.19E2,1.661225E6,1.297374E6,4.6226E5,6.00272E5,7.230604E7,7.560527E6,7.63295E5,7.7944E4,6.01059E5,3.63466E5,3.77816E5,2.7715E4,1.1904E4,3.703E3,4.142E4,6.60667E5,2.6957E4,1.1883E4,2.23E2,3.26E3,3.826E3,4.9163E4,3.0737E4,3.71E2,1.351737E6,3.6308E4,2.8077E4,1.3252E4,1.68E2,1.428E3],"tree_param":{"num_deleted":"0","num_feature":"69","num_nodes":"61","size_leaf_vector":"0"}},{"base_weights":[8.201471E-4,-1.6672696E-3,1.0816244E-2,3.238736E-4,-2.1243509E-2,1.1401811E-2,-4.2584617E-2,-1.8875083E-2,2.4587973E-3,-2.9106991E-2,2.6828878E-2,2.2064783E-2,8.889267E-3,-3.96937E-2,-4.063076E-1,-8.1697114E-2,-7.475339E-3,7.1916694E-4,2.0907816E-2,-5.0030783E-2,-1.249042E-2,4.4375725E-2,1.0788823E-2,1.8229043E-2,6.759039E-2,-1.2326569E-1,9.832373E-3,-7.6621455E-1,-3.8433753E-2,-2.7809503E-2,-6.7041415E-1,-2.8269906E-2,-1.2547226E-1,4.1249227E-2,-1.2145731E-2,1.0085431E-3,-1.0300814E-1,2.4807267E-2,-3.3140365E-2,4.7901347E-2,-6.2897086E-2,4.95349E-3,-5.156845E-2,2.7691541E-2,6.942502E-2,-2.9429154E-2,1.9241702E-2,-1.304629E-2,2.6423955E-2,4.9472995E-2,1.2608038E-1,9.207426E-2,-1.4352816E-1,4.1988376E-3,1.6065197E-2,-8.494056E-1,8.846323E-2,-5.0087843E-2,4.1920327E-2,1.2723637E-1,-4.9376798E-1,-7.6456565E-1,6.167866E-2],"categories":[],"categories_nodes":[],"categories_segments":[],"categories_sizes":[],"default_left":[1,1,1,1,1,1,1,1,1,1,1,1,1,1,1,1,1,1,1,1,1,1,1,1,1,1,1,1,1,1,1,0,0,0,0,0,0,0,0,0,0,0,0,0,0,0,0,0,0,0,0,0,0,0,0,0,0,0,0,0,0,0,0],"id":16,"left_children":[1,3,5,7,9,11,13,15,17,19,21,23,25,27,29,31,33,35,37,39,41,43,45,47,49,51,53,55,57,59,61,-1,-1,-1,-1,-1,-1,-1,-1,-1,-1,-1,-1,-1,-1,-1,-1,-1,-1,-1,-1,-1,-1,-1,-1,-1,-1,-1,-1,-1,-1,-1,-1],"loss_changes":[2.1973767E3,2.7583596E3,5.506321E2,2.6327578E3,2.4696465E3,4.6665112E2,2.0081723E2,4.6033125E3,1.8551924E3,1.9521411E3,2.5849554E2,5.800304E2,1.7569341E3,1.7342776E2,1.505269E2,2.3089614E3,1.2380713E3,1.5855521E3,1.0497681E3,3.131495E3,2.1332812E3,1.833075E2,1.6311942E2,7.8516705E2,2.7351147E2,4.3584338E2,4.9146106E2,2.3396454E1,1.7714731E2,4.4854683E1,6.1185944E1,0E0,0E0,0E0,0E0,0E0,0E0,0E0,0E0,0E0,0E0,0E0,0E0,0E0,0E0,0E0,0E0,0E0,0E0,0E0,0E0,0E0,0E0,0E0,0E0,0E0,0E0,0E0,0E0,0E0,0E0,0E0,0E0],"parents":[2147483647,0,0,1,1,2,2,3,3,4,4,5,5,6,6,7,7,8,8,9,9,10,10,11,11,12,12,13,13,14,14,15,15,16,16,17,17,18,18,19,19,20,20,21,21,22,22,23,23,24,24,25,25,26,26,27,27,28,28,29,29,30,30],"right_children":[2,4,6,8,10,12,14,16,18,20,22,24,26,28,30,32,34,36,38,40,42,44,46,48,50,52,54,56,58,60,62,-1,-1,-1,-1,-1,-1,-1,-1,-1,-1,-1,-1,-1,-1,-1,-1,-1,-1,-1,-1,-1,-1,-1,-1,-1,-1,-1,-1,-1,-1,-1,-1],"split_conditions":[5.11752E0,-7.471911E1,8.55E1,-1.18109116E2,4.2997925E1,5E-1,5E-1,3.4182125E1,4.329069E1,-7.379051E1,5E-1,5E-1,1.5E0,5.118083E0,5E-1,3.393714E1,-1.2314436E2,5E-1,8.15E1,4.0299355E1,4.22145E1,1.5E0,4.05E1,-1.1700611E2,3.5E0,2.9454563E1,5.272793E0,5E-1,-7.411517E1,-1.1174356E2,-1.11772E2,-8.480972E-3,-3.764168E-2,1.2374769E-2,-3.6437192E-3,3.0256293E-4,-3.0902443E-2,7.4421805E-3,-9.94211E-3,1.4370405E-2,-1.8869126E-2,1.486047E-3,-1.54705355E-2,8.307463E-3,2.0827506E-2,-8.828747E-3,5.7725105E-3,-3.9138873E-3,7.927187E-3,1.4841899E-2,3.7824117E-2,2.7622279E-2,-4.305845E-2,1.2596513E-3,4.8195594E-3,-2.548217E-1,2.653897E-2,-1.5026353E-2,1.2576099E-2,3.817091E-2,-1.481304E-1,-2.293697E-1,1.8503599E-2],"split_indices":[65,67,61,67,68,56,49,68,68,67,56,3,66,65,62,68,67,13,61,68,68,66,61,67,66,68,65,8,67,67,67,0,0,0,0,0,0,0,0,0,0,0,0,0,0,0,0,0,0,0,0,0,0,0,0,0,0,0,0,0,0,0,0],"split_type":[0,0,0,0,0,0,0,0,0,0,0,0,0,0,0,0,0,0,0,0,0,0,0,0,0,0,0,0,0,0,0,0,0,0,0,0,0,0,0,0,0,0,0,0,0,0,0,0,0,0,0,0,0,0,0,0,0,0,0,0,0,0,0],"sum_hessian":[8.837419E7,7.0765096E7,1.76091E7,6.4231924E7,6.533172E6,1.7418102E7,1.90997E5,6.427815E6,5.780411E7,5.614737E6,9.18435E5,3.321594E6,1.4096508E7,1.89492E5,1.505E3,9.87249E5,5.440566E6,5.2823204E7,4.980906E6,2.485262E6,3.129475E6,4.38615E5,4.7982E5,3.063483E6,2.58111E5,9.9884E4,1.3996624E7,3.27E2,1.89165E5,6.19E2,8.86E2,4.44609E5,5.4264E5,4.75879E5,4.964687E6,5.267625E7,1.46954E5,4.645728E6,3.35178E5,2.88597E5,2.196665E6,2.163651E6,9.65824E5,2.63267E5,1.75348E5,8.3332E4,3.96488E5,6.36048E5,2.427435E6,1.9707E5,6.1041E4,8.59E3,9.1294E4,7.35175E6,6.644874E6,2.98E2,2.9E1,1.65205E5,2.396E4,4.65E2,1.54E2,7.85E2,1.01E2],"tree_param":{"num_deleted":"0","num_feature":"69","num_nodes":"63","size_leaf_vector":"0"}},{"base_weights":[5.741019E-4,-4.3898776E-2,9.935404E-4,-6.7594804E-2,1.2956929E-2,5.733163E-4,4.194958E-2,-1.3656133E-1,-5.3884916E-2,2.0678434E-1,8.458812E-3,-2.2255244E-4,2.140396E-2,-4.4980697E-2,5.228891E-2,-2.4303542E-1,-9.206392E-2,-7.5143956E-2,-9.12128E-4,-2.1231493E-2,2.918693E-1,3.6917515E-2,-2.0843048E-2,-3.4024399E-3,6.103343E-3,1.1787212E-2,3.5772618E-2,-3.8223326E-2,-2.9920733E-1,7.842159E-2,3.091764E-2,-6.722089E-2,-2.9370695E-1,-7.954244E-2,-3.878459E-1,5.256841E-1,-7.680221E-2,2.8835347E-2,-1.0516878E-1,-9.987022E-2,6.80929E-1,-2.9326734E-1,3.3249533E-1,-7.907035E-2,4.8147503E-2,-1.0273544E-1,-4.5177625E-3,-7.1748826E-3,5.5674943E-3,4.758022E-3,1.869823E-2,1.5338863E-2,-1.5420497E-2,6.2719285E-2,1.7157469E-2,-3.382063E-2,-4.4952706E-1,2.5929978E-1,-5.095001E-1,5.9594885E-2,1.0673237E-1,-2.0209327E-1,3.2436937E-2],"categories":[],"categories_nodes":[],"categories_segments":[],"categories_sizes":[],"default_left":[1,1,1,1,1,1,1,1,1,1,1,1,1,1,1,1,1,1,1,1,1,1,1,1,1,1,1,1,1,1,1,0,0,0,0,0,0,0,0,0,0,0,0,0,0,0,0,0,0,0,0,0,0,0,0,0,0,0,0,0,0,0,0],"id":17,"left_children":[1,3,5,7,9,11,13,15,17,19,21,23,25,27,29,31,33,35,37,39,41,43,45,47,49,51,53,55,57,59,61,-1,-1,-1,-1,-1,-1,-1,-1,-1,-1,-1,-1,-1,-1,-1,-1,-1,-1,-1,-1,-1,-1,-1,-1,-1,-1,-1,-1,-1,-1,-1,-1],"loss_changes":[1.6485001E3,1.1124277E3,1.5067725E3,5.5104565E2,2.1177097E2,1.4366782E3,7.9917737E2,4.5785498E2,5.474894E2,1.0688478E2,1.9795862E2,1.6790566E3,4.4067078E2,1.6235449E2,4.4379712E2,2.537384E2,2.5240833E2,3.456953E2,4.3181018E2,8.278308E1,9.546985E1,1.5686636E2,1.5636932E2,1.8796527E3,4.7312463E2,1.846131E2,6.413899E2,1.6670576E2,2.875323E2,1.905393E2,1.5476239E2,0E0,0E0,0E0,0E0,0E0,0E0,0E0,0E0,0E0,0E0,0E0,0E0,0E0,0E0,0E0,0E0,0E0,0E0,0E0,0E0,0E0,0E0,0E0,0E0,0E0,0E0,0E0,0E0,0E0,0E0,0E0,0E0],"parents":[2147483647,0,0,1,1,2,2,3,3,4,4,5,5,6,6,7,7,8,8,9,9,10,10,11,11,12,12,13,13,14,14,15,15,16,16,17,17,18,18,19,19,20,20,21,21,22,22,23,23,24,24,25,25,26,26,27,27,28,28,29,29,30,30],"right_children":[2,4,6,8,10,12,14,16,18,20,22,24,26,28,30,32,34,36,38,40,42,44,46,48,50,52,54,56,58,60,62,-1,-1,-1,-1,-1,-1,-1,-1,-1,-1,-1,-1,-1,-1,-1,-1,-1,-1,-1,-1,-1,-1,-1,-1,-1,-1,-1,-1,-1,-1,-1,-1],"split_conditions":[4.054805E0,1.5E0,5E-1,-1.13862015E2,2E0,5E-1,3.0629726E1,5E-1,7.55E1,5.55E1,3.8107758E1,4.991514E0,4.2963142E1,8.35E1,5E-1,5E-1,5E-1,-1.1330629E2,4.1643574E1,5E-1,4.010719E0,-1.1805379E2,1.55E1,6.85E1,5E-1,5E-1,5E-1,5E-1,4.3566027E0,-8.932379E1,2.25E1,-2.0166267E-2,-8.8112086E-2,-2.3862734E-2,-1.1635377E-1,1.5770525E-1,-2.3040663E-2,8.650605E-3,-3.1550635E-2,-2.9961066E-2,2.0427871E-1,-8.79802E-2,9.9748604E-2,-2.3721106E-2,1.4444252E-2,-3.0820632E-2,-1.3553288E-3,-2.1524648E-3,1.6702483E-3,1.4274066E-3,5.6094695E-3,4.6016593E-3,-4.6261493E-3,1.8815786E-2,5.147241E-3,-1.01461895E-2,-1.3485812E-1,7.778994E-2,-1.5285003E-1,1.7878465E-2,3.2019712E-2,-6.0627986E-2,9.731081E-3],"split_indices":[65,66,29,67,64,27,68,0,61,61,68,65,68,61,56,62,17,67,68,47,65,67,64,61,60,63,56,2,65,67,61,0,0,0,0,0,0,0,0,0,0,0,0,0,0,0,0,0,0,0,0,0,0,0,0,0,0,0,0,0,0,0,0],"split_type":[0,0,0,0,0,0,0,0,0,0,0,0,0,0,0,0,0,0,0,0,0,0,0,0,0,0,0,0,0,0,0,0,0,0,0,0,0,0,0,0,0,0,0,0,0,0,0,0,0,0,0,0,0,0,0,0,0,0,0,0,0,0,0],"sum_hessian":[8.837419E7,8.25698E5,8.75485E7,5.82801E5,2.42897E5,8.665934E7,8.89156E5,9.6642E4,4.86159E5,5.508E3,2.37389E5,8.347022E7,3.189115E6,9.4513E4,7.94643E5,2.8483E4,6.8159E4,3.46929E5,1.3923E5,1.497E3,4.011E3,1.20427E5,1.16962E5,5.5547652E7,2.7922576E7,1.910467E6,1.278648E6,9.2067E4,2.446E3,3.57496E5,4.37147E5,6.373E3,2.211E4,6.5392E4,2.767E3,9.54E2,3.45975E5,1.08323E5,3.0907E4,1.347E3,1.5E2,2.6E2,3.751E3,1.063E4,1.09797E5,1.944E4,9.7522E4,3.91025E7,1.6445153E7,2.5227866E7,2.694709E6,1.689874E6,2.20593E5,5.22415E5,7.56233E5,9.1093E4,9.74E2,6.69E2,1.777E3,2.14714E5,1.42782E5,2.831E3,4.34316E5],"tree_param":{"num_deleted":"0","num_feature":"69","num_nodes":"63","size_leaf_vector":"0"}},{"base_weights":[4.0186298E-4,2.171549E-3,-8.861477E-3,2.7602983E-3,-2.5287446E-2,-3.9785836E-2,-6.4544E-3,3.9341887E-3,-1.032966E-2,-2.730371E-2,7.6682396E-2,-5.1670022E-2,1.3765032E-2,-1.00918645E-2,9.1021685E-3,-1.9750092E-2,4.653712E-3,-7.734328E-2,-3.4482146E-4,-7.406457E-2,-2.2988787E-2,4.8971467E-2,2.982479E-1,-1.334172E-2,-7.3423274E-2,-8.298907E-2,4.792023E-2,-6.779064E-3,-5.030981E-2,-3.097083E-2,1.2552722E-2,-6.6483454E-3,-5.2431773E-2,-1.1033229E-2,5.530958E-3,-9.060147E-2,2.7856283E-2,4.1465584E-2,-3.8908885E-3,-8.7930605E-2,4.0594287E-2,-7.0445366E-2,-1.8882906E-2,-8.70421E-2,1.1026864E-1,1.7030647E-1,4.596118E-1,-8.117209E-2,6.186516E-3,-7.8456216E-2,4.1413322E-2,-1.5295444E-1,-1.3086587E-2,3.2093007E-2,1.7284884E-1,-1.529239E-2,-6.2431913E-4,-6.324627E-2,1.0447626E-2,-2.6916672E-2,-4.3436664E-1,2.2386925E-2,-1.7799882E-3],"categories":[],"categories_nodes":[],"categories_segments":[],"categories_sizes":[],"default_left":[1,1,1,1,1,1,1,1,1,1,1,1,1,1,1,1,1,1,1,1,1,1,1,1,1,1,1,1,1,1,1,0,0,0,0,0,0,0,0,0,0,0,0,0,0,0,0,0,0,0,0,0,0,0,0,0,0,0,0,0,0,0,0],"id":18,"left_children":[1,3,5,7,9,11,13,15,17,19,21,23,25,27,29,31,33,35,37,39,41,43,45,47,49,51,53,55,57,59,61,-1,-1,-1,-1,-1,-1,-1,-1,-1,-1,-1,-1,-1,-1,-1,-1,-1,-1,-1,-1,-1,-1,-1,-1,-1,-1,-1,-1,-1,-1,-1,-1],"loss_changes":[1.4487363E3,1.1995363E3,1.0551583E3,1.1162231E3,3.2022333E2,6.5147766E2,7.4419446E2,1.1360349E3,4.0001858E3,3.0816296E2,1.8540695E2,6.9849316E2,6.1440216E2,1.4201572E3,3.446256E2,8.4160315E2,8.903263E2,1.08127E3,7.7141583E2,2.051405E2,2.7245593E2,2.2381467E2,6.922742E1,4.0178305E2,3.0889014E2,2.3723868E2,2.716955E2,5.1600574E2,6.3758154E2,3.2313803E2,3.2344592E2,0E0,0E0,0E0,0E0,0E0,0E0,0E0,0E0,0E0,0E0,0E0,0E0,0E0,0E0,0E0,0E0,0E0,0E0,0E0,0E0,0E0,0E0,0E0,0E0,0E0,0E0,0E0,0E0,0E0,0E0,0E0,0E0],"parents":[2147483647,0,0,1,1,2,2,3,3,4,4,5,5,6,6,7,7,8,8,9,9,10,10,11,11,12,12,13,13,14,14,15,15,16,16,17,17,18,18,19,19,20,20,21,21,22,22,23,23,24,24,25,25,26,26,27,27,28,28,29,29,30,30],"right_children":[2,4,6,8,10,12,14,16,18,20,22,24,26,28,30,32,34,36,38,40,42,44,46,48,50,52,54,56,58,60,62,-1,-1,-1,-1,-1,-1,-1,-1,-1,-1,-1,-1,-1,-1,-1,-1,-1,-1,-1,-1,-1,-1,-1,-1,-1,-1,-1,-1,-1,-1,-1,-1],"split_conditions":[5E-1,5E-1,4.1704082E0,-7.4024414E1,5E-1,1.5E0,6.95E1,2.45E1,-7.3909386E1,3.038449E1,3.2468487E1,3.5967323E1,4.35E1,5E-1,1.55E1,2.05E1,2.880602E1,4.0873528E1,4.069627E1,5E-1,1.45E1,-9.2604965E1,5.6E1,4.049412E0,2.15E1,1.75E1,7.25E1,4.679337E0,3.809552E1,5.493805E0,3.9864677E1,-1.9945037E-3,-1.5729534E-2,-3.3099686E-3,1.6592875E-3,-2.718044E-2,8.356885E-3,1.2439676E-2,-1.1672666E-3,-2.6379183E-2,1.2178287E-2,-2.1133611E-2,-5.664872E-3,-2.6112631E-2,3.3080593E-2,5.1091943E-2,1.3788354E-1,-2.4351627E-2,1.8559549E-3,-2.3536867E-2,1.2423997E-2,-4.5886334E-2,-3.9259763E-3,9.627903E-3,5.185465E-2,-4.5877174E-3,-1.8729575E-4,-1.8973883E-2,3.134288E-3,-8.075002E-3,-1.3031E-1,6.7160777E-3,-5.339965E-4],"split_indices":[58,59,65,67,23,66,61,61,67,68,68,68,61,9,64,64,68,68,68,3,64,67,61,65,64,64,61,65,68,65,68,0,0,0,0,0,0,0,0,0,0,0,0,0,0,0,0,0,0,0,0,0,0,0,0,0,0,0,0,0,0,0,0],"split_type":[0,0,0,0,0,0,0,0,0,0,0,0,0,0,0,0,0,0,0,0,0,0,0,0,0,0,0,0,0,0,0,0,0,0,0,0,0,0,0,0,0,0,0,0,0,0,0,0,0,0,0,0,0,0,0,0,0,0,0,0,0,0,0],"sum_hessian":[8.837419E7,7.4199064E7,1.417513E7,7.264156E7,1.557509E6,1.023676E6,1.3151454E7,6.666328E7,5.978276E6,1.52731E6,3.0199E4,8.37758E5,1.85918E5,1.065912E7,2.492334E6,1.965503E6,6.4697776E7,7.75237E5,5.203039E6,1.29027E5,1.398283E6,2.6843E4,3.356E3,3.03321E5,5.34437E5,4.8507E4,1.37411E5,9.847935E6,8.11185E5,1.97592E5,2.294742E6,1.40304E6,5.62463E5,3.426421E6,6.1271356E7,6.8847E5,8.6767E4,4.06784E5,4.796255E6,1.15107E5,1.392E4,1.11343E5,1.28694E6,8.339E3,1.8504E4,1.873E3,1.483E3,6.7804E4,2.35517E5,5.11998E5,2.2439E4,2.4242E4,2.4265E4,1.21961E5,1.545E4,4.132208E6,5.715727E6,6.68787E5,1.42398E5,1.95627E5,1.965E3,1.360946E6,9.33796E5],"tree_param":{"num_deleted":"0","num_feature":"69","num_nodes":"63","size_leaf_vector":"0"}},{"base_weights":[2.8130974E-4,-2.4176486E-4,2.8781874E-2,-7.496079E-4,2.8817186E-2,5.020854E-2,1.23211285E-2,5.241164E-4,-1.3106428E-2,2.1459926E-2,5.7359483E-2,-8.63736E-3,5.7385642E-2,-1.5901339E-1,1.3704218E-2,7.058765E-4,-9.802425E-2,-1.8423675E-2,2.649445E-2,3.392477E-2,7.0716827E-3,-3.0049331E-2,6.855045E-2,2.8609212E-2,-7.643043E-2,5.3037997E-2,1.4659625E-1,7.384368E-1,-1.7147839E-1,8.409864E-3,6.0551163E-2,1.4642124E-3,-2.095348E-2,-1.2837256E-1,-1.4972491E-2,-2.1954557E-2,2.6352005E-2,-3.6415625E-2,3.532762E-2,7.548878E-2,2.526353E-2,-4.3484232E-1,7.878069E-3,-1.3896608E-1,-3.4329607E-4,1.5008473E-1,5.067845E-2,1.5512164E-1,8.3163455E-3,-2.0418137E-1,-5.0980086E-4,5.9935935E-2,-5.6079444E-2,2.532691E-1,8.682035E-2,-2.5477976E-1,-9.870081E-2,-7.769285E-2,1.0501E-2,9.490082E-2,-4.4766475E-2],"categories":[],"categories_nodes":[],"categories_segments":[],"categories_sizes":[],"default_left":[1,1,1,1,1,1,1,1,1,1,1,1,1,1,1,1,1,1,1,1,1,1,1,1,1,1,1,0,1,1,1,0,0,0,0,0,0,0,0,0,0,0,0,0,0,0,0,0,0,0,0,0,0,0,0,0,0,0,0,0,0],"id":19,"left_children":[1,3,5,7,9,11,13,15,17,19,21,23,25,27,29,31,33,35,37,39,41,43,45,47,49,51,53,-1,55,57,59,-1,-1,-1,-1,-1,-1,-1,-1,-1,-1,-1,-1,-1,-1,-1,-1,-1,-1,-1,-1,-1,-1,-1,-1,-1,-1,-1,-1,-1,-1],"loss_changes":[1.3174756E3,1.280668E3,5.617472E2,1.3424092E3,3.1300818E2,2.922522E2,2.1345042E2,1.3849829E3,1.6782504E3,2.1254303E2,2.988164E2,1.8994475E2,2.3920435E2,8.081648E1,2.2161516E2,1.2676615E3,3.5877832E2,1.1108977E3,5.2428595E2,2.2859149E2,1.9603557E2,1.1218068E2,3.946056E2,1.2464113E2,2.5870923E2,4.4265454E2,1.827276E2,0E0,4.310936E1,1.4454657E2,3.2822043E2,0E0,0E0,0E0,0E0,0E0,0E0,0E0,0E0,0E0,0E0,0E0,0E0,0E0,0E0,0E0,0E0,0E0,0E0,0E0,0E0,0E0,0E0,0E0,0E0,0E0,0E0,0E0,0E0,0E0,0E0],"parents":[2147483647,0,0,1,1,2,2,3,3,4,4,5,5,6,6,7,7,8,8,9,9,10,10,11,11,12,12,13,13,14,14,15,15,16,16,17,17,18,18,19,19,20,20,21,21,22,22,23,23,24,24,25,25,26,26,28,28,29,29,30,30],"right_children":[2,4,6,8,10,12,14,16,18,20,22,24,26,28,30,32,34,36,38,40,42,44,46,48,50,52,54,-1,56,58,60,-1,-1,-1,-1,-1,-1,-1,-1,-1,-1,-1,-1,-1,-1,-1,-1,-1,-1,-1,-1,-1,-1,-1,-1,-1,-1,-1,-1,-1,-1],"split_conditions":[5E-1,5E-1,4.7023444E0,5E-1,5E-1,3.302159E1,2.35E1,5E-1,2.15E1,5.95E1,3.0709259E1,-8.012381E1,3.4967323E1,1.45E1,5E-1,8.55E1,5.322777E0,7.75E1,3.45E1,1.5E0,4.006248E0,4.2540627E0,-8.755856E1,4.246729E0,5.35E1,3.494063E1,5.35E1,2.2153105E-1,-8.106514E1,4.7161703E0,2.5E0,4.3926373E-4,-6.286044E-3,-3.851177E-2,-4.4917474E-3,-6.5863673E-3,7.9056015E-3,-1.0924688E-2,1.0598287E-2,2.2646636E-2,7.579059E-3,-1.304527E-1,2.3634208E-3,-4.1689828E-2,-1.0298882E-4,4.5025423E-2,1.5203536E-2,4.6536494E-2,2.4949037E-3,-6.1254416E-2,-1.5294027E-4,1.798078E-2,-1.6823834E-2,7.598074E-2,2.6046107E-2,-7.643393E-2,-2.9610243E-2,-2.3307856E-2,3.1503001E-3,2.8470246E-2,-1.3429943E-2],"split_indices":[45,5,65,63,63,68,61,13,64,61,68,67,68,64,60,61,65,61,61,66,65,65,67,65,61,68,61,0,67,65,66,0,0,0,0,0,0,0,0,0,0,0,0,0,0,0,0,0,0,0,0,0,0,0,0,0,0,0,0,0,0],"split_type":[0,0,0,0,0,0,0,0,0,0,0,0,0,0,0,0,0,0,0,0,0,0,0,0,0,0,0,0,0,0,0,0,0,0,0,0,0,0,0,0,0,0,0,0,0,0,0,0,0,0,0,0,0,0,0,0,0,0,0,0,0],"sum_hessian":[8.837419E7,8.678149E7,1.592711E6,8.529091E7,1.490569E6,6.91976E5,9.00735E5,7.732079E7,7.970122E6,1.185093E6,3.05476E5,7.5222E4,6.16754E5,7.212E3,8.93523E5,7.717845E7,1.42345E5,7.026648E6,9.43474E5,6.34988E5,5.50105E5,3.4671E4,2.70805E5,4.8549E4,2.6673E4,5.88095E5,2.8659E4,9.8E1,7.114E3,8.02797E5,9.0726E4,7.456769E7,2.610758E6,1.0425E5,3.8095E4,6.513048E6,5.136E5,1.16162E5,8.27312E5,1.09501E5,5.25487E5,1.001E3,5.49104E5,7.429E3,2.7242E4,4.8686E4,2.22119E5,6.71E3,4.1839E4,9.942E3,1.6731E4,5.53129E5,3.4966E4,1.0291E4,1.8368E4,3.316E3,3.798E3,1.9034E4,7.83763E5,6.8413E4,2.2313E4],"tree_param":{"num_deleted":"0","num_feature":"69","num_nodes":"61","size_leaf_vector":"0"}},{"base_weights":[1.9690144E-4,-3.0004869E-3,3.6080233E-3,2.8792473E-3,-9.243898E-3,2.5001334E-4,1.6234742E-2,-1.4875193E-2,6.369461E-3,-2.7525E-2,-1.3275789E-3,-1.0642838E-2,4.016309E-3,3.4435544E-2,4.154455E-3,-1.1788475E-2,-7.874532E-2,2.3955168E-2,3.2458662E-3,-3.0200688E-2,3.4311596E-2,2.541139E-3,-1.4487615E-2,-5.3210678E-3,-7.0872955E-2,-3.3497058E-3,1.2006699E-2,-1.3654016E-1,3.5427283E-2,8.876315E-3,-1.0450452E-2,-2.6284158E-2,2.6333483E-3,-1.08207695E-1,-3.6347713E-2,-9.1000914E-4,4.115184E-2,2.2119952E-3,3.5759933E-2,-3.1714305E-2,3.5705183E-2,8.4913485E-2,-3.7838225E-3,8.64217E-3,-3.1641156E-3,-5.5619705E-2,-1.0778863E-2,2.820946E-2,-1.2661934E-2,-1.0025137E-1,-2.1053767E-2,-2.058753E-2,1.9655454E-3,1.5079417E-2,-2.2857862E-2,2.0830832E-1,-1.6132225E-1,3.7037827E-2,-9.897936E-3,8.244496E-3,1.2806842E-1,-3.877193E-2,5.811139E-5],"categories":[],"categories_nodes":[],"categories_segments":[],"categories_sizes":[],"default_left":[1,1,1,1,1,1,1,1,1,1,1,1,1,1,1,1,1,1,1,1,1,1,1,1,1,1,1,1,1,1,1,0,0,0,0,0,0,0,0,0,0,0,0,0,0,0,0,0,0,0,0,0,0,0,0,0,0,0,0,0,0,0,0],"id":20,"left_children":[1,3,5,7,9,11,13,15,17,19,21,23,25,27,29,31,33,35,37,39,41,43,45,47,49,51,53,55,57,59,61,-1,-1,-1,-1,-1,-1,-1,-1,-1,-1,-1,-1,-1,-1,-1,-1,-1,-1,-1,-1,-1,-1,-1,-1,-1,-1,-1,-1,-1,-1,-1,-1],"loss_changes":[9.6386914E2,1.6745526E3,1.8129664E3,1.4557433E3,3.2017483E3,1.385666E3,1.9749756E3,7.608907E2,1.0784441E3,1.1061343E3,7.860127E2,2.7814932E3,1.477189E3,6.07626E2,3.723275E2,7.6964417E2,2.2224463E2,1.2662173E3,5.60422E2,6.39249E2,5.345149E2,4.1529617E2,5.3505396E2,1.9625677E3,1.0311062E3,1.1965204E3,1.2896908E3,1.766466E2,2.6007666E2,3.0725E2,3.9257843E2,0E0,0E0,0E0,0E0,0E0,0E0,0E0,0E0,0E0,0E0,0E0,0E0,0E0,0E0,0E0,0E0,0E0,0E0,0E0,0E0,0E0,0E0,0E0,0E0,0E0,0E0,0E0,0E0,0E0,0E0,0E0,0E0],"parents":[2147483647,0,0,1,1,2,2,3,3,4,4,5,5,6,6,7,7,8,8,9,9,10,10,11,11,12,12,13,13,14,14,15,15,16,16,17,17,18,18,19,19,20,20,21,21,22,22,23,23,24,24,25,25,26,26,27,27,28,28,29,29,30,30],"right_children":[2,4,6,8,10,12,14,16,18,20,22,24,26,28,30,32,34,36,38,40,42,44,46,48,50,52,54,56,58,60,62,-1,-1,-1,-1,-1,-1,-1,-1,-1,-1,-1,-1,-1,-1,-1,-1,-1,-1,-1,-1,-1,-1,-1,-1,-1,-1,-1,-1,-1,-1,-1,-1],"split_conditions":[1.95E1,5E-1,3.5E0,-1.04706406E2,5.05E1,4.15E1,4.05E1,-1.05136444E2,3.75E1,5E-1,5E-1,2.25E1,5E-1,2.5965725E1,5.45E1,3.7812645E1,-1.0485335E2,3.729915E1,4.5264492E1,5E-1,5E-1,3.8780396E1,1.45E1,2.05E1,5.156519E0,1.5E0,7.85E1,2.0438812E1,5E-1,5E-1,4.9752016E0,-7.8852475E-3,7.9000456E-4,-3.246231E-2,-1.0904314E-2,-2.7300275E-4,1.2345552E-2,6.635986E-4,1.072798E-2,-9.514292E-3,1.0711555E-2,2.5474047E-2,-1.1351468E-3,2.592651E-3,-9.492347E-4,-1.6685912E-2,-3.233659E-3,8.462839E-3,-3.7985803E-3,-3.0075412E-2,-6.3161305E-3,-6.1762594E-3,5.896636E-4,4.5238254E-3,-6.857359E-3,6.24925E-2,-4.8396677E-2,1.1111349E-2,-2.969381E-3,2.4733488E-3,3.842053E-2,-1.163158E-2,1.7433418E-5],"split_indices":[64,62,66,67,61,61,61,67,61,3,58,64,62,68,61,68,67,68,68,23,56,68,64,64,65,66,61,68,51,57,65,0,0,0,0,0,0,0,0,0,0,0,0,0,0,0,0,0,0,0,0,0,0,0,0,0,0,0,0,0,0,0,0],"split_type":[0,0,0,0,0,0,0,0,0,0,0,0,0,0,0,0,0,0,0,0,0,0,0,0,0,0,0,0,0,0,0,0,0,0,0,0,0,0,0,0,0,0,0,0,0,0,0,0,0,0,0,0,0,0,0,0,0,0,0,0,0,0,0],"sum_hessian":[8.837419E7,4.5616204E7,4.275799E7,2.3492312E7,2.2123892E7,3.377556E7,8.982432E6,3.859473E6,1.963284E7,6.685382E6,1.543851E7,8.677773E6,2.5097788E7,3.583436E6,5.398996E6,3.681552E6,1.77921E5,2.96123E6,1.6671609E7,6.408102E6,2.7728E5,1.1931076E7,3.507434E6,7.973277E6,7.04496E5,1.3059118E7,1.2038669E7,2.0665E4,3.562771E6,4.079929E6,1.319067E6,1.836074E6,1.845478E6,1.04973E5,7.2948E4,1.210677E6,1.750553E6,1.6157829E7,5.1378E5,6.264236E6,1.43866E5,1.19091E5,1.58189E5,5.765558E6,6.165518E6,2.90096E5,3.217338E6,1.432071E6,6.541206E6,4.43162E5,2.61334E5,3.077739E6,9.981379E6,1.1063601E7,9.75068E5,1.385E3,1.928E4,3.440519E6,1.22252E5,4.058417E6,2.1512E4,3.56978E5,9.62089E5],"tree_param":{"num_deleted":"0","num_feature":"69","num_nodes":"63","size_leaf_vector":"0"}},{"base_weights":[1.3783819E-4,-1.4461069E-2,7.937561E-4,-5.7389017E-2,-9.406383E-4,-3.140132E-4,1.297856E-2,-3.6217514E-3,-1.2975088E-1,8.253695E-3,-3.1738456E-2,8.936413E-4,-1.2227627E-2,1.5924113E-2,-2.1813005E-2,1.0134491E-1,-1.11848E-2,-2.0131986E-1,-5.0278805E-2,-6.2429714E-3,2.7890133E-2,-9.33762E-2,2.1553334E-2,1.331502E-3,-3.4581788E-2,-3.9915502E-2,-4.278747E-3,2.7244199E-2,8.864703E-3,-4.7358245E-2,1.3143175E-2,2.623623E-1,8.3329014E-2,-2.5787607E-2,5.1372502E-2,-1.4638506E-1,-2.839612E-1,-9.76897E-2,2.3384947E-2,-3.1010173E-2,1.2001794E-2,-1.7838405E-2,3.4530707E-2,-2.429497E-1,-6.878022E-2,3.9702307E-2,-1.2389779E-2,2.0170012E-3,-1.6548155E-2,1.6479086E-2,-4.7743626E-2,2.0413624E-2,-5.9658382E-2,3.6192585E-3,-2.4501769E-2,4.5972466E-2,9.2992745E-3,1.1128612E-2,-3.666649E-2,-1.5969893E-2,-7.7390395E-2,1.8061614E-2,-1.580602E-1],"categories":[],"categories_nodes":[],"categories_segments":[],"categories_sizes":[],"default_left":[1,1,1,1,1,1,1,1,1,1,1,1,1,1,1,1,1,1,1,1,1,1,1,1,1,1,1,1,1,1,1,0,0,0,0,0,0,0,0,0,0,0,0,0,0,0,0,0,0,0,0,0,0,0,0,0,0,0,0,0,0,0,0],"id":21,"left_children":[1,3,5,7,9,11,13,15,17,19,21,23,25,27,29,31,33,35,37,39,41,43,45,47,49,51,53,55,57,59,61,-1,-1,-1,-1,-1,-1,-1,-1,-1,-1,-1,-1,-1,-1,-1,-1,-1,-1,-1,-1,-1,-1,-1,-1,-1,-1,-1,-1,-1,-1,-1,-1],"loss_changes":[8.4624347E2,2.205456E3,1.1415802E3,3.5410688E3,8.1827045E2,1.1154095E3,7.223036E2,4.1452567E2,2.2067173E3,6.334798E2,2.182276E3,1.093401E3,1.5704008E3,5.192805E2,4.9126028E2,1.0178134E2,4.449411E2,9.2673047E2,6.420604E2,5.785015E2,2.870042E2,1.1332961E3,2.1949417E2,8.5222516E2,5.7676904E2,1.8956602E3,8.854623E2,8.387988E2,4.1254263E2,2.9963263E2,1.956E2,0E0,0E0,0E0,0E0,0E0,0E0,0E0,0E0,0E0,0E0,0E0,0E0,0E0,0E0,0E0,0E0,0E0,0E0,0E0,0E0,0E0,0E0,0E0,0E0,0E0,0E0,0E0,0E0,0E0,0E0,0E0,0E0],"parents":[2147483647,0,0,1,1,2,2,3,3,4,4,5,5,6,6,7,7,8,8,9,9,10,10,11,11,12,12,13,13,14,14,15,15,16,16,17,17,18,18,19,19,20,20,21,21,22,22,23,23,24,24,25,25,26,26,27,27,28,28,29,29,30,30],"right_children":[2,4,6,8,10,12,14,16,18,20,22,24,26,28,30,32,34,36,38,40,42,44,46,48,50,52,54,56,58,60,62,-1,-1,-1,-1,-1,-1,-1,-1,-1,-1,-1,-1,-1,-1,-1,-1,-1,-1,-1,-1,-1,-1,-1,-1,-1,-1,-1,-1,-1,-1,-1,-1],"split_conditions":[-1.2216556E2,3.7937447E1,4.3453346E1,3.775399E1,4.7535236E1,-7.4163895E1,7.95E1,2.0438812E1,-1.2234047E2,4.9347E0,4.7704144E1,5E-1,-7.3909386E1,5E-1,-9.12554E1,4.2843943E0,5E-1,-1.22419334E2,-1.2223506E2,5.65E1,1.75E1,-1.22362366E2,2.5E0,5E-1,-8.963786E1,4.0649223E1,-7.143149E1,5E-1,5E-1,5E-1,-6.847792E1,7.870869E-2,2.4998706E-2,-7.7362824E-3,1.5411751E-2,-4.3915518E-2,-8.518837E-2,-2.9306913E-2,7.0154844E-3,-9.303052E-3,3.6005382E-3,-5.351522E-3,1.0359213E-2,-7.288491E-2,-2.0634066E-2,1.1910693E-2,-3.7169338E-3,6.0510036E-4,-4.9644466E-3,4.943726E-3,-1.4323088E-2,6.1240876E-3,-1.7897515E-2,1.0857777E-3,-7.350531E-3,1.3791741E-2,2.7897824E-3,3.3385837E-3,-1.0999948E-2,-4.7909683E-3,-2.321712E-2,5.418484E-3,-4.741806E-2],"split_indices":[67,68,68,68,68,67,61,68,67,65,68,54,67,56,67,65,60,67,67,61,64,67,66,51,67,68,67,62,31,62,67,0,0,0,0,0,0,0,0,0,0,0,0,0,0,0,0,0,0,0,0,0,0,0,0,0,0,0,0,0,0,0,0],"split_type":[0,0,0,0,0,0,0,0,0,0,0,0,0,0,0,0,0,0,0,0,0,0,0,0,0,0,0,0,0,0,0,0,0,0,0,0,0,0,0,0,0,0,0,0,0,0,0,0,0,0,0,0,0,0,0,0,0,0,0,0,0,0,0],"sum_hessian":[8.837419E7,3.79986E6,8.457434E7,9.10136E5,2.889724E6,7.752613E7,7.048209E6,5.22157E5,3.87979E5,2.225367E6,6.64357E5,7.039078E7,7.135344E6,6.498065E6,5.50144E5,3.5093E4,4.87064E5,2.04139E5,1.8384E5,1.280232E6,9.45135E5,3.08056E5,3.56301E5,6.953257E7,8.58215E5,1.591558E6,5.543786E6,2.495851E6,4.002214E6,3.17859E5,2.32285E5,3.53E3,3.1563E4,3.94886E5,9.2178E4,1.22627E5,8.1512E4,1.11851E5,7.1989E4,5.43047E5,7.37185E5,1.19846E5,8.25289E5,4.3502E4,2.64554E5,2.32165E5,1.24136E5,6.696515E7,2.567417E6,1.75883E5,6.82332E5,3.92421E5,1.199137E6,3.986772E6,1.557014E6,1.221269E6,1.274582E6,3.812642E6,1.89572E5,1.55421E5,1.62438E5,2.25799E5,6.486E3],"tree_param":{"num_deleted":"0","num_feature":"69","num_nodes":"63","size_leaf_vector":"0"}},{"base_weights":[9.648072E-5,-9.4518275E-4,8.941052E-3,-1.9518904E-2,-1.5477452E-4,4.3510623E-2,5.750397E-3,7.172585E-2,-2.1022031E-2,-7.1913255E-3,1.2826888E-3,2.3917044E-2,7.560745E-2,5.876397E-3,-2.9832172E-1,2.4045585E-1,5.2278172E-2,-3.5328098E-2,-1.0535716E-2,-1.9878203E-3,-4.138567E-2,-1.5256802E-2,2.3064066E-3,2.5621033E-1,2.0160994E-2,7.6403596E-2,-6.705184E-1,3.3719186E-3,2.2281649E-2,4.689065E-2,-5.850387E-1,1.8754657E-1,5.7957286E-1,4.1925073E-2,4.492219E-1,-3.899206E-2,2.9124398E-2,-4.6506424E-2,-6.1254497E-3,-9.939713E-3,1.2010218E-2,-5.6178708E-2,5.7309098E-3,-2.2857126E-2,3.907915E-3,5.234245E-4,1.0625955E-2,-7.452596E-2,3.5544366E-1,2.5367131E-2,-1.3352862E-1,7.747421E-2,-3.8223878E-1,-1.8873419E-1,-9.004488E-1,9.689384E-3,-2.4210687E-3,1.813854E-2,7.4760966E-2,8.6636044E-2,-7.7550584E-1,-7.152628E-1,7.9429485E-2],"categories":[],"categories_nodes":[],"categories_segments":[],"categories_sizes":[],"default_left":[1,1,1,1,1,1,1,1,1,1,1,1,1,1,1,1,1,1,1,1,1,1,1,1,1,1,1,1,1,1,1,0,0,0,0,0,0,0,0,0,0,0,0,0,0,0,0,0,0,0,0,0,0,0,0,0,0,0,0,0,0,0,0],"id":22,"left_children":[1,3,5,7,9,11,13,15,17,19,21,23,25,27,29,31,33,35,37,39,41,43,45,47,49,51,53,55,57,59,61,-1,-1,-1,-1,-1,-1,-1,-1,-1,-1,-1,-1,-1,-1,-1,-1,-1,-1,-1,-1,-1,-1,-1,-1,-1,-1,-1,-1,-1,-1,-1,-1],"loss_changes":[8.1419727E2,1.1607047E3,1.0270596E3,4.4261865E2,7.670592E2,4.9481323E2,3.2661096E2,1.716116E2,4.7629028E2,2.2889175E3,1.0662164E3,4.262687E2,1.7721497E2,3.5010773E2,3.4951965E2,9.687018E1,1.9271313E2,3.1712146E2,2.9063275E2,1.2427948E3,1.1842261E3,5.3463086E2,8.796461E2,2.5516971E2,3.8469757E2,1.4631982E2,3.50571E1,2.7054825E2,2.4538367E2,5.24636E1,1.6697266E2,0E0,0E0,0E0,0E0,0E0,0E0,0E0,0E0,0E0,0E0,0E0,0E0,0E0,0E0,0E0,0E0,0E0,0E0,0E0,0E0,0E0,0E0,0E0,0E0,0E0,0E0,0E0,0E0,0E0,0E0,0E0,0E0],"parents":[2147483647,0,0,1,1,2,2,3,3,4,4,5,5,6,6,7,7,8,8,9,9,10,10,11,11,12,12,13,13,14,14,15,15,16,16,17,17,18,18,19,19,20,20,21,21,22,22,23,23,24,24,25,25,26,26,27,27,28,28,29,29,30,30],"right_children":[2,4,6,8,10,12,14,16,18,20,22,24,26,28,30,32,34,36,38,40,42,44,46,48,50,52,54,56,58,60,62,-1,-1,-1,-1,-1,-1,-1,-1,-1,-1,-1,-1,-1,-1,-1,-1,-1,-1,-1,-1,-1,-1,-1,-1,-1,-1,-1,-1,-1,-1,-1,-1],"split_conditions":[5E-1,1.45E1,5.85E1,2.35E1,3.3073776E1,1.95E1,5.6830015E0,1.75E1,5E-1,3.271943E1,4.2876897E0,2.95E1,4.8664146E1,4.93664E0,5E-1,5E-1,5E-1,8.25E1,4.2962265E0,3.0537378E1,-9.6677414E1,1.95E1,5E-1,-9.419096E1,-7.308088E1,5E-1,5.7E1,3.8424347E1,5E-1,5E-1,5.69736E0,5.6263972E-2,1.7387186E-1,1.2577523E-2,1.3476658E-1,-1.1697618E-2,8.73732E-3,-1.3951927E-2,-1.837635E-3,-2.9819142E-3,3.6030654E-3,-1.6853614E-2,1.719273E-3,-6.857138E-3,1.1723746E-3,1.5702735E-4,3.1877866E-3,-2.2357788E-2,1.06633104E-1,7.61014E-3,-4.0058587E-2,2.3242263E-2,-1.1467164E-1,-5.662026E-2,-2.7013466E-1,2.9068154E-3,-7.2632066E-4,5.4415623E-3,2.242829E-2,2.5990814E-2,-2.3265176E-1,-2.1457884E-1,2.3828847E-2],"split_indices":[57,64,61,61,68,64,65,61,56,68,65,61,68,65,62,14,45,61,65,68,67,64,60,67,67,46,61,68,3,33,65,0,0,0,0,0,0,0,0,0,0,0,0,0,0,0,0,0,0,0,0,0,0,0,0,0,0,0,0,0,0,0,0],"split_type":[0,0,0,0,0,0,0,0,0,0,0,0,0,0,0,0,0,0,0,0,0,0,0,0,0,0,0,0,0,0,0,0,0,0,0,0,0,0,0,0,0,0,0,0,0,0,0,0,0,0,0,0,0,0,0,0,0,0,0,0,0,0,0],"sum_hessian":[8.837419E7,7.906265E7,9.31155E6,3.227191E6,7.583546E7,7.86804E5,8.524746E6,5.2301E4,3.17489E6,1.2864113E7,6.2971344E7,4.88562E5,2.98242E5,8.521216E6,3.53E3,5.404E3,4.6897E4,1.342867E6,1.832023E6,1.1165075E7,1.699038E6,3.67045E6,5.9300892E7,7.773E3,4.80789E5,2.97925E5,3.17E2,7.392634E6,1.128582E6,1.602E3,1.928E3,4.676E3,7.28E2,4.5706E4,1.191E3,1.270635E6,7.2232E4,2.00086E5,1.631937E6,7.120257E6,4.044818E6,1.29306E6,4.05978E5,2.628172E6,1.042278E6,4.8834956E7,1.0465935E7,1.794E3,5.979E3,4.65037E5,1.5752E4,2.97232E5,6.93E2,1.03E2,2.14E2,3.536237E6,3.856397E6,1.046004E6,8.2578E4,1.529E3,7.3E1,1.612E3,3.16E2],"tree_param":{"num_deleted":"0","num_feature":"69","num_nodes":"63","size_leaf_vector":"0"}},{"base_weights":[6.754951E-5,-1.859411E-4,3.4569435E-2,-4.834935E-4,2.842887E-2,4.758167E-2,-8.281209E-3,-8.3355495E-4,2.4262186E-2,-3.195374E-2,3.5651315E-2,-2.512286E-1,4.9673297E-2,-1.722413E-1,-3.1373368E-3,-1.0915999E-3,3.1837337E-2,1.8235318E-2,1.2331892E-1,-8.885839E-2,-6.566658E-3,5.6455556E-2,1.8176887E-2,-4.623221E-1,-8.537992E-2,5.7145584E-2,1.790391E-2,-9.401309E-2,-8.381261E-1,-2.3242457E-2,1.8100115E-2,-6.76938E-4,-4.0712554E-2,7.295191E-2,1.6304424E-2,3.285453E-2,-3.482539E-2,3.0295685E-1,8.98096E-2,-7.9267494E-2,-3.780289E-1,-2.8784884E-2,9.3948595E-2,8.531417E-2,4.555171E-2,5.5056993E-2,1.0314173E-2,-5.4318357E-1,2.0109351E-1,4.1750588E-2,-5.9269273E-1,3.1734076E-1,5.568145E-2,-3.7505403E-1,2.2853356E-2,-5.4466474E-1,-3.7757945E-3,4.4156738E-2,-9.3625975E-1,-2.0797212E-2,-9.7805953E-1,-2.4997728E-2,3.6507577E-2],"categories":[],"categories_nodes":[],"categories_segments":[],"categories_sizes":[],"default_left":[1,1,1,1,1,1,1,1,1,1,1,1,1,1,1,1,1,1,1,1,1,1,1,1,1,1,1,1,1,1,1,0,0,0,0,0,0,0,0,0,0,0,0,0,0,0,0,0,0,0,0,0,0,0,0,0,0,0,0,0,0,0,0],"id":23,"left_children":[1,3,5,7,9,11,13,15,17,19,21,23,25,27,29,31,33,35,37,39,41,43,45,47,49,51,53,55,57,59,61,-1,-1,-1,-1,-1,-1,-1,-1,-1,-1,-1,-1,-1,-1,-1,-1,-1,-1,-1,-1,-1,-1,-1,-1,-1,-1,-1,-1,-1,-1,-1,-1],"loss_changes":[7.729122E2,7.469657E2,3.5939752E2,7.521377E2,3.9375275E2,3.0902722E2,1.26626E2,7.2178766E2,7.230565E2,1.3934537E2,2.9316528E2,1.2028842E2,1.1655469E2,2.3782071E2,6.215783E1,1.395582E3,4.284679E2,8.856152E2,4.181084E2,8.2498276E1,1.4896408E2,1.15836426E2,1.2709206E2,8.122009E1,1.2424199E2,1.5141223E2,1.8184727E2,1.6623886E2,4.1600555E1,1.7457552E2,5.6163345E1,0E0,0E0,0E0,0E0,0E0,0E0,0E0,0E0,0E0,0E0,0E0,0E0,0E0,0E0,0E0,0E0,0E0,0E0,0E0,0E0,0E0,0E0,0E0,0E0,0E0,0E0,0E0,0E0,0E0,0E0,0E0,0E0],"parents":[2147483647,0,0,1,1,2,2,3,3,4,4,5,5,6,6,7,7,8,8,9,9,10,10,11,11,12,12,13,13,14,14,15,15,16,16,17,17,18,18,19,19,20,20,21,21,22,22,23,23,24,24,25,25,26,26,27,27,28,28,29,29,30,30],"right_children":[2,4,6,8,10,12,14,16,18,20,22,24,26,28,30,32,34,36,38,40,42,44,46,48,50,52,54,56,58,60,62,-1,-1,-1,-1,-1,-1,-1,-1,-1,-1,-1,-1,-1,-1,-1,-1,-1,-1,-1,-1,-1,-1,-1,-1,-1,-1,-1,-1,-1,-1,-1,-1],"split_conditions":[5E-1,5E-1,4.965437E0,5E-1,3.0629726E1,4.019737E0,4.9740505E0,-7.0882996E1,-8.986523E1,1.75E1,5E-1,3.8401695E1,2.05E1,4.9732203E0,2.05E1,-7.119832E1,4.232872E1,-9.022125E1,3.55E1,5E-1,5E-1,3.2129936E1,3.1479233E1,1.5E0,4.0149355E0,4.0388174E0,4.088999E0,4.15E1,6.05E1,5.644348E0,5.0570955E0,-2.030814E-4,-1.2213767E-2,2.1885574E-2,4.8913276E-3,9.85636E-3,-1.0447617E-2,9.0887055E-2,2.694288E-2,-2.3780249E-2,-1.1340868E-1,-8.635466E-3,2.818458E-2,2.5594251E-2,1.3665513E-2,1.6517099E-2,3.094252E-3,-1.6295508E-1,6.0328055E-2,1.2525177E-2,-1.7780782E-1,9.520223E-2,1.6704435E-2,-1.1251622E-1,6.856007E-3,-1.6339943E-1,-1.1327384E-3,1.32470215E-2,-2.8087795E-1,-6.2391637E-3,-2.9341787E-1,-7.4993186E-3,1.0952273E-2],"split_indices":[53,29,65,23,68,65,65,67,67,64,56,68,64,65,64,67,68,67,61,59,63,68,68,66,65,65,65,61,61,65,65,0,0,0,0,0,0,0,0,0,0,0,0,0,0,0,0,0,0,0,0,0,0,0,0,0,0,0,0,0,0,0,0],"split_type":[0,0,0,0,0,0,0,0,0,0,0,0,0,0,0,0,0,0,0,0,0,0,0,0,0,0,0,0,0,0,0,0,0,0,0,0,0,0,0,0,0,0,0,0,0,0,0,0,0,0,0,0,0,0,0,0,0,0,0,0,0,0,0],"sum_hessian":[8.837419E7,8.772963E7,6.44562E5,8.682676E7,9.02871E5,4.94423E5,1.50139E5,8.561562E7,1.211149E6,9.6456E4,8.06415E5,3.436E3,4.90987E5,4.566E3,1.45573E5,8.4944696E7,6.70919E5,1.141687E6,6.9462E4,2.9756E4,6.67E4,3.68132E5,4.38283E5,1.511E3,1.925E3,3.97494E5,9.3493E4,4.087E3,4.79E2,7.478E4,7.0793E4,8.40649E7,8.79799E5,1.83967E5,4.86952E5,8.95077E5,2.4661E5,1.0919E4,5.8543E4,2.8802E4,9.54E2,5.4626E4,1.2074E4,1.00949E5,2.67183E5,7.7019E4,3.61264E5,1.347E3,1.64E2,1.54E3,3.85E2,2.223E3,3.95271E5,1.162E3,9.2331E4,6.81E2,3.406E3,4.8E1,4.31E2,7.459E4,1.9E2,2.1187E4,4.9606E4],"tree_param":{"num_deleted":"0","num_feature":"69","num_nodes":"63","size_leaf_vector":"0"}},{"base_weights":[4.726704E-5,-6.461387E-4,9.882438E-3,-1.0078397E-2,3.597281E-4,2.1934403E-2,3.3100443E-3,-2.145689E-3,-6.863739E-2,6.194613E-4,-4.4905614E-2,4.179679E-2,1.594966E-2,-2.2780526E-2,6.3064895E-3,-8.878949E-3,2.602529E-2,-8.34139E-2,3.912981E-2,2.4588474E-3,-4.9378197E-3,-8.596478E-2,5.4819873E-3,-2.3356477E-2,5.9755716E-2,1.668005E-2,-1.4605735E-1,-8.0364764E-2,-9.117166E-3,4.368281E-3,5.777332E-2,-3.7604667E-2,2.3380474E-3,-1.8586543E-1,3.0260503E-2,-1.4434141E-2,-1.2087166E-1,1.8082187E-2,1.2625824E-1,-3.9783726E-3,5.1563513E-3,-1.8882332E-2,-1.0735522E-3,-1.00289226E-1,2.0563307E-4,2.6853751E-2,-8.731295E-2,2.4529738E-2,-1.0380396E-1,4.2572107E-2,1.01554655E-1,1.3956937E-2,5.181385E-2,-3.926357E-2,-4.722847E-1,-4.0288854E-2,-1.8269038E-1,-8.106531E-2,2.8996174E-3,2.3787035E-2,2.3521613E-3,7.641054E-2,-3.2703128E-2],"categories":[],"categories_nodes":[],"categories_segments":[],"categories_sizes":[],"default_left":[1,1,1,1,1,1,1,1,1,1,1,1,1,1,1,1,1,1,1,1,1,1,1,1,1,1,1,1,1,1,1,0,0,0,0,0,0,0,0,0,0,0,0,0,0,0,0,0,0,0,0,0,0,0,0,0,0,0,0,0,0,0,0],"id":24,"left_children":[1,3,5,7,9,11,13,15,17,19,21,23,25,27,29,31,33,35,37,39,41,43,45,47,49,51,53,55,57,59,61,-1,-1,-1,-1,-1,-1,-1,-1,-1,-1,-1,-1,-1,-1,-1,-1,-1,-1,-1,-1,-1,-1,-1,-1,-1,-1,-1,-1,-1,-1,-1,-1],"loss_changes":[6.0269116E2,7.832382E2,4.6102515E2,3.695479E3,8.770498E2,2.4415253E2,2.944489E2,1.3289521E3,1.5113638E3,7.5819574E2,8.80525E2,5.564624E2,1.8676657E2,3.0527225E2,3.370016E2,1.8220203E3,1.2128821E3,2.1565952E3,2.0987039E2,9.676824E2,9.9392456E2,2.894673E2,3.789823E2,3.9587906E2,2.6777026E2,1.5032819E2,2.4678134E2,3.051203E2,2.7112555E2,1.2746389E2,2.0674939E2,0E0,0E0,0E0,0E0,0E0,0E0,0E0,0E0,0E0,0E0,0E0,0E0,0E0,0E0,0E0,0E0,0E0,0E0,0E0,0E0,0E0,0E0,0E0,0E0,0E0,0E0,0E0,0E0,0E0,0E0,0E0,0E0],"parents":[2147483647,0,0,1,1,2,2,3,3,4,4,5,5,6,6,7,7,8,8,9,9,10,10,11,11,12,12,13,13,14,14,15,15,16,16,17,17,18,18,19,19,20,20,21,21,22,22,23,23,24,24,25,25,26,26,27,27,28,28,29,29,30,30],"right_children":[2,4,6,8,10,12,14,16,18,20,22,24,26,28,30,32,34,36,38,40,42,44,46,48,50,52,54,56,58,60,62,-1,-1,-1,-1,-1,-1,-1,-1,-1,-1,-1,-1,-1,-1,-1,-1,-1,-1,-1,-1,-1,-1,-1,-1,-1,-1,-1,-1,-1,-1,-1,-1],"split_conditions":[5.3324485E0,-1.1812692E2,4.85E1,-1.1845381E2,5E-1,-1.1534613E2,1.5E0,-1.2083067E2,3.4215225E1,-7.8943756E1,3.6214073E1,-1.2235239E2,5E-1,1.85E1,5E-1,3.794725E1,3.4046402E1,3.3995667E1,7.05E1,3.359911E1,3.9107933E1,5E-1,3.5E0,-1.2244745E2,5.4924808E0,5E-1,-7.412161E1,5E-1,5.45E1,5E-1,5.571359E0,-1.1281401E-2,7.0141425E-4,-5.575963E-2,9.078152E-3,-4.3302425E-3,-3.62615E-2,5.424656E-3,3.7877474E-2,-1.1935118E-3,1.5469055E-3,-5.6646997E-3,-3.2206567E-4,-3.0086769E-2,6.168993E-5,8.056126E-3,-2.6193887E-2,7.3589217E-3,-3.114119E-2,1.27716325E-2,3.0466398E-2,4.1870815E-3,1.5544155E-2,-1.1779071E-2,-1.4168541E-1,-1.2086657E-2,-5.4807115E-2,-2.4319595E-2,8.6988526E-4,7.1361107E-3,7.0564845E-4,2.2923162E-2,-9.8109385E-3],"split_indices":[65,67,61,67,33,67,66,67,68,67,68,67,59,64,63,68,68,68,61,68,68,3,66,67,65,35,67,58,61,56,65,0,0,0,0,0,0,0,0,0,0,0,0,0,0,0,0,0,0,0,0,0,0,0,0,0,0,0,0,0,0,0,0],"split_type":[0,0,0,0,0,0,0,0,0,0,0,0,0,0,0,0,0,0,0,0,0,0,0,0,0,0,0,0,0,0,0,0,0,0,0,0,0,0,0,0,0,0,0,0,0,0,0,0,0,0,0,0,0,0,0,0,0,0,0,0,0,0,0],"sum_hessian":[8.837419E7,8.255393E7,5.82027E6,7.955283E6,7.459864E7,2.053928E6,3.766342E6,7.006189E6,9.49094E5,7.417304E7,4.25605E5,4.75573E5,1.578355E6,3.87995E5,3.378347E6,5.654649E6,1.35154E6,8.34651E5,1.14443E5,5.5727856E7,1.844518E7,2.3451E5,1.91095E5,1.02762E5,3.72811E5,1.571272E6,7.083E3,7.4406E4,3.13589E5,3.255739E6,1.22608E5,1.587978E6,4.066671E6,2.6484E4,1.325056E6,2.93733E5,5.40918E5,9.2177E4,2.2266E4,1.6456558E7,3.92713E7,4.002357E6,1.4442823E7,2.01083E5,3.3427E4,1.55323E5,3.5772E4,