{"learner":{"attributes":{"best_iteration":"99","best_ntree_limit":"100","scikit_learn":"{\"n_estimators\": 100, \"objective\": \"reg:squarederror\", \"max_depth\": 5, \"max_leaves\": null, \"max_bin\": null, \"grow_policy\": null, \"learning_rate\": null, \"verbosity\": null, \"booster\": null, \"tree_method\": null, \"gamma\": null, \"min_child_weight\": null, \"max_delta_step\": null, \"subsample\": null, \"sampling_method\": null, \"colsample_bytree\": null, \"colsample_bylevel\": null, \"colsample_bynode\": null, \"reg_alpha\": null, \"reg_lambda\": null, \"scale_pos_weight\": null, \"base_score\": null, \"missing\": NaN, \"num_parallel_tree\": null, \"random_state\": null, \"n_jobs\": null, \"monotone_constraints\": null, \"interaction_constraints\": null, \"importance_type\": null, \"gpu_id\": null, \"validate_parameters\": null, \"predictor\": null, \"enable_categorical\": false, \"max_cat_to_onehot\": null, \"eval_metric\": null, \"early_stopping_rounds\": null, \"callbacks\": null, \"_estimator_type\": \"regressor\"}"},"feature_names":[],"feature_types":[],"gradient_booster":{"model":{"gbtree_model_param":{"num_parallel_tree":"1","num_trees":"100","size_leaf_vector":"0"},"tree_info":[0,0,0,0,0,0,0,0,0,0,0,0,0,0,0,0,0,0,0,0,0,0,0,0,0,0,0,0,0,0,0,0,0,0,0,0,0,0,0,0,0,0,0,0,0,0,0,0,0,0,0,0,0,0,0,0,0,0,0,0,0,0,0,0,0,0,0,0,0,0,0,0,0,0,0,0,0,0,0,0,0,0,0,0,0,0,0,0,0,0,0,0,0,0,0,0,0,0,0,0],"trees":[{"base_weights":[2.4968676E-1,-8.3527535E-2,2.9882383E-1,-2.2504374E-1,9.0649046E-2,1.8327095E-1,3.8477176E-1,-3.1889132E-1,-1.404038E-1,-1.1395542E-1,1.9327201E-1,3.5827212E-2,2.2882243E-1,3.059287E-1,4.1461498E-1,-3.6363357E-1,-2.5737697E-1,-2.5175503E-1,-7.8064874E-2,-2.0878972E-1,-4.3002464E-2,2.1548367E-1,-2.0929135E-1,-7.514662E-2,1.5566178E-1,1.2962489E-1,2.8490856E-1,1.5710144E-1,3.7159812E-1,4.2041862E-1,1.677516E-1,-3.9930904E-1,-3.3302227E-1,-2.1513134E-1,-3.709925E-1,-2.0012972E-1,-3.0596277E-1,-6.610721E-2,-3.2464367E-1,-2.9333168E-1,-1.3216968E-1,-2.4710082E-1,-1.6688332E-2,1.2993E-1,2.6892096E-1,-2.8779218E-1,-6.4360365E-2,-2.4823185E-2,-2.2287868E-1,8.615487E-2,2.0101288E-1,4.155873E-2,2.2130355E-1,3.0322865E-1,1.5955567E-1,1.8147866E-1,-1.9809635E-1,1.8875092E-1,3.873745E-1,3.6535224E-1,4.3820396E-1,1.8572522E-2,2.2627883E-1],"categories":[],"categories_nodes":[],"categories_segments":[],"categories_sizes":[],"default_left":[1,1,1,1,1,1,1,1,1,1,1,1,1,1,1,1,1,1,1,1,1,1,1,1,1,1,1,1,1,1,1,0,0,0,0,0,0,0,0,0,0,0,0,0,0,0,0,0,0,0,0,0,0,0,0,0,0,0,0,0,0,0,0],"id":0,"left_children":[1,3,5,7,9,11,13,15,17,19,21,23,25,27,29,31,33,35,37,39,41,43,45,47,49,51,53,55,57,59,61,-1,-1,-1,-1,-1,-1,-1,-1,-1,-1,-1,-1,-1,-1,-1,-1,-1,-1,-1,-1,-1,-1,-1,-1,-1,-1,-1,-1,-1,-1,-1,-1],"loss_changes":[1.375821E6,2.6617766E5,7.272875E5,4.7325906E4,1.016429E5,2.0978638E5,9.88105E4,7.776E3,2.1745535E4,1.0880219E4,2.8826266E4,9.8040945E4,1.3276538E5,1.126965E5,4.36455E4,1.7861094E3,5.710117E3,3.146414E3,5.9215674E3,4.482623E3,4.967582E3,1.3967844E4,1.9179043E3,2.8456418E4,1.11735E4,6.958819E4,3.500775E4,3.0567719E4,2.307925E4,2.91495E4,6.109451E3,0E0,0E0,0E0,0E0,0E0,0E0,0E0,0E0,0E0,0E0,0E0,0E0,0E0,0E0,0E0,0E0,0E0,0E0,0E0,0E0,0E0,0E0,0E0,0E0,0E0,0E0,0E0,0E0,0E0,0E0,0E0,0E0],"parents":[2147483647,0,0,1,1,2,2,3,3,4,4,5,5,6,6,7,7,8,8,9,9,10,10,11,11,12,12,13,13,14,14,15,15,16,16,17,17,18,18,19,19,20,20,21,21,22,22,23,23,24,24,25,25,26,26,27,27,28,28,29,29,30,30],"right_children":[2,4,6,8,10,12,14,16,18,20,22,24,26,28,30,32,34,36,38,40,42,44,46,48,50,52,54,56,58,60,62,-1,-1,-1,-1,-1,-1,-1,-1,-1,-1,-1,-1,-1,-1,-1,-1,-1,-1,-1,-1,-1,-1,-1,-1,-1,-1,-1,-1,-1,-1,-1,-1],"split_conditions":[3.35E1,5E-1,5E-1,4.59034E0,4.698992E0,4.85E1,4.6991873E0,2.75E1,2.65E1,4.503995E0,5E-1,4.6944737E0,4.404953E0,5.45E1,5E-1,2.35E1,5E-1,2.05E1,5E-1,2.75E1,-1.1530733E2,4.8802533E0,5.0415306E0,5E-1,4.05E1,5E-1,5E-1,5E-1,5E-1,4.55E1,3.95E1,-1.19792715E-1,-9.990668E-2,-6.45394E-2,-1.1129776E-1,-6.0038917E-2,-9.1788836E-2,-1.9832164E-2,-9.73931E-2,-8.799951E-2,-3.9650906E-2,-7.4130245E-2,-5.0064996E-3,3.8979E-2,8.067629E-2,-8.6337656E-2,-1.930811E-2,-7.446956E-3,-6.6863604E-2,2.5846463E-2,6.0303867E-2,1.246762E-2,6.6391066E-2,9.0968594E-2,4.7866706E-2,5.44436E-2,-5.9428908E-2,5.662528E-2,1.1621235E-1,1.0960568E-1,1.3146119E-1,5.571757E-3,6.788365E-2],"split_indices":[61,56,56,65,65,61,65,61,61,65,4,65,65,61,4,61,63,64,4,61,67,65,65,63,61,57,63,4,0,61,61,0,0,0,0,0,0,0,0,0,0,0,0,0,0,0,0,0,0,0,0,0,0,0,0,0,0,0,0,0,0,0,0],"split_type":[0,0,0,0,0,0,0,0,0,0,0,0,0,0,0,0,0,0,0,0,0,0,0,0,0,0,0,0,0,0,0,0,0,0,0,0,0,0,0,0,0,0,0,0,0,0,0,0,0,0,0,0,0,0,0,0,0,0,0,0,0,0,0],"sum_hessian":[8.402898E7,1.0798803E7,7.323018E7,5.958003E6,4.8408E6,3.123552E7,4.1994656E7,2.825322E6,3.132681E6,1.616969E6,3.223831E6,7.372328E6,2.3863192E7,1.153095E7,3.0463708E7,1.63564E6,1.189682E6,1.124346E6,2.008335E6,6.92023E5,9.24946E5,3.055256E6,1.68575E5,3.827676E6,3.544652E6,8.619027E6,1.5244164E7,3.530269E6,8.000681E6,2.9763968E7,6.99739E5,7.55335E5,8.80305E5,8.67225E5,3.22457E5,5.75893E5,5.48453E5,1.915448E6,9.2887E4,3.29002E5,3.63021E5,1.05632E5,8.19314E5,1.174643E6,1.880613E6,1.09347E5,5.9228E4,2.855112E6,9.72564E5,1.399589E6,2.145063E6,4.396127E6,4.2229E6,1.3300342E7,1.943822E6,3.303547E6,2.26722E5,6.35482E5,7.365199E6,7.266303E6,2.2497664E7,1.97172E5,5.02567E5],"tree_param":{"num_deleted":"0","num_feature":"69","num_nodes":"63","size_leaf_vector":"0"}},{"base_weights":[1.7478073E-1,-2.855392E-2,2.1571499E-1,-1.4099728E-1,9.4559E-2,1.3629533E-1,2.752871E-1,-1.9004595E-1,-4.4746235E-2,-3.8883496E-2,1.6575707E-1,8.475454E-2,1.9769375E-1,1.7409198E-1,2.8864706E-1,-2.4224596E-1,-1.4452606E-1,-1.1058089E-1,2.8147414E-2,-1.1989608E-1,1.8140044E-2,1.8166985E-1,-9.898342E-2,-2.220478E-2,1.4847623E-1,1.3771372E-1,2.4430205E-1,6.1952915E-2,2.309428E-1,2.9575384E-1,1.8419255E-1,-2.2542666E-1,-3.2320157E-1,-1.1293421E-1,-2.4626245E-1,-1.8230073E-1,-5.592369E-2,-8.975588E-2,7.502224E-2,-5.3629052E-2,-1.6390036E-1,4.1990306E-2,-1.3401303E-1,2.2374589E-2,2.0561956E-1,-1.6449285E-1,7.584555E-2,1.6985329E-2,-1.4865501E-1,7.6679386E-2,1.8572037E-1,9.2822246E-2,1.9577678E-1,2.1823269E-1,2.8731054E-1,9.3045026E-2,-1.2644696E-1,5.7040103E-2,2.4892586E-1,5.5669494E-2,2.9837057E-1,9.1639176E-2,2.2472574E-1],"categories":[],"categories_nodes":[],"categories_segments":[],"categories_sizes":[],"default_left":[1,1,1,1,1,1,1,1,1,1,1,1,1,1,1,1,1,1,1,1,1,1,1,1,1,1,1,1,1,1,1,0,0,0,0,0,0,0,0,0,0,0,0,0,0,0,0,0,0,0,0,0,0,0,0,0,0,0,0,0,0,0,0],"id":1,"left_children":[1,3,5,7,9,11,13,15,17,19,21,23,25,27,29,31,33,35,37,39,41,43,45,47,49,51,53,55,57,59,61,-1,-1,-1,-1,-1,-1,-1,-1,-1,-1,-1,-1,-1,-1,-1,-1,-1,-1,-1,-1,-1,-1,-1,-1,-1,-1,-1,-1,-1,-1,-1,-1],"loss_changes":[6.99403E5,1.94933E5,3.3093525E5,3.474478E4,6.3863027E4,9.487119E4,5.4035E4,1.1584266E4,1.192241E4,1.0803648E4,1.846529E4,1.1108225E5,3.8247438E4,2.971636E4,2.620925E4,3.0921406E3,8.370195E3,5.117172E3,6.515915E3,2.8171904E3,4.9807886E3,1.5774047E4,2.8463323E3,3.0153445E4,2.7310844E4,1.5593711E4,8.632E3,9.185656E3,9.673156E3,2.0768E4,8.437586E3,0E0,0E0,0E0,0E0,0E0,0E0,0E0,0E0,0E0,0E0,0E0,0E0,0E0,0E0,0E0,0E0,0E0,0E0,0E0,0E0,0E0,0E0,0E0,0E0,0E0,0E0,0E0,0E0,0E0,0E0,0E0,0E0],"parents":[2147483647,0,0,1,1,2,2,3,3,4,4,5,5,6,6,7,7,8,8,9,9,10,10,11,11,12,12,13,13,14,14,15,15,16,16,17,17,18,18,19,19,20,20,21,21,22,22,23,23,24,24,25,25,26,26,27,27,28,28,29,29,30,30],"right_children":[2,4,6,8,10,12,14,16,18,20,22,24,26,28,30,32,34,36,38,40,42,44,46,48,50,52,54,56,58,60,62,-1,-1,-1,-1,-1,-1,-1,-1,-1,-1,-1,-1,-1,-1,-1,-1,-1,-1,-1,-1,-1,-1,-1,-1,-1,-1,-1,-1,-1,-1,-1,-1],"split_conditions":[3.65E1,4.7565603E0,5E-1,5E-1,5E-1,4.602087E0,4.491852E0,2.75E1,4.5957165E0,2.85E1,5E-1,5.95E1,5.45E1,5.85E1,5E-1,5E-1,5E-1,2.85E1,2.5E0,2.05E1,5E-1,-1.1513785E2,3.5E0,5E-1,4.230832E0,4.875064E0,5E-1,5E-1,5E-1,1.5E0,4.85E1,-6.7628E-2,-9.696048E-2,-3.3880264E-2,-7.3878735E-2,-5.4690223E-2,-1.6777107E-2,-2.6926765E-2,2.2506673E-2,-1.6088717E-2,-4.917011E-2,1.2597092E-2,-4.020391E-2,6.712377E-3,6.168587E-2,-4.9347855E-2,2.2753665E-2,5.0955988E-3,-4.4596504E-2,2.3003817E-2,5.5716112E-2,2.7846675E-2,5.8733035E-2,6.546981E-2,8.619317E-2,2.7913509E-2,-3.793409E-2,1.7112032E-2,7.4677765E-2,1.6700849E-2,8.951117E-2,2.7491754E-2,6.7417726E-2],"split_indices":[61,65,56,56,56,65,65,61,65,61,4,61,61,61,63,63,63,61,66,64,9,67,66,63,65,65,57,63,0,66,61,0,0,0,0,0,0,0,0,0,0,0,0,0,0,0,0,0,0,0,0,0,0,0,0,0,0,0,0,0,0,0,0],"split_type":[0,0,0,0,0,0,0,0,0,0,0,0,0,0,0,0,0,0,0,0,0,0,0,0,0,0,0,0,0,0,0,0,0,0,0,0,0,0,0,0,0,0,0,0,0,0,0,0,0,0,0,0,0,0,0,0,0,0,0,0,0,0,0],"sum_hessian":[8.402898E7,1.4081466E7,6.994751E7,7.359644E6,6.721822E6,2.9979624E7,3.996789E7,4.875256E6,2.484388E6,2.338641E6,4.383181E6,1.6298163E7,1.3681462E7,4.661248E6,3.530664E7,2.27099E6,2.604266E6,1.305401E6,1.178987E6,9.66106E5,1.372535E6,4.134659E6,2.48522E5,6.084722E6,1.0213441E7,5.982548E6,7.698914E6,1.568117E6,3.093131E6,3.3057504E7,2.249137E6,1.880336E6,3.90654E5,1.987192E6,6.17074E5,5.64576E5,7.40825E5,3.35389E5,8.43598E5,3.8553E5,5.80576E5,1.186543E6,1.85992E5,5.40391E5,3.594268E6,1.80782E5,6.774E4,4.645092E6,1.43963E6,3.488514E6,6.724927E6,3.373967E6,2.608581E6,4.793417E6,2.905497E6,1.345986E6,2.22131E5,2.89881E5,2.80325E6,3.56416E5,3.2701088E7,6.85004E5,1.564133E6],"tree_param":{"num_deleted":"0","num_feature":"69","num_nodes":"63","size_leaf_vector":"0"}},{"base_weights":[1.2234652E-1,-4.6547707E-3,1.5576941E-1,-7.840133E-2,1.0137122E-1,1.1034647E-1,2.0623918E-1,-1.6100237E-1,-3.623194E-2,1.6782962E-2,1.5288274E-1,1.2918428E-1,-1.4726001E-2,1.4011863E-1,2.1488835E-1,-1.1748603E-1,-1.9123669E-1,-1.16055086E-1,-2.9236025E-3,3.84549E-2,-1.3494988E-1,-5.2957956E-2,1.65982E-1,7.001071E-2,1.5764947E-1,3.8031757E-2,-9.043229E-2,1.02111086E-1,1.7856573E-1,1.9423646E-1,2.3432784E-1,-1.0491141E-1,-2.9390454E-1,-1.5994959E-1,-2.1204028E-1,-1.8037505E-1,-8.986714E-2,1.2377562E-2,-2.0430347E-1,6.545345E-2,-1.0080143E-1,-1.5787393E-1,4.20706E-2,-2.0917131E-1,-2.3242282E-2,1.767702E-1,-1.954287E-3,-8.3254956E-2,9.036651E-2,8.557809E-2,1.7959327E-1,-9.537783E-2,6.906536E-2,-1.8470818E-1,-4.003267E-2,1.14603415E-1,-3.6122527E-2,1.8949583E-1,3.930822E-2,1.6382678E-1,2.2042438E-1,2.4043657E-1,1.9046627E-1],"categories":[],"categories_nodes":[],"categories_segments":[],"categories_sizes":[],"default_left":[1,1,1,1,1,1,1,1,1,1,1,1,1,1,1,1,1,1,1,1,1,1,1,1,1,1,1,1,1,1,1,0,0,0,0,0,0,0,0,0,0,0,0,0,0,0,0,0,0,0,0,0,0,0,0,0,0,0,0,0,0,0,0],"id":2,"left_children":[1,3,5,7,9,11,13,15,17,19,21,23,25,27,29,31,33,35,37,39,41,43,45,47,49,51,53,55,57,59,61,-1,-1,-1,-1,-1,-1,-1,-1,-1,-1,-1,-1,-1,-1,-1,-1,-1,-1,-1,-1,-1,-1,-1,-1,-1,-1,-1,-1,-1,-1,-1,-1],"loss_changes":[3.56682E5,1.3688548E5,1.525015E5,3.5964582E4,3.1292203E4,8.249075E4,1.80205E4,4.5912266E3,1.8173895E4,8.938124E3,1.203518E4,5.1253688E4,1.8305018E4,5.3264453E3,1.1186875E4,3.1735684E3,1.3401562E3,3.3898535E3,1.4861146E4,8.942174E3,1.3785503E3,1.2396514E3,7.6028125E3,3.0834328E4,3.2492906E4,1.1182058E4,8.943018E3,3.1653633E3,2.758121E3,1.0760031E4,3.846E3,0E0,0E0,0E0,0E0,0E0,0E0,0E0,0E0,0E0,0E0,0E0,0E0,0E0,0E0,0E0,0E0,0E0,0E0,0E0,0E0,0E0,0E0,0E0,0E0,0E0,0E0,0E0,0E0,0E0,0E0,0E0,0E0],"parents":[2147483647,0,0,1,1,2,2,3,3,4,4,5,5,6,6,7,7,8,8,9,9,10,10,11,11,12,12,13,13,14,14,15,15,16,16,17,17,18,18,19,19,20,20,21,21,22,22,23,23,24,24,25,25,26,26,27,27,28,28,29,29,30,30],"right_children":[2,4,6,8,10,12,14,16,18,20,22,24,26,28,30,32,34,36,38,40,42,44,46,48,50,52,54,56,58,60,62,-1,-1,-1,-1,-1,-1,-1,-1,-1,-1,-1,-1,-1,-1,-1,-1,-1,-1,-1,-1,-1,-1,-1,-1,-1,-1,-1,-1,-1,-1,-1,-1],"split_conditions":[3.95E1,4.8349924E0,4.7781696E0,4.4697485E0,2.5E0,5E-1,1.5E0,5E-1,2.75E1,5E-1,2.65E1,5.75E1,3.7045113E1,5E-1,5.008602E0,5E-1,5E-1,2.35E1,5E-1,-7.405552E1,3.794272E1,-1.1707425E2,5E-1,-1.1689804E2,4.284994E0,-9.535088E1,4.350926E0,5E-1,8.35E1,5.55E1,5E-1,-3.1473424E-2,-8.817136E-2,-4.798488E-2,-6.361209E-2,-5.411252E-2,-2.6960142E-2,3.7132688E-3,-6.1291043E-2,1.9636035E-2,-3.024043E-2,-4.7362182E-2,1.2621181E-2,-6.27514E-2,-6.972685E-3,5.303106E-2,-5.862861E-4,-2.4976488E-2,2.7109955E-2,2.5673429E-2,5.3877983E-2,-2.8613351E-2,2.071961E-2,-5.5412456E-2,-1.2009801E-2,3.4381025E-2,-1.0836759E-2,5.6848753E-2,1.1792467E-2,4.9148034E-2,6.6127315E-2,7.213097E-2,5.7139885E-2],"split_indices":[61,65,65,65,66,63,66,60,61,9,61,61,68,62,65,4,62,61,9,67,68,67,63,67,65,67,65,56,61,61,9,0,0,0,0,0,0,0,0,0,0,0,0,0,0,0,0,0,0,0,0,0,0,0,0,0,0,0,0,0,0,0,0],"split_type":[0,0,0,0,0,0,0,0,0,0,0,0,0,0,0,0,0,0,0,0,0,0,0,0,0,0,0,0,0,0,0,0,0,0,0,0,0,0,0,0,0,0,0,0,0,0,0,0,0,0,0,0,0,0,0,0,0,0,0,0,0,0,0],"sum_hessian":[8.402898E7,1.750666E7,6.652232E7,1.0325052E7,7.181607E6,3.5011696E7,3.1510624E7,3.489617E6,6.835435E6,2.71812E6,4.463487E6,3.0428676E7,4.583019E6,3.645068E6,2.7865556E7,1.430582E6,2.059035E6,2.012498E6,4.822937E6,2.378413E6,3.39707E5,2.67052E5,4.196435E6,9.883282E6,2.0545396E7,2.70086E6,1.882159E6,1.833014E6,1.812054E6,1.3511444E7,1.4354112E7,1.3354E6,9.5182E4,8.22325E5,1.23671E6,5.82303E5,1.430195E6,4.482361E6,3.40576E5,1.992177E6,3.86236E5,3.00759E5,3.8948E4,4.268E4,2.24372E5,3.943129E6,2.53306E5,1.15874E6,8.724542E6,4.795436E6,1.5749959E7,5.09704E5,2.191156E6,6.55674E5,1.226485E6,1.681092E6,1.51922E5,1.680179E6,1.31875E5,6.251801E6,7.259643E6,1.2599358E7,1.754754E6],"tree_param":{"num_deleted":"0","num_feature":"69","num_nodes":"63","size_leaf_vector":"0"}},{"base_weights":[8.5642554E-2,1.0564272E-1,-2.7694507E-2,5.211799E-2,1.2644652E-1,-1.0168124E-1,1.3734838E-2,-1.068535E-2,9.606303E-2,7.6661766E-2,1.4254189E-1,-6.90946E-2,-1.3216452E-1,-6.349903E-2,5.5665184E-2,-6.1531186E-2,1.9686101E-2,3.1422686E-2,1.1285148E-1,2.8528787E-2,1.2171979E-1,1.454753E-1,-4.777881E-2,-1.23325735E-1,-4.7606196E-2,-1.691209E-1,-1.1229781E-1,-3.233662E-2,-1.3675563E-1,6.285827E-2,-1.973058E-1,-1.611559E-1,-4.266431E-2,-3.8099192E-2,4.8351984E-2,-9.552256E-2,4.7765296E-2,1.2691362E-1,5.55574E-2,4.3520004E-2,-1.2459039E-1,1.307382E-1,-3.590046E-2,1.5411709E-1,9.9878706E-2,-1.233697E-1,-2.093697E-2,-9.32694E-2,-1.4583108E-1,-7.156432E-3,-9.2985146E-2,2.9712784E-1,-1.7197567E-1,-9.355008E-2,-1.7816715E-1,-1.5338156E-1,-1.2783068E-2,-1.2340474E-1,-2.5532982E-1,8.23579E-2,-2.955061E-2,-1.5623286E-1,-3.8321367E-1],"categories":[],"categories_nodes":[],"categories_segments":[],"categories_sizes":[],"default_left":[1,1,1,1,1,1,1,1,1,1,1,1,1,1,1,1,1,1,1,1,1,1,1,1,1,1,1,1,1,1,1,0,0,0,0,0,0,0,0,0,0,0,0,0,0,0,0,0,0,0,0,0,0,0,0,0,0,0,0,0,0,0,0],"id":3,"left_children":[1,3,5,7,9,11,13,15,17,19,21,23,25,27,29,31,33,35,37,39,41,43,45,47,49,51,53,55,57,59,61,-1,-1,-1,-1,-1,-1,-1,-1,-1,-1,-1,-1,-1,-1,-1,-1,-1,-1,-1,-1,-1,-1,-1,-1,-1,-1,-1,-1,-1,-1,-1,-1],"loss_changes":[1.904735E5,7.953294E4,3.8634324E4,5.5173363E4,4.1214125E4,4.494211E3,2.6165871E4,1.2708855E4,1.2763578E4,2.7252719E4,2.1699562E4,2.5482666E3,1.71625E3,6.490216E3,9.529002E3,5.784544E3,8.534443E3,5.030709E3,7.522203E3,1.3946329E4,9.225836E3,1.50828125E4,1.197064E3,4.1975586E2,2.874779E3,1.0878789E3,1.8774316E3,4.7208604E3,1.3431455E3,9.175389E3,1.105502E3,0E0,0E0,0E0,0E0,0E0,0E0,0E0,0E0,0E0,0E0,0E0,0E0,0E0,0E0,0E0,0E0,0E0,0E0,0E0,0E0,0E0,0E0,0E0,0E0,0E0,0E0,0E0,0E0,0E0,0E0,0E0,0E0],"parents":[2147483647,0,0,1,1,2,2,3,3,4,4,5,5,6,6,7,7,8,8,9,9,10,10,11,11,12,12,13,13,14,14,15,15,16,16,17,17,18,18,19,19,20,20,21,21,22,22,23,23,24,24,25,25,26,26,27,27,28,28,29,29,30,30],"right_children":[2,4,6,8,10,12,14,16,18,20,22,24,26,28,30,32,34,36,38,40,42,44,46,48,50,52,54,56,58,60,62,-1,-1,-1,-1,-1,-1,-1,-1,-1,-1,-1,-1,-1,-1,-1,-1,-1,-1,-1,-1,-1,-1,-1,-1,-1,-1,-1,-1,-1,-1,-1,-1],"split_conditions":[5E-1,4.5563087E0,3.15E1,6.15E1,4.35E1,5E-1,4.510612E0,4.45E1,4.1750765E0,4.913655E0,5E-1,4.4763966E0,2.45E1,5E-1,5E-1,-1.0480965E2,4.289812E0,-1.1512698E2,5E-1,5E-1,5E-1,5E-1,-9.66591E1,1.85E1,2.05E1,1.75E1,5E-1,-1.169478E2,-7.458473E1,5E-1,5E-1,-4.834677E-2,-1.2799294E-2,-1.1429758E-2,1.4505596E-2,-2.865677E-2,1.4329589E-2,3.8074087E-2,1.666722E-2,1.3056002E-2,-3.737712E-2,3.922146E-2,-1.0770138E-2,4.623513E-2,2.9963613E-2,-3.701091E-2,-6.2810914E-3,-2.7980821E-2,-4.3749325E-2,-2.1469297E-3,-2.7895546E-2,8.913836E-2,-5.1592704E-2,-2.8065024E-2,-5.345015E-2,-4.601447E-2,-3.8349207E-3,-3.7021425E-2,-7.659895E-2,2.4707371E-2,-8.865183E-3,-4.686986E-2,-1.14964105E-1],"split_indices":[60,65,61,61,61,62,65,61,65,65,59,65,61,63,4,67,65,67,58,63,4,58,67,64,64,61,63,67,67,63,37,0,0,0,0,0,0,0,0,0,0,0,0,0,0,0,0,0,0,0,0,0,0,0,0,0,0,0,0,0,0,0,0],"split_type":[0,0,0,0,0,0,0,0,0,0,0,0,0,0,0,0,0,0,0,0,0,0,0,0,0,0,0,0,0,0,0,0,0,0,0,0,0,0,0,0,0,0,0,0,0,0,0,0,0,0,0,0,0,0,0,0,0,0,0,0,0,0,0],"sum_hessian":[8.402898E7,7.14249E7,1.2604085E7,1.9991104E7,5.1433788E7,4.524317E6,8.079768E6,8.229727E6,1.1761378E7,1.2565938E7,3.8867852E7,2.186718E6,2.337599E6,2.84303E6,5.236738E6,3.077531E6,5.152196E6,2.424883E6,9.336495E6,6.075656E6,6.490282E6,3.827787E7,5.89978E5,6.20566E5,1.566152E6,8.17278E5,1.520321E6,1.994568E6,8.48462E5,5.091952E6,1.44786E5,4.9002E5,2.587511E6,1.708389E6,3.443807E6,2.76568E5,2.148315E6,7.496554E6,1.839941E6,5.533861E6,5.41795E5,6.139031E6,3.51251E5,3.2179064E7,6.09881E6,1.54599E5,4.35379E5,2.6571E5,3.54856E5,8.28049E5,7.38103E5,4.973E3,8.12305E5,1.183481E6,3.3684E5,2.77391E5,1.717177E6,7.62599E5,8.5863E4,4.204699E6,8.87253E5,1.18588E5,2.6198E4],"tree_param":{"num_deleted":"0","num_feature":"69","num_nodes":"63","size_leaf_vector":"0"}},{"base_weights":[5.9949774E-2,2.17019E-2,9.032363E-2,-4.6094727E-2,5.2090917E-2,9.528119E-2,-8.2784064E-2,-1.0851783E-1,-2.9311387E-2,3.3593945E-2,9.3802385E-2,-5.8056065E-4,1.015562E-1,-1.3903895E-1,2.6876623E-2,-1.4937823E-1,-9.480817E-2,-1.1108661E-1,-1.612894E-2,3.5351275E-3,7.6026246E-2,4.4366337E-2,1.0470739E-1,-9.007236E-2,2.9214803E-2,5.5164672E-2,1.0930341E-1,-1.5835507E-1,6.772793E-2,-3.3991855E-1,3.4372214E-2,-1.5213124E-1,5.972621E-2,-1.13488026E-1,-6.2304847E-2,-1.2506066E-1,1.6160602E-2,-3.8806067E-3,-9.932877E-2,1.36481505E-2,-9.8604985E-2,9.057671E-2,1.9766245E-2,-3.0083884E-2,6.810882E-2,1.1554354E-1,5.099725E-2,-1.6332996E-1,-5.893018E-2,4.1714955E-2,-1.7677243E-1,8.859988E-3,8.058973E-2,1.14657596E-1,4.141006E-2,-1.06524095E-1,-2.154567E-1,-1.6227023E-1,1.04721345E-1,-3.6566547E-1,4.3548897E-1,-8.2725845E-3,7.876252E-2],"categories":[],"categories_nodes":[],"categories_segments":[],"categories_sizes":[],"default_left":[1,1,1,1,1,1,1,1,1,1,1,1,1,1,1,1,1,1,1,1,1,1,1,1,1,1,1,1,1,1,1,0,0,0,0,0,0,0,0,0,0,0,0,0,0,0,0,0,0,0,0,0,0,0,0,0,0,0,0,0,0,0,0],"id":4,"left_children":[1,3,5,7,9,11,13,15,17,19,21,23,25,27,29,31,33,35,37,39,41,43,45,47,49,51,53,55,57,59,61,-1,-1,-1,-1,-1,-1,-1,-1,-1,-1,-1,-1,-1,-1,-1,-1,-1,-1,-1,-1,-1,-1,-1,-1,-1,-1,-1,-1,-1,-1,-1,-1],"loss_changes":[9.761941E4,7.662881E4,4.0193875E4,1.2060346E4,1.9814523E4,2.7388719E4,8.0440664E3,1.3664023E3,9.779994E3,2.269311E4,4.2534375E3,7.458928E3,1.5358875E4,3.4421562E3,1.2155474E3,3.5278516E2,1.1089238E3,2.2395361E3,7.9618154E3,1.0757584E4,6.039332E3,2.5204421E3,3.7621094E3,1.5940376E3,5.4036875E3,7.199453E3,1.3311469E4,2.332787E3,6.265344E2,1.7692365E2,8.20178E2,0E0,0E0,0E0,0E0,0E0,0E0,0E0,0E0,0E0,0E0,0E0,0E0,0E0,0E0,0E0,0E0,0E0,0E0,0E0,0E0,0E0,0E0,0E0,0E0,0E0,0E0,0E0,0E0,0E0,0E0,0E0,0E0],"parents":[2147483647,0,0,1,1,2,2,3,3,4,4,5,5,6,6,7,7,8,8,9,9,10,10,11,11,12,12,13,13,14,14,15,15,16,16,17,17,18,18,19,19,20,20,21,21,22,22,23,23,24,24,25,25,26,26,27,27,28,28,29,29,30,30],"right_children":[2,4,6,8,10,12,14,16,18,20,22,24,26,28,30,32,34,36,38,40,42,44,46,48,50,52,54,56,58,60,62,-1,-1,-1,-1,-1,-1,-1,-1,-1,-1,-1,-1,-1,-1,-1,-1,-1,-1,-1,-1,-1,-1,-1,-1,-1,-1,-1,-1,-1,-1,-1,-1],"split_conditions":[5E-1,4.55E1,5E-1,4.3801208E0,4.7267675E0,3.05E1,5.0002823E0,-9.522099E1,-1.169478E2,5E-1,-1.1496478E2,2.55E1,-1.1236534E2,6.65E1,1.5E0,5E-1,4.277724E0,5E-1,-7.4264114E1,-7.427072E1,8.55E1,5.25E1,-7.4323944E1,-9.653457E1,5E-1,5.05E1,5E-1,2.05E1,4.240923E0,5E-1,5.178776E0,-4.5639373E-2,1.7917864E-2,-3.4046408E-2,-1.8691454E-2,-3.75182E-2,4.848181E-3,-1.1641821E-3,-2.9798632E-2,4.094445E-3,-2.9581496E-2,2.7173014E-2,5.929874E-3,-9.025166E-3,2.0432647E-2,3.4663063E-2,1.5299176E-2,-4.899899E-2,-1.7679054E-2,1.2514487E-2,-5.303173E-2,2.6579965E-3,2.417692E-2,3.439728E-2,1.2423018E-2,-3.195723E-2,-6.463701E-2,-4.8681073E-2,3.1416405E-2,-1.09699644E-1,1.3064669E-1,-2.4817754E-3,2.3628756E-2],"split_indices":[56,61,4,65,65,61,65,67,67,57,67,61,67,61,66,57,65,3,67,67,61,61,67,67,63,61,63,64,65,30,65,0,0,0,0,0,0,0,0,0,0,0,0,0,0,0,0,0,0,0,0,0,0,0,0,0,0,0,0,0,0,0,0],"split_type":[0,0,0,0,0,0,0,0,0,0,0,0,0,0,0,0,0,0,0,0,0,0,0,0,0,0,0,0,0,0,0,0,0,0,0,0,0,0,0,0,0,0,0,0,0,0,0,0,0,0,0,0,0,0,0,0,0,0,0,0,0,0,0],"sum_hessian":[8.402898E7,3.719352E7,4.6835456E7,1.1511607E7,2.5681916E7,4.5531496E7,1.303959E6,2.439235E6,9.072372E6,1.7792032E7,7.889884E6,2.797333E6,4.2734164E7,8.61842E5,4.42117E5,6.12808E5,1.826427E6,1.259466E6,7.812906E6,1.0414474E7,7.377557E6,1.425883E6,6.464001E6,6.98713E5,2.09862E6,6.115227E6,3.6618936E7,7.88208E5,7.3634E4,8.853E3,4.33264E5,6.04845E5,7.963E3,1.159851E6,6.66576E5,1.13484E6,1.24626E5,6.81032E6,1.002586E6,9.476222E6,9.38252E5,5.861582E6,1.515975E6,3.44771E5,1.081112E6,5.378812E6,1.085189E6,2.08423E5,4.9029E5,1.978554E6,1.20066E5,2.167581E6,3.947646E6,3.3942196E7,2.676742E6,4.13174E5,3.75034E5,1.0202E4,6.3432E4,8.569E3,2.84E2,2.20977E5,2.12287E5],"tree_param":{"num_deleted":"0","num_feature":"69","num_nodes":"63","size_leaf_vector":"0"}},{"base_weights":[4.196483E-2,-3.3349894E-2,5.0528385E-2,-2.2181705E-2,-1.1908934E-1,-6.2184376E-3,5.990037E-2,-8.155761E-2,-3.7564153E-3,-1.3959362E-1,-7.689783E-2,-6.798056E-2,1.6684212E-2,4.6057265E-2,8.3742104E-2,-6.515246E-2,-1.2604658E-1,4.0990906E-3,-1.676609E-1,-1.1776055E-1,-1.966419E-1,-5.974715E-2,-1.5723407E-1,-5.0159596E-2,-1.2093928E-1,2.634121E-2,-8.876099E-2,2.3193248E-2,7.382782E-2,7.4906856E-2,1.037893E-1,-9.647843E-2,-2.8129457E-2,-1.0674764E-1,-1.7258453E-1,-8.168303E-2,1.6394302E-2,-5.753369E-2,-2.0577018E-1,1.1112004E-1,-1.2113072E-1,3.7472084E-2,-2.0214346E-1,-1.3230494E-1,-3.9427016E-2,-2.0262112E-1,-7.025611E-2,-4.0535934E-2,-1.6480143E-1,-1.3298257E-1,9.810413E-3,-6.621504E-2,4.008531E-2,-1.1871868E-1,9.405244E-2,3.285662E-2,-1.0107911E-1,7.7321745E-2,-1.5183362E-2,7.991305E-2,-1.7665882E-2,1.04614176E-1,-4.429921E-2],"categories":[],"categories_nodes":[],"categories_segments":[],"categories_sizes":[],"default_left":[1,1,1,1,1,1,1,1,1,1,1,1,1,1,1,1,1,1,1,1,1,1,1,1,1,1,1,1,1,1,1,0,0,0,0,0,0,0,0,0,0,0,0,0,0,0,0,0,0,0,0,0,0,0,0,0,0,0,0,0,0,0,0],"id":5,"left_children":[1,3,5,7,9,11,13,15,17,19,21,23,25,27,29,31,33,35,37,39,41,43,45,47,49,51,53,55,57,59,61,-1,-1,-1,-1,-1,-1,-1,-1,-1,-1,-1,-1,-1,-1,-1,-1,-1,-1,-1,-1,-1,-1,-1,-1,-1,-1,-1,-1,-1,-1,-1,-1],"loss_changes":[5.4195484E4,8.2148E3,4.012661E4,8.303879E3,8.553076E2,1.5127736E4,2.137211E4,1.3119424E3,7.4583994E3,8.2868555E2,4.4550342E2,2.7303398E3,7.9442803E3,2.6012633E4,4.2132344E3,1.5231323E3,4.349214E2,5.8301855E3,1.1118691E3,3.7118555E2,2.371958E2,3.9286206E2,2.245492E2,2.388144E3,1.1469844E3,9.091821E3,3.5847754E3,2.6982861E4,5.7532266E3,7.6516094E3,8.88875E2,0E0,0E0,0E0,0E0,0E0,0E0,0E0,0E0,0E0,0E0,0E0,0E0,0E0,0E0,0E0,0E0,0E0,0E0,0E0,0E0,0E0,0E0,0E0,0E0,0E0,0E0,0E0,0E0,0E0,0E0,0E0,0E0],"parents":[2147483647,0,0,1,1,2,2,3,3,4,4,5,5,6,6,7,7,8,8,9,9,10,10,11,11,12,12,13,13,14,14,15,15,16,16,17,17,18,18,19,19,20,20,21,21,22,22,23,23,24,24,25,25,26,26,27,27,28,28,29,29,30,30],"right_children":[2,4,6,8,10,12,14,16,18,20,22,24,26,28,30,32,34,36,38,40,42,44,46,48,50,52,54,56,58,60,62,-1,-1,-1,-1,-1,-1,-1,-1,-1,-1,-1,-1,-1,-1,-1,-1,-1,-1,-1,-1,-1,-1,-1,-1,-1,-1,-1,-1,-1,-1,-1,-1],"split_conditions":[3.15E1,5E-1,4.342541E0,2.45E1,1.95E1,5.45E1,4.9347763E0,2.05E1,5E-1,4.5982428E0,-7.659004E1,5E-1,-7.427072E1,6.05E1,4.093123E1,2.25E1,-8.058089E1,-1.1701754E2,2.05E1,1.85E1,1.95E1,-9.4852005E1,4.8309064E0,5E-1,2.05E1,-1.1496478E2,4.327964E1,5E-1,8.85E1,-7.407805E1,8.75E1,-2.8943531E-2,-8.438838E-3,-3.2024294E-2,-5.1775362E-2,-2.4504911E-2,4.918291E-3,-1.7260108E-2,-6.1731055E-2,3.3336014E-2,-3.6339216E-2,1.1241626E-2,-6.064304E-2,-3.969148E-2,-1.1828105E-2,-6.0786337E-2,-2.1076832E-2,-1.2160781E-2,-4.9440432E-2,-3.989477E-2,2.9431242E-3,-1.9864513E-2,1.2025593E-2,-3.5615608E-2,2.8215734E-2,9.856987E-3,-3.0323733E-2,2.3196524E-2,-4.555009E-3,2.3973916E-2,-5.2997647E-3,3.1384256E-2,-1.3289764E-2],"split_indices":[61,63,65,61,64,61,65,64,4,65,67,63,67,61,68,61,67,67,64,61,61,67,65,9,64,67,68,9,61,67,61,0,0,0,0,0,0,0,0,0,0,0,0,0,0,0,0,0,0,0,0,0,0,0,0,0,0,0,0,0,0,0,0],"split_type":[0,0,0,0,0,0,0,0,0,0,0,0,0,0,0,0,0,0,0,0,0,0,0,0,0,0,0,0,0,0,0,0,0,0,0,0,0,0,0,0,0,0,0,0,0,0,0,0,0,0,0,0,0,0,0,0,0,0,0,0,0,0,0],"sum_hessian":[8.402898E7,8.578942E6,7.545004E7,7.590257E6,9.88685E5,1.0694635E7,6.47554E7,1.797564E6,5.792693E6,6.6534E5,3.23345E5,2.893003E6,7.801632E6,4.096823E7,2.3787168E7,1.313294E6,4.8427E5,5.527763E6,2.6493E5,4.81187E5,1.84153E5,2.66461E5,5.6884E4,2.164602E6,7.28401E5,7.147081E6,6.54551E5,2.2469048E7,1.8499188E7,1.6510587E7,7.276581E6,7.11379E5,6.01915E5,3.42317E5,1.41953E5,6.92973E5,4.83479E6,6.811E4,1.9682E5,6.982E3,4.74205E5,4.228E3,1.79925E5,5.8296E4,2.08165E5,3.7378E4,1.9506E4,1.996967E6,1.67635E5,6.66967E5,6.1434E4,9.24081E5,6.223E6,5.62392E5,9.2159E4,2.084792E7,1.621126E6,1.7800472E7,6.98716E5,1.5663528E7,8.47059E5,7.236274E6,4.0307E4],"tree_param":{"num_deleted":"0","num_feature":"69","num_nodes":"63","size_leaf_vector":"0"}},{"base_weights":[2.9375369E-2,3.6567513E-2,-3.1295944E-2,-2.7175806E-2,4.17651E-2,-5.11209E-2,3.7861727E-2,-6.4715445E-2,-1.2289585E-2,4.4286948E-2,-6.932088E-2,-7.478075E-2,1.1686391E-2,5.0764088E-2,-7.5390674E-2,-1.3546588E-1,-4.6975054E-2,2.4563367E-2,-5.016843E-2,6.7201164E-3,5.0677184E-2,-1.0072743E-1,-1.6323868E-2,-6.3802674E-2,-1.7828573E-1,-5.300182E-2,5.433549E-2,-2.0755561E-2,7.061669E-2,-1.5000413E-1,3.1735316E-2,6.2330455E-1,-1.375256E-1,-7.868232E-2,-2.0071134E-2,-1.0167077E-2,6.439395E-2,-3.2229844E-2,-1.0181391E-1,-9.9128485E-3,6.2080808E-2,5.2565258E-2,-6.1953627E-2,-1.5442383E-1,-5.706439E-2,-1.008601E-1,1.9845555E-3,-1.473382E-1,-4.6383142E-2,-2.359381E-1,-8.0636695E-2,-3.155406E-2,-2.4956022E-1,6.6581376E-2,-5.9620768E-2,-4.783468E-2,3.402791E-2,-3.9079454E-4,8.563427E-2,-1.7801791E-1,1.3398373E-2,-1.0059842E-1,8.4642924E-2],"categories":[],"categories_nodes":[],"categories_segments":[],"categories_sizes":[],"default_left":[1,1,1,1,1,1,1,1,1,1,1,1,1,1,1,1,1,1,1,1,1,1,1,1,1,1,1,1,1,1,1,0,0,0,0,0,0,0,0,0,0,0,0,0,0,0,0,0,0,0,0,0,0,0,0,0,0,0,0,0,0,0,0],"id":6,"left_children":[1,3,5,7,9,11,13,15,17,19,21,23,25,27,29,31,33,35,37,39,41,43,45,47,49,51,53,55,57,59,61,-1,-1,-1,-1,-1,-1,-1,-1,-1,-1,-1,-1,-1,-1,-1,-1,-1,-1,-1,-1,-1,-1,-1,-1,-1,-1,-1,-1,-1,-1,-1,-1],"loss_changes":[3.666661E4,2.488932E4,1.2209674E4,3.165016E3,1.9458633E4,1.0285104E4,2.8991829E3,2.0185117E3,5.661287E3,1.6304469E4,2.5663525E3,5.71258E3,5.2249595E3,2.528981E3,1.6219526E3,5.0395996E2,1.0968452E3,2.843575E3,1.8528184E3,9.091689E3,1.23435E4,2.2698281E3,8.879718E2,6.614133E3,2.7140137E3,3.172339E3,1.5927649E3,5.741056E2,1.4866802E3,5.475242E2,5.833003E2,0E0,0E0,0E0,0E0,0E0,0E0,0E0,0E0,0E0,0E0,0E0,0E0,0E0,0E0,0E0,0E0,0E0,0E0,0E0,0E0,0E0,0E0,0E0,0E0,0E0,0E0,0E0,0E0,0E0,0E0,0E0,0E0],"parents":[2147483647,0,0,1,1,2,2,3,3,4,4,5,5,6,6,7,7,8,8,9,9,10,10,11,11,12,12,13,13,14,14,15,15,16,16,17,17,18,18,19,19,20,20,21,21,22,22,23,23,24,24,25,25,26,26,27,27,28,28,29,29,30,30],"right_children":[2,4,6,8,10,12,14,16,18,20,22,24,26,28,30,32,34,36,38,40,42,44,46,48,50,52,54,56,58,60,62,-1,-1,-1,-1,-1,-1,-1,-1,-1,-1,-1,-1,-1,-1,-1,-1,-1,-1,-1,-1,-1,-1,-1,-1,-1,-1,-1,-1,-1,-1,-1,-1],"split_conditions":[5E-1,2.95E1,2.05E1,-9.653457E1,5E-1,6.35E1,-7.419393E1,3.321299E1,-8.319446E1,-1.1496478E2,4.954315E0,-7.436434E1,1.5E0,3.65E1,-7.380035E1,3E0,-1.1791754E2,4.6718206E0,-7.462717E1,5.091016E0,5E-1,4.45E1,5E-1,-9.5281204E1,-7.379051E1,-7.4371704E1,-7.426486E1,2.15E1,-9.6422264E1,4.089955E1,4.05E1,1.8699136E-1,-4.1257683E-2,-2.3604697E-2,-6.0213404E-3,-3.0501233E-3,1.9318186E-2,-9.668954E-3,-3.0544175E-2,-2.9738548E-3,1.8624242E-2,1.5769579E-2,-1.8586088E-2,-4.632715E-2,-1.7119318E-2,-3.025803E-2,5.953667E-4,-4.420146E-2,-1.3914944E-2,-7.078143E-2,-2.4191009E-2,-9.466218E-3,-7.486807E-2,1.9974414E-2,-1.788623E-2,-1.4350404E-2,1.0208374E-2,-1.1723836E-4,2.5690282E-2,-5.3405378E-2,4.019512E-3,-3.0179527E-2,2.5392879E-2],"split_indices":[63,61,64,67,4,61,67,68,67,67,65,67,66,61,67,64,67,65,67,65,59,61,56,67,67,67,67,64,67,68,61,0,0,0,0,0,0,0,0,0,0,0,0,0,0,0,0,0,0,0,0,0,0,0,0,0,0,0,0,0,0,0,0],"split_type":[0,0,0,0,0,0,0,0,0,0,0,0,0,0,0,0,0,0,0,0,0,0,0,0,0,0,0,0,0,0,0,0,0,0,0,0,0,0,0,0,0,0,0,0,0,0,0,0,0,0,0,0,0,0,0,0,0,0,0,0,0,0,0],"sum_hessian":[8.402898E7,7.5123624E7,8.905357E6,5.663715E6,6.94599E7,6.921281E6,1.984076E6,1.6082E6,4.055515E6,6.791805E7,1.541859E6,5.027423E6,1.893858E6,1.781157E6,2.02919E5,3.22406E5,1.285794E6,2.055594E6,1.999921E6,9.873551E6,5.8044496E7,9.68133E5,5.73726E5,4.545332E6,4.82091E5,7.525E5,1.141358E6,3.86995E5,1.394162E6,1.1961E5,8.3309E4,8.72E2,3.21534E5,5.90209E5,6.95585E5,1.098101E6,9.57493E5,1.484348E6,5.15573E5,7.592428E6,2.281123E6,5.7087516E7,9.56981E5,4.3418E5,5.33953E5,1.02134E5,4.71592E5,7.84284E5,3.761048E6,3.03124E5,1.78967E5,6.78469E5,7.4031E4,1.030608E6,1.1075E5,2.58982E5,1.28013E5,2.43382E5,1.15078E6,1.02105E5,1.7505E4,2.3794E4,5.9515E4],"tree_param":{"num_deleted":"0","num_feature":"69","num_nodes":"63","size_leaf_vector":"0"}},{"base_weights":[2.056274E-2,1.6603533E-3,3.5573725E-2,-3.205232E-2,1.396644E-2,-9.542675E-2,3.7607193E-2,-4.494847E-2,-8.1232557E-4,-7.952431E-2,1.7789861E-2,-1.3074903E-1,-5.4484412E-2,-9.519639E-3,4.2772945E-2,-3.9231133E-2,-1.5682808E-1,-3.4740847E-2,4.198391E-2,-6.073351E-2,-2.328801E-1,2.1711031E-2,-6.501983E-2,-9.520503E-2,-1.6749772E-1,-4.0115304E-2,-1.6101956E-1,6.896367E-3,-7.873325E-2,2.819824E-2,5.1664967E-2,-6.923496E-2,-2.449697E-2,-1.927937E-1,3.8459595E-2,-2.1153486E-3,-5.8124498E-2,5.3070508E-2,-5.5017162E-2,-4.971624E-2,-1.7288522E-1,-3.426793E-1,-9.1235474E-2,-2.0446768E-2,2.709598E-2,-4.084101E-2,-1.2221843E-1,-6.920733E-2,-2.0214166E-1,-1.9408813E-1,-8.3094314E-2,-5.568072E-2,4.242852E-2,-1.26612E-1,-3.551585E-1,-1.347039E-1,1.3017204E-2,-2.0393415E-1,-2.0171504E-2,-1.1506776E-2,4.0427763E-2,2.2025544E-2,5.4184377E-2],"categories":[],"categories_nodes":[],"categories_segments":[],"categories_sizes":[],"default_left":[1,1,1,1,1,1,1,1,1,1,1,1,1,1,1,1,1,1,1,1,1,1,1,1,1,1,1,1,1,1,1,0,0,0,0,0,0,0,0,0,0,0,0,0,0,0,0,0,0,0,0,0,0,0,0,0,0,0,0,0,0,0,0],"id":7,"left_children":[1,3,5,7,9,11,13,15,17,19,21,23,25,27,29,31,33,35,37,39,41,43,45,47,49,51,53,55,57,59,61,-1,-1,-1,-1,-1,-1,-1,-1,-1,-1,-1,-1,-1,-1,-1,-1,-1,-1,-1,-1,-1,-1,-1,-1,-1,-1,-1,-1,-1,-1,-1,-1],"loss_changes":[2.3842676E4,1.5430519E4,1.2476281E4,4.007037E3,9.739719E3,1.0353057E3,1.1227598E4,4.503115E3,4.219771E3,3.0849297E3,8.499925E3,5.019878E2,5.075689E2,5.1765166E3,5.386578E3,2.960914E3,2.4039746E3,1.2366812E3,1.3820488E3,1.178367E3,1.817352E3,5.6739463E3,1.6367388E3,5.4312683E2,4.2406836E2,3.753869E2,2.6318115E2,3.1916946E3,6.403883E3,7.6474424E3,1.9276562E3,0E0,0E0,0E0,0E0,0E0,0E0,0E0,0E0,0E0,0E0,0E0,0E0,0E0,0E0,0E0,0E0,0E0,0E0,0E0,0E0,0E0,0E0,0E0,0E0,0E0,0E0,0E0,0E0,0E0,0E0,0E0,0E0],"parents":[2147483647,0,0,1,1,2,2,3,3,4,4,5,5,6,6,7,7,8,8,9,9,10,10,11,11,12,12,13,13,14,14,15,15,16,16,17,17,18,18,19,19,20,20,21,21,22,22,23,23,24,24,25,25,26,26,27,27,28,28,29,29,30,30],"right_children":[2,4,6,8,10,12,14,16,18,20,22,24,26,28,30,32,34,36,38,40,42,44,46,48,50,52,54,56,58,60,62,-1,-1,-1,-1,-1,-1,-1,-1,-1,-1,-1,-1,-1,-1,-1,-1,-1,-1,-1,-1,-1,-1,-1,-1,-1,-1,-1,-1,-1,-1,-1,-1],"split_conditions":[5E-1,4.25E1,1.5E0,4.0921574E1,4.0756197E0,5.95E1,5E-1,-7.4064415E1,4.683857E0,5E-1,5E-1,2.05E1,8.45E1,-7.41192E1,4.95E1,-9.5281204E1,-7.3821915E1,5E-1,-7.133851E1,-7.4264114E1,4.0248957E0,1.55E1,5E-1,5E-1,4.146936E1,4.258999E1,4.812895E0,4.251151E0,-7.389078E1,3.4193794E1,1.55E1,-2.0770488E-2,-7.3490916E-3,-5.7838112E-2,1.1537879E-2,-6.346046E-4,-1.743735E-2,1.5921153E-2,-1.650515E-2,-1.4914873E-2,-5.186557E-2,-1.0280379E-1,-2.7370643E-2,-6.134031E-3,8.128794E-3,-1.2252304E-2,-3.666553E-2,-2.0762201E-2,-6.06425E-2,-5.822644E-2,-2.4928296E-2,-1.6704217E-2,1.2728556E-2,-3.79836E-2,-1.0654756E-1,-4.0411174E-2,3.9051613E-3,-6.1180245E-2,-6.0514514E-3,-3.452033E-3,1.212833E-2,6.6076634E-3,1.6255314E-2],"split_indices":[56,61,66,68,65,61,0,67,65,9,59,64,61,67,61,67,67,62,67,67,65,64,63,63,68,68,65,65,67,68,64,0,0,0,0,0,0,0,0,0,0,0,0,0,0,0,0,0,0,0,0,0,0,0,0,0,0,0,0,0,0,0,0],"split_type":[0,0,0,0,0,0,0,0,0,0,0,0,0,0,0,0,0,0,0,0,0,0,0,0,0,0,0,0,0,0,0,0,0,0,0,0,0,0,0,0,0,0,0,0,0,0,0,0,0,0,0,0,0,0,0,0,0,0,0,0,0,0,0],"sum_hessian":[8.402898E7,3.719352E7,4.6835456E7,9.946089E6,2.7247432E7,7.15895E5,4.611956E7,7.039939E6,2.90615E6,1.070536E6,2.6176896E7,3.84324E5,3.31571E5,4.555945E6,4.1563616E7,6.697672E6,3.42267E5,1.621019E6,1.285131E6,9.53682E5,1.16854E5,2.499342E7,1.183477E6,1.95366E5,1.88958E5,2.92166E5,3.9405E4,3.682528E6,8.73417E5,1.5749304E7,2.5814312E7,2.205833E6,4.491839E6,2.89036E5,5.3231E4,6.76771E5,9.44248E5,1.153315E6,1.31816E5,8.68378E5,8.5304E4,6.5826E4,5.1028E4,2.83089E6,2.216253E7,8.31844E5,3.51633E5,1.5716E5,3.8206E4,1.43689E5,4.5269E4,2.45813E5,4.6353E4,3.3474E4,5.931E3,1.52585E5,3.529943E6,2.78341E5,5.95076E5,3.708639E6,1.2040665E7,2.022365E6,2.3791948E7],"tree_param":{"num_deleted":"0","num_feature":"69","num_nodes":"63","size_leaf_vector":"0"}},{"base_weights":[1.43939E-2,2.9850048E-3,3.2492E-2,-9.682545E-3,2.9558899E-2,3.6293045E-2,2.12438E-3,-1.6334455E-2,3.967624E-2,3.8109608E-2,-1.1534842E-2,4.0083624E-2,1.1659361E-2,-2.2132417E-2,3.892028E-2,-9.789463E-3,-9.4471164E-2,-3.8603153E-2,5.9873294E-2,4.5808922E-2,6.5577743E-3,-3.950552E-2,1.9145155E-2,3.0441297E-2,5.0075855E-2,-7.404254E-2,4.4917658E-2,-6.737507E-2,1.8847046E-2,-9.356577E-3,4.9920708E-2,-5.1103313E-2,2.2412785E-3,-1.5383413E-1,-4.669563E-2,-1.3837238E-2,-8.194289E-2,6.2467404E-2,-1.3800408E-1,-1.7768466E-3,5.0097387E-2,-1.834335E-2,5.1980373E-2,-2.7814459E-2,-1.0795801E-1,-1.0204131E-1,2.3258168E-2,-5.1287796E-2,3.1921595E-2,5.0587945E-2,-9.227993E-2,-1.204967E-1,3.413419E-2,5.919716E-2,2.1120789E-2,-1.3402565E-1,-4.818554E-2,2.4999062E-2,-7.2882295E-2,-1.379396E-1,5.6490707E-3,4.2181745E-2,7.876303E-2],"categories":[],"categories_nodes":[],"categories_segments":[],"categories_sizes":[],"default_left":[1,1,1,1,1,1,1,1,1,1,1,1,1,1,1,1,1,1,1,1,1,1,1,1,1,1,1,1,1,1,1,0,0,0,0,0,0,0,0,0,0,0,0,0,0,0,0,0,0,0,0,0,0,0,0,0,0,0,0,0,0,0,0],"id":8,"left_children":[1,3,5,7,9,11,13,15,17,19,21,23,25,27,29,31,33,35,37,39,41,43,45,47,49,51,53,55,57,59,61,-1,-1,-1,-1,-1,-1,-1,-1,-1,-1,-1,-1,-1,-1,-1,-1,-1,-1,-1,-1,-1,-1,-1,-1,-1,-1,-1,-1,-1,-1,-1,-1],"loss_changes":[1.7350246E4,1.734942E4,3.7502656E3,1.1459303E4,5.84605E3,2.6962812E3,3.2259377E3,1.5729144E4,6.553275E3,3.345541E3,2.4590918E3,2.4110977E3,1.0975835E4,4.0386123E3,7.6260645E2,1.4105694E4,6.741881E3,9.1247046E2,1.6913135E3,2.259129E3,3.0554878E3,1.1996118E3,6.811808E2,1.5407695E3,8.958887E2,5.4100884E3,9.4268896E2,1.3241328E3,6.450216E2,5.141779E2,2.6104175E2,0E0,0E0,0E0,0E0,0E0,0E0,0E0,0E0,0E0,0E0,0E0,0E0,0E0,0E0,0E0,0E0,0E0,0E0,0E0,0E0,0E0,0E0,0E0,0E0,0E0,0E0,0E0,0E0,0E0,0E0,0E0,0E0],"parents":[2147483647,0,0,1,1,2,2,3,3,4,4,5,5,6,6,7,7,8,8,9,9,10,10,11,11,12,12,13,13,14,14,15,15,16,16,17,17,18,18,19,19,20,20,21,21,22,22,23,23,24,24,25,25,26,26,27,27,28,28,29,29,30,30],"right_children":[2,4,6,8,10,12,14,16,18,20,22,24,26,28,30,32,34,36,38,40,42,44,46,48,50,52,54,56,58,60,62,-1,-1,-1,-1,-1,-1,-1,-1,-1,-1,-1,-1,-1,-1,-1,-1,-1,-1,-1,-1,-1,-1,-1,-1,-1,-1,-1,-1,-1,-1,-1,-1],"split_conditions":[4.858549E0,6.65E1,5E-1,4.3165882E1,-7.723554E1,-7.4163895E1,5.149065E0,-7.427072E1,-1.2215054E2,8.35E1,1.5E0,3.9111794E1,-7.381569E1,5.15E1,-1.2210945E2,-9.66767E1,-7.376897E1,4.7229668E1,5E-1,4.1320996E0,1.5E0,8.75E1,4.1560936E0,2.65E1,8.95E1,4.092502E1,-7.145691E1,-1.2191317E2,4.5E0,3.45E1,3.7415382E1,-1.53309945E-2,6.723836E-4,-4.615024E-2,-1.400869E-2,-4.1511715E-3,-2.4582868E-2,1.8740222E-2,-4.1401226E-2,-5.33054E-4,1.5029217E-2,-5.5030053E-3,1.5594113E-2,-8.344338E-3,-3.2387406E-2,-3.0612394E-2,6.9774506E-3,-1.5386339E-2,9.576479E-3,1.5176384E-2,-2.768398E-2,-3.614901E-2,1.0240258E-2,1.775915E-2,6.336237E-3,-4.0207695E-2,-1.4455662E-2,7.4997186E-3,-2.186469E-2,-4.138188E-2,1.6947213E-3,1.2654524E-2,2.3628911E-2],"split_indices":[65,61,9,68,67,67,65,67,67,61,66,68,67,61,67,67,67,68,63,65,66,61,65,61,61,68,67,67,66,61,68,0,0,0,0,0,0,0,0,0,0,0,0,0,0,0,0,0,0,0,0,0,0,0,0,0,0,0,0,0,0,0,0],"split_type":[0,0,0,0,0,0,0,0,0,0,0,0,0,0,0,0,0,0,0,0,0,0,0,0,0,0,0,0,0,0,0,0,0,0,0,0,0,0,0,0,0,0,0,0,0,0,0,0,0,0,0,0,0,0,0,0,0,0,0,0,0,0,0],"sum_hessian":[8.402898E7,5.1539132E7,3.2489848E7,3.490176E7,1.6637372E7,2.887556E7,3.614289E6,3.0756776E7,4.144982E6,1.3771768E7,2.865604E6,2.5024796E7,3.850764E6,2.178299E6,1.43599E6,2.8379608E7,2.37717E6,8.50116E5,3.294866E6,1.1070365E7,2.701403E6,1.498989E6,1.366615E6,1.273538E7,1.2289415E7,1.076577E6,2.774187E6,1.035297E6,1.143002E6,2.66485E5,1.169505E6,6.400418E6,2.1979188E7,1.060034E6,1.317136E6,5.40981E5,3.09135E5,3.252231E6,4.2635E4,9.15192E5,1.0155173E7,1.744856E6,9.56547E5,1.280323E6,2.18666E5,4.4859E4,1.321756E6,2.26562E5,1.2508818E7,1.2245366E7,4.4049E4,7.53152E5,3.23425E5,1.733803E6,1.040384E6,2.31439E5,8.03858E5,1.071163E6,7.1839E4,2.7848E4,2.38637E5,9.22092E5,2.47413E5],"tree_param":{"num_deleted":"0","num_feature":"69","num_nodes":"63","size_leaf_vector":"0"}},{"base_weights":[1.00757275E-2,-9.048439E-3,1.67666E-2,-2.4712536E-2,1.7365877E-2,1.846333E-2,-5.0510224E-2,-8.0010705E-2,-1.6245047E-2,2.3179963E-2,-4.6008386E-2,1.9256098E-3,2.4354784E-2,-8.445311E-2,-2.6025953E-2,-4.888869E-2,-1.1023074E-1,-9.29921E-3,-4.576406E-2,6.0166974E-2,1.5845811E-2,-1.6592254E-1,-1.1903682E-2,-1.7312782E-2,1.6207263E-2,3.6392026E-2,1.388626E-2,-9.465384E-2,4.681467E-2,-8.239518E-2,-8.730169E-3,-4.0763177E-2,-1.4410338E-1,-9.7695E-2,-1.8225092E-1,-2.6369357E-2,7.726973E-3,-1.3916319E-2,-8.334143E-2,3.8805835E-2,8.013397E-2,2.053941E-2,-8.274039E-2,-3.9887145E-2,-2.2969349E-1,1.4294937E-2,-4.595241E-2,-3.887686E-2,1.2071132E-2,1.778434E-2,-5.108478E-2,3.2702364E-2,5.8959037E-2,-1.7338438E-2,1.8458186E-2,-6.3618205E-2,-1.3048553E-1,7.531277E-2,-1.1528407E-1,-7.2907634E-2,-2.3499006E-1,-7.605646E-2,9.646245E-3],"categories":[],"categories_nodes":[],"categories_segments":[],"categories_sizes":[],"default_left":[1,1,1,1,1,1,1,1,1,1,1,1,1,1,1,1,1,1,1,1,1,1,1,1,1,1,1,1,1,1,1,0,0,0,0,0,0,0,0,0,0,0,0,0,0,0,0,0,0,0,0,0,0,0,0,0,0,0,0,0,0,0,0],"id":9,"left_children":[1,3,5,7,9,11,13,15,17,19,21,23,25,27,29,31,33,35,37,39,41,43,45,47,49,51,53,55,57,59,61,-1,-1,-1,-1,-1,-1,-1,-1,-1,-1,-1,-1,-1,-1,-1,-1,-1,-1,-1,-1,-1,-1,-1,-1,-1,-1,-1,-1,-1,-1,-1,-1],"loss_changes":[1.0752128E4,9.011225E3,7.1058633E3,6.401539E3,2.9873064E3,5.9158887E3,1.2726357E3,1.7074512E3,2.430913E3,2.0144854E3,2.7862393E3,4.382059E3,5.6415234E3,8.592749E2,8.6733234E2,6.919514E2,8.315537E2,2.7894922E3,2.7027007E3,5.241294E2,2.8676477E3,1.2125122E3,4.7316345E2,4.305717E3,9.714324E2,1.7339453E3,3.418335E3,6.621577E2,2.1376248E2,3.0237903E2,8.4223047E2,0E0,0E0,0E0,0E0,0E0,0E0,0E0,0E0,0E0,0E0,0E0,0E0,0E0,0E0,0E0,0E0,0E0,0E0,0E0,0E0,0E0,0E0,0E0,0E0,0E0,0E0,0E0,0E0,0E0,0E0,0E0,0E0],"parents":[2147483647,0,0,1,1,2,2,3,3,4,4,5,5,6,6,7,7,8,8,9,9,10,10,11,11,12,12,13,13,14,14,15,15,16,16,17,17,18,18,19,19,20,20,21,21,22,22,23,23,24,24,25,25,26,26,27,27,28,28,29,29,30,30],"right_children":[2,4,6,8,10,12,14,16,18,20,22,24,26,28,30,32,34,36,38,40,42,44,46,48,50,52,54,56,58,60,62,-1,-1,-1,-1,-1,-1,-1,-1,-1,-1,-1,-1,-1,-1,-1,-1,-1,-1,-1,-1,-1,-1,-1,-1,-1,-1,-1,-1,-1,-1,-1,-1],"split_conditions":[4.5088663E0,6.85E1,5E-1,1.55E1,-7.416054E1,-9.66591E1,4.845191E0,5E-1,5E-1,3.2468487E1,-7.389078E1,5.05E1,-8.3027115E1,6.85E1,5E-1,-7.485864E1,-7.723658E1,5.05E1,3.5727753E1,5E-1,5E-1,-7.405552E1,4.2157623E1,3.794272E1,8.75E1,4.3153248E1,3.45E1,2.05E1,-7.392747E1,5E-1,-1.18112335E2,-1.2228954E-2,-4.3231014E-2,-2.9308502E-2,-5.4675277E-2,-7.910808E-3,2.318092E-3,-4.174896E-3,-2.500243E-2,1.1641751E-2,2.404019E-2,6.1618234E-3,-2.4822118E-2,-1.1966144E-2,-6.890805E-2,4.2884815E-3,-1.3785724E-2,-1.1663059E-2,3.6213396E-3,5.335302E-3,-1.53254345E-2,9.810709E-3,1.7687712E-2,-5.2015316E-3,5.537456E-3,-1.9085463E-2,-3.9145663E-2,2.2593832E-2,-3.4585223E-2,-2.1872291E-2,-7.049702E-2,-2.2816937E-2,2.8938737E-3],"split_indices":[65,61,4,64,67,67,65,62,63,68,67,61,67,61,56,67,67,61,68,57,3,67,68,68,61,68,61,64,67,59,67,0,0,0,0,0,0,0,0,0,0,0,0,0,0,0,0,0,0,0,0,0,0,0,0,0,0,0,0,0,0,0,0],"split_type":[0,0,0,0,0,0,0,0,0,0,0,0,0,0,0,0,0,0,0,0,0,0,0,0,0,0,0,0,0,0,0,0,0,0,0,0,0,0,0,0,0,0,0,0,0,0,0,0,0,0,0,0,0,0,0,0,0,0,0,0,0,0,0],"sum_hessian":[8.402898E7,2.177906E7,6.224992E7,1.3671593E7,8.107466E6,6.071859E7,1.531329E6,1.81546E6,1.1856133E7,7.426174E6,6.81292E5,1.5948907E7,4.4769684E7,6.41712E5,8.89617E5,8.94384E5,9.21076E5,9.597774E6,2.258359E6,1.228863E6,6.197311E6,1.50859E5,5.30433E5,6.79524E6,9.153667E6,2.0824554E7,2.394513E7,5.95441E5,4.6271E4,2.08872E5,6.80745E5,8.24061E5,7.0323E4,7.84525E5,1.36551E5,4.792699E6,4.805075E6,1.222371E6,1.035988E6,5.93706E5,6.35157E5,5.915672E6,2.81639E5,5.0686E4,1.00173E5,2.99774E5,2.30659E5,3.919109E6,2.876131E6,8.944052E6,2.09615E5,1.7898232E7,2.926322E6,3.058259E6,2.0886872E7,3.19076E5,2.76365E5,3.9353E4,6.918E3,1.96647E5,1.2225E4,1.45965E5,5.3478E5],"tree_param":{"num_deleted":"0","num_feature":"69","num_nodes":"63","size_leaf_vector":"0"}},{"base_weights":[7.053008E-3,1.0390393E-2,-2.1100434E-2,-1.4086617E-2,1.3349566E-2,-3.6908932E-2,1.4150617E-2,-9.724356E-2,1.8083865E-3,1.6368702E-2,-1.3953927E-2,-4.5028187E-2,4.3697834E-2,1.2602577E-3,4.7597628E-2,-1.2676221E-1,-2.1922411E-2,-1.3570414E-2,2.3196025E-2,-2.9800726E-2,1.7967796E-2,-1.3610286E-1,7.2971825E-3,-2.1353073E-2,-6.9988474E-2,5.6124735E-3,7.392252E-2,8.450565E-3,-7.01947E-2,-5.3106844E-2,5.6235842E-2,-6.768839E-2,-1.7311634E-1,-5.1524956E-2,2.674069E-2,-5.7452213E-2,4.360816E-4,5.5938517E-3,4.353656E-2,-1.3471491E-2,-6.845004E-2,1.6270086E-2,5.3413536E-2,-1.6909805E-1,2.8580664E-2,1.4761405E-3,7.199611E-2,-7.8172304E-2,-6.957044E-3,-1.1874896E-1,-6.012271E-2,7.313518E-2,-4.1220594E-2,5.588717E-2,1.335082E-1,-9.822723E-2,1.3414749E-2,-9.49523E-2,-9.457287E-4,-9.634773E-2,4.300651E-2,4.7072776E-2,1.0621315E-1],"categories":[],"categories_nodes":[],"categories_segments":[],"categories_sizes":[],"default_left":[1,1,1,1,1,1,1,1,1,1,1,1,1,1,1,1,1,1,1,1,1,1,1,1,1,1,1,1,1,1,1,0,0,0,0,0,0,0,0,0,0,0,0,0,0,0,0,0,0,0,0,0,0,0,0,0,0,0,0,0,0,0,0],"id":10,"left_children":[1,3,5,7,9,11,13,15,17,19,21,23,25,27,29,31,33,35,37,39,41,43,45,47,49,51,53,55,57,59,61,-1,-1,-1,-1,-1,-1,-1,-1,-1,-1,-1,-1,-1,-1,-1,-1,-1,-1,-1,-1,-1,-1,-1,-1,-1,-1,-1,-1,-1,-1,-1,-1],"loss_changes":[7.8952686E3,5.441333E3,4.962655E3,1.0709825E4,5.524743E3,4.0237812E3,1.1887415E3,2.8909043E3,2.2374026E3,4.4554443E3,1.7322012E4,3.3007197E3,6.476371E2,1.0225188E3,6.6722705E2,2.557956E3,5.273787E2,2.4321145E3,1.01872815E3,1.2749764E3,3.5099648E3,5.373541E3,2.1407466E3,2.3447812E3,1.3079854E3,7.8721857E2,3.3708716E2,9.5757715E2,3.119522E2,2.5183856E2,3.2349316E2,0E0,0E0,0E0,0E0,0E0,0E0,0E0,0E0,0E0,0E0,0E0,0E0,0E0,0E0,0E0,0E0,0E0,0E0,0E0,0E0,0E0,0E0,0E0,0E0,0E0,0E0,0E0,0E0,0E0,0E0,0E0,0E0],"parents":[2147483647,0,0,1,1,2,2,3,3,4,4,5,5,6,6,7,7,8,8,9,9,10,10,11,11,12,12,13,13,14,14,15,15,16,16,17,17,18,18,19,19,20,20,21,21,22,22,23,23,24,24,25,25,26,26,27,27,28,28,29,29,30,30],"right_children":[2,4,6,8,10,12,14,16,18,20,22,24,26,28,30,32,34,36,38,40,42,44,46,48,50,52,54,56,58,60,62,-1,-1,-1,-1,-1,-1,-1,-1,-1,-1,-1,-1,-1,-1,-1,-1,-1,-1,-1,-1,-1,-1,-1,-1,-1,-1,-1,-1,-1,-1,-1,-1],"split_conditions":[5E-1,-1.18109116E2,1.95E1,3.4193794E1,-7.405552E1,7.65E1,5.85E1,5.061056E0,-1.2189175E2,2.55E1,-7.389078E1,3.5822025E1,1.5E0,4.1768883E1,4.2367873E0,3.40177E1,5.75E1,3.7893105E1,1.95E1,2.05E1,5E-1,4.0913467E1,4.4244194E1,-9.535088E1,1.55E1,3.5673737E1,8.55E1,-1.1829759E2,5E-1,7.35E1,7.55E1,-2.0306518E-2,-5.1934905E-2,-1.5457488E-2,8.022208E-3,-1.7235665E-2,1.3082448E-4,1.6781556E-3,1.3060968E-2,-4.0414473E-3,-2.0535013E-2,4.881026E-3,1.6024062E-2,-5.0729416E-2,8.5742E-3,4.4284217E-4,2.1598833E-2,-2.3451691E-2,-2.0871132E-3,-3.562469E-2,-1.8036814E-2,2.1940555E-2,-1.2366178E-2,1.6766151E-2,4.0052462E-2,-2.9468171E-2,4.024425E-3,-2.8485691E-2,-2.837186E-4,-2.8904319E-2,1.2901953E-2,1.4121833E-2,3.1863946E-2],"split_indices":[63,67,64,68,67,61,61,65,67,61,67,68,66,68,65,68,61,68,64,64,27,68,68,67,64,68,61,67,27,61,61,0,0,0,0,0,0,0,0,0,0,0,0,0,0,0,0,0,0,0,0,0,0,0,0,0,0,0,0,0,0,0,0],"split_type":[0,0,0,0,0,0,0,0,0,0,0,0,0,0,0,0,0,0,0,0,0,0,0,0,0,0,0,0,0,0,0,0,0,0,0,0,0,0,0,0,0,0,0,0,0,0,0,0,0,0,0,0,0,0,0,0,0,0,0,0,0,0,0],"sum_hessian":[8.402898E7,7.5123624E7,8.905357E6,8.102577E6,6.7021044E7,6.148178E6,2.757179E6,1.300231E6,6.802346E6,6.0347956E7,6.67309E6,5.585563E6,5.62615E5,1.990174E6,7.67005E5,9.34138E5,3.66093E5,3.957036E6,2.84531E6,2.020201E6,5.832775E7,9.88915E5,5.684175E6,2.866581E6,2.718982E6,2.48937E5,3.13678E5,1.808219E6,1.81955E5,6.0594E4,7.06411E5,4.10719E5,5.23419E5,2.27625E5,1.38468E5,9.57433E5,2.999603E6,1.52533E6,1.31998E6,1.42018E6,6.00021E5,5.5661776E7,2.665977E6,8.23852E5,1.65063E5,5.214978E6,4.69197E5,5.79473E5,2.287108E6,4.57555E5,2.261427E6,1.01949E5,1.46988E5,2.40796E5,7.2882E4,8.0402E4,1.727817E6,1.34035E5,4.792E4,4.1792E4,1.8802E4,5.96963E5,1.09448E5],"tree_param":{"num_deleted":"0","num_feature":"69","num_nodes":"63","size_leaf_vector":"0"}},{"base_weights":[4.937103E-3,2.2449596E-4,2.2935534E-2,-1.0638006E-2,8.383919E-3,1.4933526E-2,3.00798E-2,-1.9397201E-2,8.986222E-3,-4.055934E-3,1.6014962E-2,1.642857E-2,-7.651299E-2,1.4879132E-2,3.660592E-2,-1.6858732E-2,-9.4383866E-2,1.4565966E-2,-4.5741197E-2,-7.9241E-4,-6.679203E-2,2.0954514E-2,8.455723E-5,1.247147E-2,4.5287278E-2,-6.505493E-2,-2.8271744E-1,4.892619E-1,1.440856E-2,5.874949E-2,3.2481797E-2,-3.935591E-2,-6.9546876E-3,-1.3005494E-1,4.4464923E-2,1.9191798E-2,-4.7328684E-2,-7.0225015E-2,9.030821E-2,-1.52362455E-2,1.8536212E-2,-4.4730064E-2,-1.550083E-1,-5.9858453E-2,2.1883663E-2,-7.4093435E-3,3.7237637E-2,-4.987494E-3,2.135087E-2,2.2260963E-3,5.4449536E-2,-3.165378E-2,-1.16134405E-1,-4.4266728E-1,-7.171743E-2,5.277075E-1,-5.9937364E-1,-4.6548243E-3,1.9511286E-2,7.252413E-2,2.2415388E-2,-5.1239496E-1,3.2685958E-2],"categories":[],"categories_nodes":[],"categories_segments":[],"categories_sizes":[],"default_left":[1,1,1,1,1,1,1,1,1,1,1,1,1,1,1,1,1,1,1,1,1,1,1,1,1,1,1,1,1,1,1,0,0,0,0,0,0,0,0,0,0,0,0,0,0,0,0,0,0,0,0,0,0,0,0,0,0,0,0,0,0,0,0],"id":11,"left_children":[1,3,5,7,9,11,13,15,17,19,21,23,25,27,29,31,33,35,37,39,41,43,45,47,49,51,53,55,57,59,61,-1,-1,-1,-1,-1,-1,-1,-1,-1,-1,-1,-1,-1,-1,-1,-1,-1,-1,-1,-1,-1,-1,-1,-1,-1,-1,-1,-1,-1,-1,-1,-1],"loss_changes":[7.127299E3,5.902229E3,9.968047E2,4.9100796E3,3.6099517E3,1.1244159E3,9.1382715E2,3.759371E3,2.6918481E3,2.9602183E3,1.8546631E3,9.2409424E2,3.1256012E2,6.1766895E2,5.8856055E2,4.256393E3,3.2029316E3,2.2903955E3,2.716774E3,3.8368865E3,1.3914116E3,1.3508975E3,1.553172E3,1.103211E3,3.8498572E2,2.1383026E2,2.3499915E2,1.15078E2,2.6889215E2,5.0642578E2,6.0439844E2,0E0,0E0,0E0,0E0,0E0,0E0,0E0,0E0,0E0,0E0,0E0,0E0,0E0,0E0,0E0,0E0,0E0,0E0,0E0,0E0,0E0,0E0,0E0,0E0,0E0,0E0,0E0,0E0,0E0,0E0,0E0,0E0],"parents":[2147483647,0,0,1,1,2,2,3,3,4,4,5,5,6,6,7,7,8,8,9,9,10,10,11,11,12,12,13,13,14,14,15,15,16,16,17,17,18,18,19,19,20,20,21,21,22,22,23,23,24,24,25,25,26,26,27,27,28,28,29,29,30,30],"right_children":[2,4,6,8,10,12,14,16,18,20,22,24,26,28,30,32,34,36,38,40,42,44,46,48,50,52,54,56,58,60,62,-1,-1,-1,-1,-1,-1,-1,-1,-1,-1,-1,-1,-1,-1,-1,-1,-1,-1,-1,-1,-1,-1,-1,-1,-1,-1,-1,-1,-1,-1,-1,-1],"split_conditions":[5.0306077E0,5.25E1,2.5E0,4.0889965E1,1.5E0,8.55E1,1.95E1,-7.4024414E1,-7.188833E1,8.95E1,2.5E0,5E-1,-7.330734E1,1.95E1,3.65E1,-9.522524E1,-7.376897E1,5E-1,4.4244194E1,5E-1,4.5536404E0,6.5E0,7.25E1,5.45E1,-1.1826894E2,8.95E1,4.2395966E1,5E-1,-1.0478157E2,-7.746993E1,-1.582019E2,-1.1806774E-2,-2.0864063E-3,-3.901648E-2,1.3339478E-2,5.7575395E-3,-1.4198606E-2,-2.1067506E-2,2.7092464E-2,-4.570874E-3,5.5608638E-3,-1.341902E-2,-4.6502493E-2,-1.7957537E-2,6.565099E-3,-2.2228032E-3,1.1171292E-2,-1.4962483E-3,6.4052613E-3,6.6782895E-4,1.6334862E-2,-9.496135E-3,-3.4840323E-2,-1.3280019E-1,-2.1515232E-2,1.5831226E-1,-1.798121E-1,-1.3964473E-3,5.853386E-3,2.175724E-2,6.724617E-3,-1.537185E-1,9.805787E-3],"split_indices":[65,61,66,68,66,61,64,67,67,61,66,60,67,61,61,67,67,63,68,57,65,64,61,61,67,61,68,51,67,67,67,0,0,0,0,0,0,0,0,0,0,0,0,0,0,0,0,0,0,0,0,0,0,0,0,0,0,0,0,0,0,0,0],"split_type":[0,0,0,0,0,0,0,0,0,0,0,0,0,0,0,0,0,0,0,0,0,0,0,0,0,0,0,0,0,0,0,0,0,0,0,0,0,0,0,0,0,0,0,0,0,0,0,0,0,0,0,0,0,0,0,0,0,0,0,0,0,0,0],"sum_hessian":[8.402898E7,6.659272E7,1.743626E7,2.8564834E7,3.8027884E7,8.22442E6,9.21184E6,1.9749656E7,8.815179E6,1.4458371E7,2.3569514E7,8.092124E6,1.32296E5,2.76698E6,6.44486E6,1.9102976E7,6.46678E5,7.999581E6,8.15598E5,1.374344E7,7.14931E5,1.7991024E7,5.57849E6,7.116335E6,9.75789E5,1.25333E5,6.963E3,2.741E3,2.764239E6,1.011864E6,5.432996E6,5.839184E6,1.3263793E7,5.145E5,1.32178E5,7.443291E6,5.5629E5,6.91207E5,1.24391E5,7.865633E6,5.877807E6,5.71905E5,1.43026E5,2.045E5,1.7786524E7,4.642153E6,9.36337E5,2.399116E6,4.717219E6,1.71196E5,8.04593E5,7.5781E4,4.9552E4,3.96E3,3.003E3,2.648E3,9.3E1,5.83675E5,2.180564E6,7.33707E5,2.78157E5,2.034E3,5.430962E6],"tree_param":{"num_deleted":"0","num_feature":"69","num_nodes":"63","size_leaf_vector":"0"}},{"base_weights":[3.4559704E-3,-2.359433E-2,5.912832E-3,-4.1962296E-2,8.71942E-3,6.948877E-3,-4.4715673E-2,-2.2051947E-2,-6.95687E-2,-1.1497226E-1,1.1759529E-2,7.960945E-3,-3.6183387E-2,-4.7051772E-2,1.3162592E-1,2.3647115E-1,-2.341097E-2,-2.0277031E-1,-6.606633E-2,-3.556859E-1,-5.0397463E-2,1.6576007E-2,-3.74961E-2,-2.370791E-2,9.256213E-3,-1.2032042E-2,-5.1840898E-2,-7.0103005E-2,-3.4378752E-2,1.9271842E-1,-8.03681E-2,5.2685076E-1,1.643826E-1,-6.0498025E-2,-1.4109692E-2,-2.1200097E-1,2.1079984E-1,-3.8090624E-2,-8.0330595E-2,-3.9356586E-1,-1.3806187E-1,4.25657E-2,-2.1430385E-1,2.0266274E-2,-4.1865643E-2,-1.2493174E-1,-1.8193254E-2,-3.894559E-2,1.5457123E-2,1.0594781E-2,-2.5384009E-2,2.9105684E-3,-7.782462E-2,-6.792259E-2,1.1443811E-2,-8.909888E-2,-3.6585964E-2,-3.2387283E-2,-2.4602287E-1,1.2863812E-1,4.0349075E-1,-2.3575033E-1,4.2651594E-2],"categories":[],"categories_nodes":[],"categories_segments":[],"categories_sizes":[],"default_left":[1,1,1,1,1,1,1,1,1,1,1,1,1,1,1,1,1,1,1,1,1,1,1,1,1,1,1,1,1,1,1,0,0,0,0,0,0,0,0,0,0,0,0,0,0,0,0,0,0,0,0,0,0,0,0,0,0,0,0,0,0,0,0],"id":12,"left_children":[1,3,5,7,9,11,13,15,17,19,21,23,25,27,29,31,33,35,37,39,41,43,45,47,49,51,53,55,57,59,61,-1,-1,-1,-1,-1,-1,-1,-1,-1,-1,-1,-1,-1,-1,-1,-1,-1,-1,-1,-1,-1,-1,-1,-1,-1,-1,-1,-1,-1,-1,-1,-1],"loss_changes":[5.5844688E3,4.152702E3,4.0406165E3,2.4519233E3,9.535038E2,3.2952507E3,6.363711E2,9.105648E2,8.719971E2,9.454791E2,5.8712854E2,3.0254868E3,6.5444775E2,4.4536572E2,2.615918E2,2.8361884E2,8.8934326E2,1.8285828E2,7.267876E2,1.0600757E2,7.308184E2,4.8619556E2,3.720587E2,1.7295732E3,3.285604E3,6.692042E2,1.0685713E3,3.443352E2,4.146178E2,2.1171417E2,8.639108E1,0E0,0E0,0E0,0E0,0E0,0E0,0E0,0E0,0E0,0E0,0E0,0E0,0E0,0E0,0E0,0E0,0E0,0E0,0E0,0E0,0E0,0E0,0E0,0E0,0E0,0E0,0E0,0E0,0E0,0E0,0E0,0E0],"parents":[2147483647,0,0,1,1,2,2,3,3,4,4,5,5,6,6,7,7,8,8,9,9,10,10,11,11,12,12,13,13,14,14,15,15,16,16,17,17,18,18,19,19,20,20,21,21,22,22,23,23,24,24,25,25,26,26,27,27,28,28,29,29,30,30],"right_children":[2,4,6,8,10,12,14,16,18,20,22,24,26,28,30,32,34,36,38,40,42,44,46,48,50,52,54,56,58,60,62,-1,-1,-1,-1,-1,-1,-1,-1,-1,-1,-1,-1,-1,-1,-1,-1,-1,-1,-1,-1,-1,-1,-1,-1,-1,-1,-1,-1,-1,-1,-1,-1],"split_conditions":[1.55E1,7.25E1,5E-1,5E-1,4.028571E0,5E-1,5E-1,1.95E1,4.033021E0,-1.16834015E2,-7.41192E1,4.1523037E0,2.05E1,4.45E1,4.665572E0,3.263425E1,1.5E0,-7.366454E1,3.476152E1,1.45E1,3.9639393E1,5E-1,-7.3947845E1,5E-1,8.35E1,-7.40864E1,5.1808424E0,1.95E1,5E-1,3.419896E1,4.7315283E0,1.5805523E-1,4.9314786E-2,-1.8149408E-2,-4.2329077E-3,-6.3600294E-2,6.3239954E-2,-1.1427187E-2,-2.409918E-2,-1.1806976E-1,-4.141856E-2,1.276971E-2,-6.429116E-2,6.0798824E-3,-1.2559693E-2,-3.7479524E-2,-5.4579764E-3,-1.1683677E-2,4.637137E-3,3.1784342E-3,-7.615203E-3,8.7317056E-4,-2.3347387E-2,-2.037678E-2,3.4331433E-3,-2.6729664E-2,-1.0975789E-2,-9.716185E-3,-7.380686E-2,3.8591437E-2,1.2104723E-1,-7.0725106E-2,1.2795479E-2],"split_indices":[64,61,59,62,65,4,29,61,65,67,67,65,64,61,65,68,66,67,68,64,68,9,67,57,61,67,65,64,33,68,65,0,0,0,0,0,0,0,0,0,0,0,0,0,0,0,0,0,0,0,0,0,0,0,0,0,0,0,0,0,0,0,0],"split_type":[0,0,0,0,0,0,0,0,0,0,0,0,0,0,0,0,0,0,0,0,0,0,0,0,0,0,0,0,0,0,0,0,0,0,0,0,0,0,0,0,0,0,0,0,0,0,0,0,0,0,0,0,0,0,0,0,0,0,0,0,0,0,0],"sum_hessian":[8.402898E7,6.996523E6,7.7032456E7,4.460857E6,2.535666E6,7.5487704E7,1.544755E6,2.591681E6,1.869176E6,6.0826E4,2.47484E6,7.375704E7,1.730657E6,1.524559E6,2.0196E4,1.3552E4,2.578129E6,4.7887E4,1.821289E6,1.2865E4,4.7961E4,2.254394E6,2.20446E5,2.898153E6,7.085889E7,6.80698E5,1.049959E6,5.40829E5,9.8373E5,1.5678E4,4.518E3,2.694E3,1.0858E4,5.16937E5,2.061192E6,4.6842E4,1.045E3,6.15043E5,1.206246E6,1.0957E4,1.908E3,3.0604E4,1.7357E4,2.120497E6,1.33897E5,3.9865E4,1.80581E5,2.086408E6,8.11745E5,6.822263E7,2.636258E6,5.54714E5,1.25984E5,8.3721E5,2.12749E5,3.4519E5,1.95639E5,9.74561E5,9.169E3,1.2024E4,3.654E3,1.996E3,2.522E3],"tree_param":{"num_deleted":"0","num_feature":"69","num_nodes":"63","size_leaf_vector":"0"}},{"base_weights":[2.4191886E-3,-3.447367E-3,1.0297498E-2,-2.5453435E-2,9.726467E-4,2.1341108E-3,2.4012148E-2,-3.7910316E-2,5.74457E-3,5.481416E-3,-1.6822705E-2,-1.9942556E-2,1.0183446E-2,2.5928184E-2,-1.7015815E-2,-5.615605E-2,-1.9345477E-2,1.3412876E-2,-7.187603E-2,1.3201966E-2,-3.7390776E-3,-2.6859779E-2,1.1232885E-2,-1.326954E-2,-9.511789E-2,1.3633314E-2,-4.5498073E-2,3.382986E-2,1.6885763E-2,-4.5270946E-2,2.0468054E-2,-6.477111E-2,-1.1796205E-2,-3.8094148E-2,-2.2657252E-4,-1.597428E-3,2.5070803E-2,-1.8943295E-1,-2.688035E-2,-2.9999131E-2,1.5273615E-2,-3.4112934E-2,7.5523015E-3,-1.1340594E-1,-2.3867784E-2,-7.36567E-2,1.2809297E-2,1.971806E-2,-2.0598993E-2,-1.3481988E-1,-6.0434893E-2,2.0693168E-3,2.8913539E-2,-3.3383746E-2,-8.7608255E-2,3.6092885E-2,-3.1500567E-2,4.377556E-2,1.2090979E-2,-5.2831534E-2,1.3243394E-1,-3.2390764E-1,2.3686122E-2],"categories":[],"categories_nodes":[],"categories_segments":[],"categories_sizes":[],"default_left":[1,1,1,1,1,1,1,1,1,1,1,1,1,1,1,1,1,1,1,1,1,1,1,1,1,1,1,1,1,1,1,0,0,0,0,0,0,0,0,0,0,0,0,0,0,0,0,0,0,0,0,0,0,0,0,0,0,0,0,0,0,0,0],"id":13,"left_children":[1,3,5,7,9,11,13,15,17,19,21,23,25,27,29,31,33,35,37,39,41,43,45,47,49,51,53,55,57,59,61,-1,-1,-1,-1,-1,-1,-1,-1,-1,-1,-1,-1,-1,-1,-1,-1,-1,-1,-1,-1,-1,-1,-1,-1,-1,-1,-1,-1,-1,-1,-1,-1],"loss_changes":[3.8836968E3,4.684764E3,4.0153828E3,3.1307515E3,3.2180735E3,3.9952297E3,1.0520054E3,1.9501094E3,1.3682511E3,2.2780078E3,2.2831309E3,3.0134512E3,3.1648545E3,9.135137E2,6.323795E2,1.1096162E3,1.02289014E3,3.6608722E2,1.0932345E3,1.5587551E3,5.0015864E3,1.5462871E3,2.8588797E2,1.3339963E3,6.7437695E2,2.7413909E3,4.9035266E2,1.0087471E3,7.687207E2,4.5742383E2,2.8441345E2,0E0,0E0,0E0,0E0,0E0,0E0,0E0,0E0,0E0,0E0,0E0,0E0,0E0,0E0,0E0,0E0,0E0,0E0,0E0,0E0,0E0,0E0,0E0,0E0,0E0,0E0,0E0,0E0,0E0,0E0,0E0,0E0],"parents":[2147483647,0,0,1,1,2,2,3,3,4,4,5,5,6,6,7,7,8,8,9,9,10,10,11,11,12,12,13,13,14,14,15,15,16,16,17,17,18,18,19,19,20,20,21,21,22,22,23,23,24,24,25,25,26,26,27,27,28,28,29,29,30,30],"right_children":[2,4,6,8,10,12,14,16,18,20,22,24,26,28,30,32,34,36,38,40,42,44,46,48,50,52,54,56,58,60,62,-1,-1,-1,-1,-1,-1,-1,-1,-1,-1,-1,-1,-1,-1,-1,-1,-1,-1,-1,-1,-1,-1,-1,-1,-1,-1,-1,-1,-1,-1,-1,-1],"split_conditions":[1.95E1,-1.04669365E2,2.5E0,6.75E1,-7.719187E1,4.45E1,5E-1,3.8290283E1,5E-1,5E-1,4.903443E0,2.25E1,8.25E1,4.55E1,5.033426E0,5.0532703E0,4.7349596E0,1.5E0,4.2540627E0,4.146903E0,4.65E1,-7.69501E1,-7.702336E1,2.05E1,4.9319763E0,5E-1,8.95E1,5E-1,5E-1,5E-1,2.582271E1,-1.9431334E-2,-3.5388616E-3,-1.1428244E-2,-6.7971756E-5,-4.7922842E-4,7.5212414E-3,-5.682989E-2,-8.064105E-3,-8.99974E-3,4.5820847E-3,-1.0233881E-2,2.2656906E-3,-3.4021784E-2,-7.1603353E-3,-2.209701E-2,3.8427892E-3,5.9154183E-3,-6.1796983E-3,-4.0445965E-2,-1.8130468E-2,6.2079506E-4,8.674062E-3,-1.0015124E-2,-2.6282478E-2,1.0827865E-2,-9.45017E-3,1.3132668E-2,3.627294E-3,-1.5849462E-2,3.9730184E-2,-9.71723E-2,7.105837E-3],"split_indices":[64,67,66,61,67,61,4,68,3,62,65,64,61,61,65,65,65,66,65,65,61,67,67,64,65,62,61,51,56,15,68,0,0,0,0,0,0,0,0,0,0,0,0,0,0,0,0,0,0,0,0,0,0,0,0,0,0,0,0,0,0,0,0],"split_type":[0,0,0,0,0,0,0,0,0,0,0,0,0,0,0,0,0,0,0,0,0,0,0,0,0,0,0,0,0,0,0,0,0,0,0,0,0,0,0,0,0,0,0,0,0,0,0,0,0,0,0,0,0,0,0,0,0,0,0,0,0,0,0],"sum_hessian":[8.402898E7,4.81639E7,3.586508E7,8.05587E6,4.010803E7,2.2482684E7,1.3382394E7,5.757135E6,2.298735E6,3.2000208E7,8.107822E6,6.007125E6,1.647556E7,1.2785311E7,5.97083E5,2.90352E6,2.853615E6,2.092057E6,2.06678E5,1.7416738E7,1.458347E7,5.971484E6,2.136338E6,5.517371E6,4.89754E5,1.5514337E7,9.61223E5,6.823033E6,5.962278E6,3.40452E5,2.56631E5,2.431334E6,4.72186E5,1.440757E6,1.412858E6,9.14536E5,1.177521E6,5.7209E4,1.49469E5,7.96977E5,1.6619761E7,3.952155E6,1.0631315E7,1.99541E5,5.771943E6,3.8948E4,2.09739E6,1.003032E6,4.514339E6,2.28353E5,2.61401E5,8.831047E6,6.68329E6,7.46477E5,2.14746E5,6.594599E6,2.28434E5,9.02262E5,5.060016E6,3.26559E5,1.3893E4,2.375E3,2.54256E5],"tree_param":{"num_deleted":"0","num_feature":"69","num_nodes":"63","size_leaf_vector":"0"}},{"base_weights":[1.6934242E-3,2.504434E-3,-3.6389288E-2,2.7663698E-3,-1.07400924E-1,-8.03869E-2,-3.0481743E-2,-2.230967E-2,3.7703721E-3,-1.7564431E-1,-5.775489E-2,-8.3083786E-2,5.296774E-1,-3.3085484E-2,6.0787596E-2,-6.321139E-2,-8.807987E-3,5.3939912E-3,-1.2704007E-2,-2.66935E-1,-1.1231471E-1,-1.0420482E-1,1.8459957E-2,-7.6210596E-2,-3.1137928E-1,6.168556E-1,2.4722172E-1,-3.4772303E-2,9.066625E-2,1.5485656E-1,-3.204998E-3,-1.7771015E-2,-1.7448092E-1,1.9729238E-3,-4.2366877E-2,-5.4300195E-3,7.944211E-3,-1.07856974E-1,3.420291E-3,-1.2786075E-1,-3.3213466E-1,-2.3261702E-1,-3.8106218E-2,-1.3544048E-1,1.7255647E-2,-2.6903355E-1,3.8189303E-2,-1.4421551E-1,-5.5967063E-2,-6.2830025E-1,-2.1056087E-1,4.8474988E-1,6.386876E-1,-4.3152595E-1,4.477584E-1,-4.3427747E-2,-9.543799E-3,-2.9266083E-1,1.1835736E-1,2.3315756E-1,-6.300999E-2,-1.3485728E-1,7.254324E-2],"categories":[],"categories_nodes":[],"categories_segments":[],"categories_sizes":[],"default_left":[1,1,1,1,1,1,1,1,1,1,1,1,1,1,1,1,1,1,1,1,1,1,1,1,1,1,1,1,1,1,1,0,0,0,0,0,0,0,0,0,0,0,0,0,0,0,0,0,0,0,0,0,0,0,0,0,0,0,0,0,0,0,0],"id":14,"left_children":[1,3,5,7,9,11,13,15,17,19,21,23,25,27,29,31,33,35,37,39,41,43,45,47,49,51,53,55,57,59,61,-1,-1,-1,-1,-1,-1,-1,-1,-1,-1,-1,-1,-1,-1,-1,-1,-1,-1,-1,-1,-1,-1,-1,-1,-1,-1,-1,-1,-1,-1,-1,-1],"loss_changes":[2.595273E3,2.3685981E3,4.5541748E2,2.066509E3,6.627632E2,3.412943E2,3.671007E2,1.7450159E3,2.1109966E3,4.762478E2,4.0090182E2,3.240005E2,2.2329163E1,3.135216E2,2.579273E2,3.9650588E3,8.595059E2,1.9830732E3,1.0863034E4,3.0590723E2,4.3423145E2,2.6694482E2,2.432452E2,2.759668E2,1.9269482E2,1.7006531E0,2.9729918E1,3.235525E2,2.1442079E2,2.9594012E2,2.5431667E2,0E0,0E0,0E0,0E0,0E0,0E0,0E0,0E0,0E0,0E0,0E0,0E0,0E0,0E0,0E0,0E0,0E0,0E0,0E0,0E0,0E0,0E0,0E0,0E0,0E0,0E0,0E0,0E0,0E0,0E0,0E0,0E0],"parents":[2147483647,0,0,1,1,2,2,3,3,4,4,5,5,6,6,7,7,8,8,9,9,10,10,11,11,12,12,13,13,14,14,15,15,16,16,17,17,18,18,19,19,20,20,21,21,22,22,23,23,24,24,25,25,26,26,27,27,28,28,29,29,30,30],"right_children":[2,4,6,8,10,12,14,16,18,20,22,24,26,28,30,32,34,36,38,40,42,44,46,48,50,52,54,56,58,60,62,-1,-1,-1,-1,-1,-1,-1,-1,-1,-1,-1,-1,-1,-1,-1,-1,-1,-1,-1,-1,-1,-1,-1,-1,-1,-1,-1,-1,-1,-1,-1,-1],"split_conditions":[5E-1,5E-1,1.55E1,-1.22202774E2,-7.702599E1,-7.076807E1,5E-1,3.7905407E1,-7.4024414E1,3.45E1,4.9449263E0,4.9661355E0,-6.873018E1,5E-1,3.3881603E1,3.775399E1,4.7382446E1,3.3073776E1,-7.389078E1,4.8419733E0,4.9831743E0,7.35E1,2.75E1,-9.387178E1,4.998037E0,7E0,5.55E1,4.0951473E1,3.0629726E1,4.7074866E0,4.370142E0,-5.331305E-3,-5.2344278E-2,5.9187715E-4,-1.2710064E-2,-1.6290059E-3,2.3832635E-3,-3.2357093E-2,1.0260873E-3,-3.8358226E-2,-9.964041E-2,-6.978511E-2,-1.1431865E-2,-4.0632147E-2,5.176694E-3,-8.071007E-2,1.1456791E-2,-4.3264654E-2,-1.679012E-2,-1.8849008E-1,-6.3168265E-2,1.4542498E-1,1.916063E-1,-1.2945779E-1,1.3432753E-1,-1.3028325E-2,-2.8631398E-3,-8.779825E-2,3.550721E-2,6.994727E-2,-1.8902998E-2,-4.0457185E-2,2.1762973E-2],"split_indices":[59,13,64,67,67,67,45,68,67,61,65,65,67,29,68,68,68,68,67,65,65,61,61,67,65,64,61,68,68,65,65,0,0,0,0,0,0,0,0,0,0,0,0,0,0,0,0,0,0,0,0,0,0,0,0,0,0,0,0,0,0,0,0],"split_type":[0,0,0,0,0,0,0,0,0,0,0,0,0,0,0,0,0,0,0,0,0,0,0,0,0,0,0,0,0,0,0,0,0,0,0,0,0,0,0,0,0,0,0,0,0,0,0,0,0,0,0,0,0,0,0,0,0,0,0,0,0,0,0],"sum_hessian":[8.402898E7,8.227682E7,1.752167E6,8.208119E7,1.95622E5,2.07412E5,1.544755E6,3.159875E6,7.892131E7,8.238E4,1.13242E5,2.065E5,9.12E2,1.501909E6,4.2846E4,7.84208E5,2.375667E6,7.184107E7,7.080239E6,3.374E4,4.864E4,7.036E4,4.2882E4,2.00466E5,6.034E3,6.96E2,2.16E2,1.481713E6,2.0196E4,1.7346E4,2.55E4,5.56816E5,2.27392E5,1.798041E6,5.77626E5,1.3698773E7,5.8142304E7,1.02594E6,6.054299E6,1.077E4,2.297E4,1.8556E4,3.0084E4,5.5967E4,1.4393E4,2.753E3,4.0129E4,4.5984E4,1.54482E5,1.455E3,4.579E3,1.02E2,5.94E2,4.9E1,1.67E2,1.103218E6,3.78495E5,1.36E3,1.8836E4,1.276E4,4.586E3,9.313E3,1.6187E4],"tree_param":{"num_deleted":"0","num_feature":"69","num_nodes":"63","size_leaf_vector":"0"}},{"base_weights":[1.1853725E-3,-1.744889E-2,2.5682733E-3,-3.26053E-2,1.495112E-3,7.7242404E-4,1.8373204E-2,1.9549884E-1,-3.3830084E-2,5.230709E-3,-6.7595474E-2,-1.4171196E-3,1.4715001E-2,9.604082E-3,4.156964E-2,6.122067E-1,1.6944896E-1,-1.9379422E-2,-5.3301994E-2,-2.0728717E-2,1.4252651E-2,-1.6732922E-1,-9.298047E-3,-4.1942145E-3,1.201397E-2,-1.7623516E-2,1.6655955E-2,2.5888538E-2,-2.0399611E-2,2.9453576E-2,8.4038936E-2,-1.7607632E-1,6.8552756E-1,4.5480967E-1,1.2257338E-1,-1.4809085E-1,-1.7463021E-2,6.572499E-3,-6.217727E-2,6.8730675E-3,-5.2564148E-2,1.6281866E-2,-8.346008E-2,-2.3404662E-1,-4.2375382E-2,-1.0535672E-1,4.3605372E-2,-1.9153705E-3,-2.8945487E-2,-1.3719129E-2,1.681383E-2,-5.1252577E-2,2.8755955E-2,4.5035765E-2,1.3599141E-2,3.999616E-2,1.4960114E-2,2.676108E-3,-4.915286E-2,1.0079363E-1,2.4569342E-2,2.0839836E-1,7.798275E-2],"categories":[],"categories_nodes":[],"categories_segments":[],"categories_sizes":[],"default_left":[1,1,1,1,1,1,1,1,1,1,1,1,1,1,1,1,1,1,1,1,1,1,1,1,1,1,1,1,1,1,1,0,0,0,0,0,0,0,0,0,0,0,0,0,0,0,0,0,0,0,0,0,0,0,0,0,0,0,0,0,0,0,0],"id":15,"left_children":[1,3,5,7,9,11,13,15,17,19,21,23,25,27,29,31,33,35,37,39,41,43,45,47,49,51,53,55,57,59,61,-1,-1,-1,-1,-1,-1,-1,-1,-1,-1,-1,-1,-1,-1,-1,-1,-1,-1,-1,-1,-1,-1,-1,-1,-1,-1,-1,-1,-1,-1,-1,-1],"loss_changes":[2.165371E3,1.6668085E3,2.220247E3,9.0100146E2,6.659378E2,2.144352E3,1.6235063E3,1.8686603E2,9.0260986E2,5.732992E2,7.695164E2,2.2643992E3,5.984082E2,2.829853E3,1.1266428E3,5.8669617E1,2.1680325E2,4.541773E2,7.261509E2,5.547505E2,3.6018478E2,4.07016E2,4.2447986E2,2.8375273E3,1.2847782E3,8.419467E2,7.802356E2,5.788042E2,1.3519529E3,5.935781E2,3.660105E2,0E0,0E0,0E0,0E0,0E0,0E0,0E0,0E0,0E0,0E0,0E0,0E0,0E0,0E0,0E0,0E0,0E0,0E0,0E0,0E0,0E0,0E0,0E0,0E0,0E0,0E0,0E0,0E0,0E0,0E0,0E0,0E0],"parents":[2147483647,0,0,1,1,2,2,3,3,4,4,5,5,6,6,7,7,8,8,9,9,10,10,11,11,12,12,13,13,14,14,15,15,16,16,17,17,18,18,19,19,20,20,21,21,22,22,23,23,24,24,25,25,26,26,27,27,28,28,29,29,30,30],"right_children":[2,4,6,8,10,12,14,16,18,20,22,24,26,28,30,32,34,36,38,40,42,44,46,48,50,52,54,56,58,60,62,-1,-1,-1,-1,-1,-1,-1,-1,-1,-1,-1,-1,-1,-1,-1,-1,-1,-1,-1,-1,-1,-1,-1,-1,-1,-1,-1,-1,-1,-1,-1,-1],"split_conditions":[1.45E1,6.95E1,5E-1,1.85E1,5E-1,5.149435E0,1.5E0,2.6808128E1,5E-1,4.1943755E0,1.05E1,4.2486794E1,1.5E0,8.15E1,8.05E1,5E-1,1.55E1,4.0314064E0,5E-1,3.8710526E1,4.692276E1,5E-1,7.75E1,-7.427072E1,-1.2215054E2,5E-1,5E-1,3.773034E1,4.398547E0,4.55E1,4.210185E0,-5.28229E-2,2.0565827E-1,1.364429E-1,3.6772016E-2,-4.4427257E-2,-5.2389065E-3,1.9717498E-3,-1.8653182E-2,2.0619202E-3,-1.5769245E-2,4.8845597E-3,-2.5038024E-2,-7.021399E-2,-1.2712616E-2,-3.1607017E-2,1.3081612E-2,-5.746112E-4,-8.683646E-3,-4.115739E-3,5.0441492E-3,-1.5375773E-2,8.626787E-3,1.351073E-2,4.0797424E-3,1.1998848E-2,4.488034E-3,8.028324E-4,-1.47458585E-2,3.023809E-2,7.370803E-3,6.251951E-2,2.3394827E-2],"split_indices":[64,61,57,61,9,65,66,68,62,65,64,68,66,61,61,0,61,65,0,68,68,0,61,67,67,60,56,68,65,61,65,0,0,0,0,0,0,0,0,0,0,0,0,0,0,0,0,0,0,0,0,0,0,0,0,0,0,0,0,0,0,0,0],"split_type":[0,0,0,0,0,0,0,0,0,0,0,0,0,0,0,0,0,0,0,0,0,0,0,0,0,0,0,0,0,0,0,0,0,0,0,0,0,0,0,0,0,0,0,0,0,0,0,0,0,0,0,0,0,0,0,0,0,0,0,0,0,0,0],"sum_hessian":[8.402898E7,5.805205E6,7.822378E7,3.224999E6,2.580206E6,7.024242E7,7.981356E6,1.7223E4,3.207776E6,2.447856E6,1.3235E5,6.0708716E7,9.533702E6,5.791829E6,2.189527E6,1.012E3,1.6211E4,1.841298E6,1.366478E6,6.31319E5,1.816537E6,4.8823E4,8.3527E4,5.0306944E7,1.0401773E7,5.39812E5,8.99389E6,3.754228E6,2.037601E6,1.703529E6,4.85998E5,8.6E1,9.26E2,2.286E3,1.3925E4,2.7012E4,1.814286E6,1.76406E5,1.190072E6,3.38144E5,2.93175E5,1.779581E6,3.6956E4,3.1828E4,1.6995E4,2.9664E4,5.3863E4,4.606569E7,4.241256E6,1.635185E6,8.766588E6,3.12919E5,2.26893E5,8.74541E5,8.119349E6,1.638748E6,2.11548E6,1.130404E6,9.07197E5,1.09156E5,1.594373E6,2.2567E4,4.63431E5],"tree_param":{"num_deleted":"0","num_feature":"69","num_nodes":"63","size_leaf_vector":"0"}},{"base_weights":[8.2975044E-4,-3.1678865E-3,6.1982535E-3,1.2889726E-4,-1.9179152E-2,9.962948E-4,1.4937645E-2,-1.2022287E-2,5.269355E-3,-4.5529313E-2,-1.3488342E-2,-1.1140376E-2,7.4696415E-3,1.8852606E-2,4.340243E-3,2.5465726E-5,-2.7885811E-2,-6.683485E-2,5.8511235E-3,-5.7168666E-2,-1.0763849E-2,-1.7321764E-2,3.5296377E-2,-1.5928486E-3,-3.1684447E-2,9.6855145E-3,-3.797279E-2,2.0477165E-2,-2.7430868E-2,-4.4593707E-4,1.7007913E-2,-3.6428638E-2,7.295796E-3,-3.0119546E-2,3.1120218E-2,-1.6230556E-1,-4.4844978E-2,5.1984475E-3,6.2095143E-2,-5.1397976E-2,-1.2972443E-1,-6.0909998E-2,6.8031275E-3,-1.5186441E-2,-1.21314645E-1,4.6058536E-2,-1.9511087E-3,2.0497658E-3,-5.3507853E-2,-1.7635968E-2,-6.28669E-2,2.4952202E-3,1.9691743E-2,-4.241215E-2,8.425477E-2,-1.3363279E-3,2.3982273E-2,2.708359E-2,-7.550231E-2,-3.402577E-3,3.449159E-2,1.7309863E-2,-2.740525E-1],"categories":[],"categories_nodes":[],"categories_segments":[],"categories_sizes":[],"default_left":[1,1,1,1,1,1,1,1,1,1,1,1,1,1,1,1,1,1,1,1,1,1,1,1,1,1,1,1,1,1,1,0,0,0,0,0,0,0,0,0,0,0,0,0,0,0,0,0,0,0,0,0,0,0,0,0,0,0,0,0,0,0,0],"id":16,"left_children":[1,3,5,7,9,11,13,15,17,19,21,23,25,27,29,31,33,35,37,39,41,43,45,47,49,51,53,55,57,59,61,-1,-1,-1,-1,-1,-1,-1,-1,-1,-1,-1,-1,-1,-1,-1,-1,-1,-1,-1,-1,-1,-1,-1,-1,-1,-1,-1,-1,-1,-1,-1,-1],"loss_changes":[1.8033732E3,2.5423643E3,1.6304966E3,2.4947632E3,1.2331924E3,1.7663496E3,5.5521436E2,2.2692393E3,1.1773408E3,5.9104224E2,1.2648007E3,1.5339377E3,1.4764115E3,7.3477856E2,2.1888156E2,1.7885259E3,6.755061E2,4.716037E2,1.02205707E3,4.581631E2,3.2273376E2,1.3924073E3,1.9751471E2,1.00966614E3,1.0869641E3,1.0058683E3,3.699143E2,7.2183765E2,8.684049E2,2.7065732E2,8.700867E1,0E0,0E0,0E0,0E0,0E0,0E0,0E0,0E0,0E0,0E0,0E0,0E0,0E0,0E0,0E0,0E0,0E0,0E0,0E0,0E0,0E0,0E0,0E0,0E0,0E0,0E0,0E0,0E0,0E0,0E0,0E0,0E0],"parents":[2147483647,0,0,1,1,2,2,3,3,4,4,5,5,6,6,7,7,8,8,9,9,10,10,11,11,12,12,13,13,14,14,15,15,16,16,17,17,18,18,19,19,20,20,21,21,22,22,23,23,24,24,25,25,26,26,27,27,28,28,29,29,30,30],"right_children":[2,4,6,8,10,12,14,16,18,20,22,24,26,28,30,32,34,36,38,40,42,44,46,48,50,52,54,56,58,60,62,-1,-1,-1,-1,-1,-1,-1,-1,-1,-1,-1,-1,-1,-1,-1,-1,-1,-1,-1,-1,-1,-1,-1,-1,-1,-1,-1,-1,-1,-1,-1,-1],"split_conditions":[1.95E1,5E-1,2.5E0,4.75E1,-1.0480965E2,5.05E1,5.15E1,5E-1,4.026329E0,6.65E1,4.3418247E1,5E-1,8.45E1,5E-1,5.212241E0,3.3084E1,5E-1,-1.1742745E2,5E-1,-1.0669719E2,4.239298E0,-7.146188E1,5E-1,5E-1,2.15E1,5E-1,5E-1,3.2901432E1,-7.7437485E1,-7.371062E1,6.191358E1,-1.0928592E-2,2.188739E-3,-9.035864E-3,9.3360655E-3,-4.869167E-2,-1.3453494E-2,1.5595343E-3,1.8628543E-2,-1.5419393E-2,-3.891733E-2,-1.8273E-2,2.0409382E-3,-4.5559327E-3,-3.6394395E-2,1.3817561E-2,-5.8533263E-4,6.1492977E-4,-1.6052356E-2,-5.2907905E-3,-1.886007E-2,7.4856606E-4,5.907523E-3,-1.2723646E-2,2.5276432E-2,-4.0089837E-4,7.1946825E-3,8.125078E-3,-2.2650694E-2,-1.0207732E-3,1.0347478E-2,5.192959E-3,-8.2215756E-2],"split_indices":[64,58,66,61,67,61,61,62,65,61,68,56,61,51,65,68,3,67,29,67,65,67,54,48,64,62,63,68,67,67,68,0,0,0,0,0,0,0,0,0,0,0,0,0,0,0,0,0,0,0,0,0,0,0,0,0,0,0,0,0,0,0,0],"split_type":[0,0,0,0,0,0,0,0,0,0,0,0,0,0,0,0,0,0,0,0,0,0,0,0,0,0,0,0,0,0,0,0,0,0,0,0,0,0,0,0,0,0,0,0,0,0,0,0,0,0,0,0,0,0,0,0,0,0,0,0,0,0,0],"sum_hessian":[8.402898E7,4.81639E7,3.586508E7,3.994008E7,8.223821E6,2.2482684E7,1.3382394E7,1.1873383E7,2.8066696E7,1.460635E6,6.763186E6,7.820423E6,1.4662262E7,9.772261E6,3.610133E6,6.748302E6,5.125081E6,2.24641E5,2.7842056E7,1.094275E6,3.6636E5,6.270464E6,4.92722E5,5.339143E6,2.48128E6,1.3980541E7,6.81721E5,9.440885E6,3.31376E5,2.620166E6,9.89967E5,1.122081E6,5.626221E6,4.938143E6,1.86938E5,4.2054E4,1.82587E5,2.7522672E7,3.19382E5,1.013656E6,8.0619E4,9.5045E4,2.71315E5,6.144302E6,1.26162E5,3.8227E5,1.10452E5,4.989085E6,3.50058E5,1.710609E6,7.70671E5,8.13493E6,5.845611E6,6.57829E5,2.3892E4,1.306997E6,8.133888E6,1.55282E5,1.76094E5,2.415732E6,2.04434E5,9.88942E5,1.025E3],"tree_param":{"num_deleted":"0","num_feature":"69","num_nodes":"63","size_leaf_vector":"0"}},{"base_weights":[5.808137E-4,-7.7314386E-3,2.5337278E-3,-5.5005793E-3,-5.2223E-2,5.3347195E-3,-5.412657E-3,-1.7108405E-2,3.4402216E-5,-1.226881E-1,-4.4862676E-2,-9.149712E-3,7.16432E-3,-1.8622195E-2,8.338899E-4,-2.3932243E-2,2.0009382E-2,1.9467855E-3,-4.3588806E-2,-1.4562137E-1,2.6914338E-2,-7.7103907E-3,-5.886262E-2,-4.1100297E-2,4.2249695E-3,-1.2897855E-2,8.866235E-3,-2.0605216E-2,5.9146293E-2,-7.40859E-3,1.4379071E-2,-2.8271366E-2,2.1294763E-2,-6.902526E-1,2.1014825E-2,-7.0229605E-2,3.0169636E-3,-1.0203383E-1,-2.030319E-3,-1.5215398E-1,2.3265104E-1,1.6225794E-1,-7.832725E-2,-6.1394613E-2,2.21901E-2,-2.7465142E-2,-7.9404056E-2,-1.4136106E-1,-3.5492584E-2,-8.480779E-3,2.213995E-2,2.1716726E-3,-2.9023198E-2,9.821107E-3,-2.5090247E-2,-1.5092474E-2,-5.7511806E-2,6.6205464E-2,-1.2354559E-1,-1.1271516E-2,5.4858293E-2,2.2414278E-2,-1.6586904E-3],"categories":[],"categories_nodes":[],"categories_segments":[],"categories_sizes":[],"default_left":[1,1,1,1,1,1,1,1,1,1,1,1,1,1,1,1,1,1,1,1,1,1,1,1,1,1,1,1,1,1,1,0,0,0,0,0,0,0,0,0,0,0,0,0,0,0,0,0,0,0,0,0,0,0,0,0,0,0,0,0,0,0,0],"id":17,"left_children":[1,3,5,7,9,11,13,15,17,19,21,23,25,27,29,31,33,35,37,39,41,43,45,47,49,51,53,55,57,59,61,-1,-1,-1,-1,-1,-1,-1,-1,-1,-1,-1,-1,-1,-1,-1,-1,-1,-1,-1,-1,-1,-1,-1,-1,-1,-1,-1,-1,-1,-1,-1,-1],"loss_changes":[1.364052E3,1.5867043E3,1.5144789E3,9.7806036E2,3.95875E2,1.333235E3,1.463251E3,1.2449263E3,8.5992413E2,2.4767188E2,3.5946594E2,2.4110503E3,1.5251233E3,8.7802625E2,1.3442072E3,8.147776E2,5.450955E2,7.6275586E2,1.0514747E3,1.5470935E2,1.3669598E2,3.036252E2,3.2373523E2,9.3605566E2,9.05314E2,8.4877985E2,1.3350403E3,1.1295667E3,1.8258182E2,1.8004095E3,5.869643E2,0E0,0E0,0E0,0E0,0E0,0E0,0E0,0E0,0E0,0E0,0E0,0E0,0E0,0E0,0E0,0E0,0E0,0E0,0E0,0E0,0E0,0E0,0E0,0E0,0E0,0E0,0E0,0E0,0E0,0E0,0E0,0E0],"parents":[2147483647,0,0,1,1,2,2,3,3,4,4,5,5,6,6,7,7,8,8,9,9,10,10,11,11,12,12,13,13,14,14,15,15,16,16,17,17,18,18,19,19,20,20,21,21,22,22,23,23,24,24,25,25,26,26,27,27,28,28,29,29,30,30],"right_children":[2,4,6,8,10,12,14,16,18,20,22,24,26,28,30,32,34,36,38,40,42,44,46,48,50,52,54,56,58,60,62,-1,-1,-1,-1,-1,-1,-1,-1,-1,-1,-1,-1,-1,-1,-1,-1,-1,-1,-1,-1,-1,-1,-1,-1,-1,-1,-1,-1,-1,-1,-1,-1],"split_conditions":[-1.0478157E2,5E-1,-7.7895615E1,4.65E1,3.33817E1,2.9836636E1,4.6532173E0,5.1532507E0,5E-1,2.15E1,3.3971836E1,4.75E1,4.1988497E0,-6.9996124E1,4.1099464E1,5E-1,-1.582019E2,1.05E1,3.6214073E1,8.55E1,3.2708344E1,3.3828255E1,4.85E1,2.5942108E1,6.75E1,3.791832E1,5.5E0,-7.188833E1,8.55E1,-7.359937E1,-7.146188E1,-8.48141E-3,6.388429E-3,-2.0707579E-1,6.3044475E-3,-2.1068882E-2,9.0508914E-4,-3.061015E-2,-6.0909573E-4,-4.5646198E-2,6.979532E-2,4.8677385E-2,-2.3498178E-2,-1.8418385E-2,6.65703E-3,-8.239543E-3,-2.3821218E-2,-4.2408317E-2,-1.0647776E-2,-2.5442338E-3,6.6419854E-3,6.515018E-4,-8.70696E-3,2.946332E-3,-7.5270743E-3,-4.5277425E-3,-1.7253542E-2,1.986164E-2,-3.7063677E-2,-3.3814549E-3,1.6457489E-2,6.7242836E-3,-4.9760717E-4],"split_indices":[67,63,67,61,68,68,65,65,33,64,68,61,65,67,68,3,67,64,68,61,68,68,61,68,61,68,66,67,61,67,67,0,0,0,0,0,0,0,0,0,0,0,0,0,0,0,0,0,0,0,0,0,0,0,0,0,0,0,0,0,0,0,0],"split_type":[0,0,0,0,0,0,0,0,0,0,0,0,0,0,0,0,0,0,0,0,0,0,0,0,0,0,0,0,0,0,0,0,0,0,0,0,0,0,0,0,0,0,0,0,0,0,0,0,0,0,0,0,0,0,0,0,0,0,0,0,0,0,0],"sum_hessian":[8.402898E7,1.5986236E7,6.8042744E7,1.5222941E7,7.63295E5,5.0309376E7,1.7733366E7,4.915104E6,1.0307837E7,7.2187E4,6.91108E5,5.642141E6,4.4667236E7,5.693452E6,1.2039914E7,4.151822E6,7.63282E5,9.874934E6,4.32903E5,6.2592E4,9.595E3,1.89151E5,5.01957E5,1.664895E6,3.977246E6,3.492901E6,4.1174336E7,5.551885E6,1.41567E5,7.4851E6,4.554814E6,3.788363E6,3.63459E5,1.078E3,7.62204E5,1.44278E5,9.730656E6,1.79901E5,2.53002E5,6.153E4,1.062E3,4.197E3,5.398E3,6.7664E4,1.21487E5,1.98521E5,3.03436E5,8.8186E4,1.576709E6,2.32693E6,1.650316E6,1.805561E6,1.68734E6,4.0048164E7,1.126172E6,4.830373E6,7.21512E5,1.36301E5,5.266E3,7.047864E6,4.37236E5,3.034483E6,1.520331E6],"tree_param":{"num_deleted":"0","num_feature":"69","num_nodes":"63","size_leaf_vector":"0"}},{"base_weights":[4.0656794E-4,4.3599313E-5,3.607852E-2,1.3066466E-3,-1.0868991E-2,-5.9405435E-2,4.1821662E-2,1.4502138E-3,-9.908374E-2,-1.3477341E-2,5.6974504E-2,3.8255155E-2,-1.0500163E-1,6.316477E-2,1.8231913E-2,1.6846078E-3,-5.3337246E-2,-1.520557E-1,-3.382697E-2,-2.7220149E-2,-1.557313E-4,4.813787E-3,7.105065E-2,1.1719689E-1,-7.675065E-2,-9.3528554E-2,-5.400215E-1,-2.0410556E-2,6.988971E-2,2.8084077E-2,-6.229726E-2,3.6706284E-4,1.2271751E-2,-4.486493E-2,-2.2585082E-1,-1.6881092E-1,1.2700541E-1,-1.3486804E-1,6.3843695E-3,-3.1007072E-2,3.388192E-2,-5.565881E-3,3.332217E-2,-3.3240177E-2,4.9845465E-2,1.1218822E-1,2.4735175E-2,5.0021466E-2,2.1479224E-1,-7.4504834E-1,-4.4308107E-2,-9.9057704E-2,3.8706446E-1,-7.7127546E-1,-3.364072E-1,-5.8163073E-2,1.6649204E-1,1.7313087E-1,6.042466E-2,6.052028E-2,7.4404664E-3,-1.1773435E-1,4.859351E-2],"categories":[],"categories_nodes":[],"categories_segments":[],"categories_sizes":[],"default_left":[1,1,1,1,1,1,1,1,1,1,1,1,1,1,1,1,1,1,1,1,1,1,1,1,1,1,1,1,1,1,1,0,0,0,0,0,0,0,0,0,0,0,0,0,0,0,0,0,0,0,0,0,0,0,0,0,0,0,0,0,0,0,0],"id":18,"left_children":[1,3,5,7,9,11,13,15,17,19,21,23,25,27,29,31,33,35,37,39,41,43,45,47,49,51,53,55,57,59,61,-1,-1,-1,-1,-1,-1,-1,-1,-1,-1,-1,-1,-1,-1,-1,-1,-1,-1,-1,-1,-1,-1,-1,-1,-1,-1,-1,-1,-1,-1,-1,-1],"loss_changes":[1.0879904E3,1.1465155E3,4.6414844E2,1.0745232E3,1.5269849E3,2.1383919E2,4.019651E2,9.560391E2,3.680244E2,1.5212772E3,2.3456372E2,1.387778E2,1.6334033E2,2.3557874E2,3.0087854E2,1.0340417E3,4.6352716E2,2.74786E2,1.93818E2,9.464053E2,7.64224E2,1.16345406E2,4.7933606E2,5.9412918E1,1.3486789E2,8.47973E1,3.9340363E1,2.2027115E2,3.790708E2,2.2625284E2,2.5413562E2,0E0,0E0,0E0,0E0,0E0,0E0,0E0,0E0,0E0,0E0,0E0,0E0,0E0,0E0,0E0,0E0,0E0,0E0,0E0,0E0,0E0,0E0,0E0,0E0,0E0,0E0,0E0,0E0,0E0,0E0,0E0,0E0],"parents":[2147483647,0,0,1,1,2,2,3,3,4,4,5,5,6,6,7,7,8,8,9,9,10,10,11,11,12,12,13,13,14,14,15,15,16,16,17,17,18,18,19,19,20,20,21,21,22,22,23,23,24,24,25,25,26,26,27,27,28,28,29,29,30,30],"right_children":[2,4,6,8,10,12,14,16,18,20,22,24,26,28,30,32,34,36,38,40,42,44,46,48,50,52,54,56,58,60,62,-1,-1,-1,-1,-1,-1,-1,-1,-1,-1,-1,-1,-1,-1,-1,-1,-1,-1,-1,-1,-1,-1,-1,-1,-1,-1,-1,-1,-1,-1,-1,-1],"split_conditions":[5E-1,5E-1,3.0527042E1,5E-1,5E-1,1.65E1,4.6361365E0,9.35E1,5.087249E0,1.85E1,3.1399904E1,5E-1,5.417485E0,-9.07928E1,4.5E0,5E-1,5E-1,7.55E1,3.25E1,8.15E1,5.0616407E0,4.549616E0,3.3364914E1,4.542824E0,4.209482E0,7E0,5.479992E0,1.95E1,-9.068651E1,4.95E1,-8.924246E1,1.1011885E-4,3.6815254E-3,-1.3459479E-2,-6.775525E-2,-5.0643276E-2,3.8101625E-2,-4.0460415E-2,1.9153109E-3,-9.302122E-3,1.0164577E-2,-1.6697643E-3,9.996652E-3,-9.972054E-3,1.495364E-2,3.3656467E-2,7.420553E-3,1.5006441E-2,6.443767E-2,-2.2351451E-1,-1.3292433E-2,-2.9717313E-2,1.1611934E-1,-2.3138265E-1,-1.0092217E-1,-1.7448923E-2,4.9947616E-2,5.1939264E-2,1.8127399E-2,1.8156085E-2,2.23214E-3,-3.5320308E-2,1.4578054E-2],"split_indices":[29,63,68,13,5,64,65,61,65,64,68,56,65,67,66,57,28,61,61,61,65,65,68,65,65,66,65,64,67,61,67,0,0,0,0,0,0,0,0,0,0,0,0,0,0,0,0,0,0,0,0,0,0,0,0,0,0,0,0,0,0,0,0],"split_type":[0,0,0,0,0,0,0,0,0,0,0,0,0,0,0,0,0,0,0,0,0,0,0,0,0,0,0,0,0,0,0,0,0,0,0,0,0,0,0,0,0,0,0,0,0,0,0,0,0,0,0,0,0,0,0,0,0,0,0,0,0,0,0],"sum_hessian":[8.402898E7,8.3182584E7,8.46397E5,7.455358E7,8.628996E6,4.802E4,7.98377E5,7.444712E7,1.06465E5,8.309524E6,3.19472E5,1.5284E4,3.2736E4,4.19147E5,3.7923E5,7.4129976E7,3.17145E5,5.8763E4,4.7702E4,4.090102E6,4.219422E6,6.7892E4,2.5158E5,9.063E3,6.221E3,3.1896E4,8.4E2,3.1215E4,3.87932E5,3.37892E5,4.1338E4,6.592568E7,8.204295E6,3.023E5,1.4845E4,5.5435E4,3.328E3,1.3579E4,3.4123E4,3.851404E6,2.38698E5,3.632412E6,5.8701E5,3.6797E4,3.1095E4,1.33237E5,1.18343E5,5.369E3,3.694E3,2.87E2,5.934E3,3.1534E4,3.62E2,3.92E2,4.48E2,2.597E4,5.245E3,3.2577E4,3.55355E5,1.31411E5,2.06481E5,2.756E4,1.3778E4],"tree_param":{"num_deleted":"0","num_feature":"69","num_nodes":"63","size_leaf_vector":"0"}},{"base_weights":[2.8461163E-4,-4.0697775E-4,1.8972779E-2,-8.9467166E-4,2.6320731E-2,3.549661E-2,6.117254E-3,-7.33443E-3,1.4074275E-3,-1.767438E-2,3.228331E-2,1.9156067E-2,6.364818E-2,6.80733E-2,-1.0279473E-3,-5.4655126E-3,-6.323128E-2,-2.1215409E-2,2.209383E-3,-5.408689E-2,2.4692703E-2,9.901206E-2,2.828733E-2,1.3637668E-2,6.609249E-2,6.414213E-2,-8.1445414E-1,8.0674686E-2,-1.6288076E-2,9.164391E-3,-1.6517883E-2,-3.847772E-2,-3.864654E-3,-3.7603043E-2,-1.0864909E-1,1.5310778E-1,-2.3378761E-2,-1.73756E-2,3.1624825E-3,-4.7091223E-2,-2.9127482E-1,-4.9227174E-2,4.978174E-2,2.062791E-1,4.7957834E-2,3.1410407E-2,-3.8578626E-2,2.9127825E-2,-6.701841E-3,4.9347955E-1,5.895269E-2,1.2479924E-1,5.7956573E-2,-9.036669E-1,-4.8566148E-1,-2.4567671E-2,9.341144E-2,-1.4691434E-3,-2.0258868E-1,-3.6477651E-3,2.0461066E-2,-1.7819256E-1,-1.4465673E-2],"categories":[],"categories_nodes":[],"categories_segments":[],"categories_sizes":[],"default_left":[1,1,1,1,1,1,1,1,1,1,1,1,1,1,1,1,1,1,1,1,1,1,1,1,1,1,1,1,1,1,1,0,0,0,0,0,0,0,0,0,0,0,0,0,0,0,0,0,0,0,0,0,0,0,0,0,0,0,0,0,0,0,0],"id":19,"left_children":[1,3,5,7,9,11,13,15,17,19,21,23,25,27,29,31,33,35,37,39,41,43,45,47,49,51,53,55,57,59,61,-1,-1,-1,-1,-1,-1,-1,-1,-1,-1,-1,-1,-1,-1,-1,-1,-1,-1,-1,-1,-1,-1,-1,-1,-1,-1,-1,-1,-1,-1,-1,-1],"loss_changes":[1.0860358E3,1.0562252E3,6.3698535E2,1.1797448E3,3.8090735E2,6.035939E2,7.4661395E2,2.1892334E3,1.0635492E3,2.6735907E2,3.4096912E2,2.150394E2,2.090719E2,1.8539221E2,2.3873698E2,1.071665E3,7.891814E2,7.568664E2,1.0568007E3,1.5463693E2,1.485616E2,3.9565717E2,2.5195007E2,2.3405547E2,2.6649164E2,1.8070056E2,7.5102386E0,2.0338556E2,6.257269E1,1.3200351E2,1.9911078E2,0E0,0E0,0E0,0E0,0E0,0E0,0E0,0E0,0E0,0E0,0E0,0E0,0E0,0E0,0E0,0E0,0E0,0E0,0E0,0E0,0E0,0E0,0E0,0E0,0E0,0E0,0E0,0E0,0E0,0E0,0E0,0E0],"parents":[2147483647,0,0,1,1,2,2,3,3,4,4,5,5,6,6,7,7,8,8,9,9,10,10,11,11,12,12,13,13,14,14,15,15,16,16,17,17,18,18,19,19,20,20,21,21,22,22,23,23,24,24,25,25,26,26,27,27,28,28,29,29,30,30],"right_children":[2,4,6,8,10,12,14,16,18,20,22,24,26,28,30,32,34,36,38,40,42,44,46,48,50,52,54,56,58,60,62,-1,-1,-1,-1,-1,-1,-1,-1,-1,-1,-1,-1,-1,-1,-1,-1,-1,-1,-1,-1,-1,-1,-1,-1,-1,-1,-1,-1,-1,-1,-1,-1],"split_conditions":[5E-1,5E-1,5E-1,1.5E0,3.302159E1,4.2963142E1,3.45E1,5E-1,2.55E1,5.75E1,3.3114933E1,-8.297153E1,5.5330667E0,2.15E1,4.913761E0,4.0757294E0,4.765296E0,1.15E1,2.8545708E1,5.65E1,4.52692E0,4.426508E0,-7.893495E1,4.245271E1,4.035425E0,1.45E1,1.75E1,2.55E1,2.35E1,1.75E1,4.9157953E0,-1.1543316E-2,-1.1593963E-3,-1.1280913E-2,-3.259473E-2,4.5932334E-2,-7.0136287E-3,-5.21268E-3,9.4874477E-4,-1.4127367E-2,-8.738245E-2,-1.47681525E-2,1.4934522E-2,6.1883733E-2,1.43873505E-2,9.423123E-3,-1.15735885E-2,8.738348E-3,-2.0105524E-3,1.4804387E-1,1.7685808E-2,3.743977E-2,1.7386973E-2,-2.7110007E-1,-1.4569844E-1,-7.3703015E-3,2.8023433E-2,-4.4074305E-4,-6.0776606E-2,-1.0943296E-3,6.13832E-3,-5.345777E-2,-4.339702E-3],"split_indices":[27,45,56,66,68,68,61,56,61,61,68,67,65,64,65,65,65,64,68,61,65,65,67,68,65,64,64,61,64,64,65,0,0,0,0,0,0,0,0,0,0,0,0,0,0,0,0,0,0,0,0,0,0,0,0,0,0,0,0,0,0,0,0],"split_type":[0,0,0,0,0,0,0,0,0,0,0,0,0,0,0,0,0,0,0,0,0,0,0,0,0,0,0,0,0,0,0,0,0,0,0,0,0,0,0,0,0,0,0,0,0,0,0,0,0,0,0,0,0,0,0,0,0,0,0,0,0,0,0],"sum_hessian":[8.402898E7,8.10303E7,2.998672E6,7.9578264E7,1.452044E6,1.312128E6,1.686544E6,2.0956308E7,5.8621956E7,1.73305E5,1.278739E6,8.30226E5,4.81902E5,1.74391E5,1.512153E6,2.0278302E7,6.78006E5,2.006941E6,5.6615016E7,9.3202E4,8.0103E4,7.2248E4,1.206491E6,7.42885E5,8.7341E4,4.81632E5,2.7E2,1.51727E5,2.2664E4,9.12036E5,6.00117E5,9.37873E5,1.9340428E7,4.33432E5,2.44574E5,2.46E4,1.982341E6,2.627301E6,5.398771E7,9.0533E4,2.669E3,2.0298E4,5.9805E4,2.3297E4,4.8951E4,1.152655E6,5.3836E4,4.21715E5,3.2117E5,1.434E3,8.5907E4,4.4568E4,4.37064E5,2.11E2,5.9E1,1.638E4,1.35347E5,2.0995E4,1.669E3,4.27353E5,4.84683E5,7.521E3,5.92596E5],"tree_param":{"num_deleted":"0","num_feature":"69","num_nodes":"63","size_leaf_vector":"0"}},{"base_weights":[1.9922828E-4,6.666563E-4,-2.174986E-2,-8.724213E-3,1.7209759E-3,-3.6090743E-2,-1.1023681E-2,-6.483375E-2,1.3335994E-3,5.1503507E-3,-1.3363939E-3,-4.2512443E-2,3.518565E-2,-2.3064876E-2,3.6487307E-2,-2.5616491E-2,-1.071036E-1,-6.5737553E-3,1.5670449E-2,-2.2128304E-3,9.915827E-3,-6.4797356E-4,-6.2023282E-2,1.07732825E-2,-5.3351767E-2,-6.983776E-2,8.793328E-2,-2.5726734E-2,1.2330738E-1,-3.419862E-2,6.253753E-2,-4.2099636E-2,4.4008236E-2,2.077387E-2,-1.2981363E-1,-2.8611636E-2,2.1571745E-3,1.03300335E-2,5.0474014E-2,2.0309933E-3,-3.277299E-2,1.0805123E-2,-3.105296E-2,-1.0949838E-2,2.7303826E-3,-2.6316712E-2,-1.73822E-1,-1.764326E-2,8.562719E-2,-1.66532E-1,-4.9501203E-2,1.0758391E-1,-1.3530822E-1,2.83353E-2,2.1310706E-1,-2.5020752E-2,-5.3279394E-1,1.7620847E-1,-8.843281E-2,-1.758238E-2,-5.0024873E-1,7.1084544E-2,-1.4199698E-1],"categories":[],"categories_nodes":[],"categories_segments":[],"categories_sizes":[],"default_left":[1,1,1,1,1,1,1,1,1,1,1,1,1,1,1,1,1,1,1,1,1,1,1,1,1,1,1,1,1,1,1,0,0,0,0,0,0,0,0,0,0,0,0,0,0,0,0,0,0,0,0,0,0,0,0,0,0,0,0,0,0,0,0],"id":20,"left_children":[1,3,5,7,9,11,13,15,17,19,21,23,25,27,29,31,33,35,37,39,41,43,45,47,49,51,53,55,57,59,61,-1,-1,-1,-1,-1,-1,-1,-1,-1,-1,-1,-1,-1,-1,-1,-1,-1,-1,-1,-1,-1,-1,-1,-1,-1,-1,-1,-1,-1,-1,-1,-1],"loss_changes":[8.621053E2,8.146208E2,2.6952313E2,4.68677E3,7.7558594E2,3.4317426E2,5.734732E2,2.0926694E3,7.983833E2,1.2233757E3,1.6338181E3,3.972522E2,3.4328693E2,3.115971E2,3.7322308E2,7.515199E2,1.7643857E3,8.733608E2,4.6530652E2,1.7766207E3,7.711533E2,1.345791E3,1.7510516E3,2.472969E2,2.4906714E2,2.4067236E2,3.077233E2,2.8116217E2,1.600148E2,4.2267422E2,2.5891937E2,0E0,0E0,0E0,0E0,0E0,0E0,0E0,0E0,0E0,0E0,0E0,0E0,0E0,0E0,0E0,0E0,0E0,0E0,0E0,0E0,0E0,0E0,0E0,0E0,0E0,0E0,0E0,0E0,0E0,0E0,0E0,0E0],"parents":[2147483647,0,0,1,1,2,2,3,3,4,4,5,5,6,6,7,7,8,8,9,9,10,10,11,11,12,12,13,13,14,14,15,15,16,16,17,17,18,18,19,19,20,20,21,21,22,22,23,23,24,24,25,25,26,26,27,27,28,28,29,29,30,30],"right_children":[2,4,6,8,10,12,14,16,18,20,22,24,26,28,30,32,34,36,38,40,42,44,46,48,50,52,54,56,58,60,62,-1,-1,-1,-1,-1,-1,-1,-1,-1,-1,-1,-1,-1,-1,-1,-1,-1,-1,-1,-1,-1,-1,-1,-1,-1,-1,-1,-1,-1,-1,-1,-1],"split_conditions":[5E-1,-1.1813502E2,1.5E0,3.4182125E1,3.8813843E1,4.31715E1,2.05E1,3.40177E1,-1.216901E2,3.3073776E1,5E-1,3.2423073E1,-1.1742139E2,5E-1,5E-1,7.15E1,-1.18501175E2,4.35E1,5E-1,3.271943E1,5E-1,4.5158806E0,-7.714936E1,3.0751556E1,3.2834213E1,-1.22792816E2,4.529579E1,1.15E1,4.650535E0,5E-1,5E-1,-1.2629892E-2,1.3202472E-2,6.2321615E-3,-3.8944088E-2,-8.583491E-3,6.4715237E-4,3.09901E-3,1.5142205E-2,6.09298E-4,-9.831898E-3,3.241537E-3,-9.315888E-3,-3.2849514E-3,8.191148E-4,-7.895014E-3,-5.2146602E-2,-5.292978E-3,2.5688158E-2,-4.99596E-2,-1.4850361E-2,3.2275174E-2,-4.059247E-2,8.50059E-3,6.393212E-2,-7.5062257E-3,-1.5983818E-1,5.2862544E-2,-2.6529845E-2,-5.274714E-3,-1.5007463E-1,2.1325365E-2,-4.2599097E-2],"split_indices":[59,67,66,68,68,68,64,68,67,68,51,68,67,29,62,61,67,61,60,68,33,65,67,68,68,67,68,66,65,40,15,0,0,0,0,0,0,0,0,0,0,0,0,0,0,0,0,0,0,0,0,0,0,0,0,0,0,0,0,0,0,0,0],"split_type":[0,0,0,0,0,0,0,0,0,0,0,0,0,0,0,0,0,0,0,0,0,0,0,0,0,0,0,0,0,0,0,0,0,0,0,0,0,0,0,0,0,0,0,0,0,0,0,0,0,0,0,0,0,0,0,0,0,0,0,0,0,0,0],"sum_hessian":[8.402898E7,8.227682E7,1.752167E6,8.30488E6,7.397194E7,7.4975E5,1.002417E6,1.262388E6,7.042492E6,3.4864876E7,3.9107056E7,6.87784E5,6.1966E4,7.99733E5,2.02684E5,6.5484E5,6.07548E5,4.539032E6,2.50346E6,1.3698773E7,2.1166102E7,3.8668412E7,4.38646E5,1.16259E5,5.71525E5,2.0717E4,4.1249E4,7.8545E5,1.4283E4,5.4581E4,1.48103E5,5.29488E5,1.25352E5,9.1624E4,5.15924E5,1.287991E6,3.251041E6,2.170422E6,3.33038E5,1.2028414E7,1.670359E6,2.0716418E7,4.49684E5,9.549236E6,2.9119176E7,3.32464E5,1.06182E5,8.4269E4,3.199E4,1.8803E4,5.52722E5,5.584E3,1.5133E4,2.7945E4,1.3304E4,7.84359E5,1.091E3,1.1428E4,2.855E3,5.2703E4,1.878E3,1.42163E5,5.94E3],"tree_param":{"num_deleted":"0","num_feature":"69","num_nodes":"63","size_leaf_vector":"0"}},{"base_weights":[1.3946471E-4,-1.0317385E-2,1.089215E-3,-1.7270487E-2,6.2583485E-3,1.1378425E-3,-1.8313491E-1,-2.0833945E-2,1.9517317E-2,3.4943136E-4,2.4291875E-2,1.427495E-3,-3.01084E-2,-2.14207E-1,7.351945E-2,1.1098381E-1,-2.1922316E-2,3.7410844E-2,-3.6679514E-2,1.6342092E-3,-7.684661E-2,5.038711E-2,5.5482374E-3,1.7120697E-3,-3.0195365E-2,-5.262341E-2,2.360716E-3,-1.1941591E-1,-3.3056176E-1,9.754759E-2,-3.3933952E-1,1.01856604E-1,8.937675E-1,-1.7394373E-1,-2.1315686E-2,3.9635044E-2,-2.3479499E-1,2.4628377E-2,-1.4615937E-1,1.1661328E-2,-7.5998013E-3,-5.348003E-2,-4.016122E-1,-4.582212E-1,5.227036E-2,7.189129E-3,-3.4137875E-1,6.7364116E-4,1.1574211E-2,-1.6181145E-2,-1.0392058E-1,3.653801E-2,-6.931762E-2,1.5104511E-1,-5.4122773E-3,-2.983374E-1,-3.940593E-2,-3.9882046E-1,-1.2150144E-1,3.460493E-1,7.60516E-2],"categories":[],"categories_nodes":[],"categories_segments":[],"categories_sizes":[],"default_left":[1,1,1,1,1,1,1,1,1,1,1,1,1,1,1,1,1,1,1,1,1,1,1,1,1,1,1,1,1,1,0,0,0,0,0,0,0,0,0,0,0,0,0,0,0,0,0,0,0,0,0,0,0,0,0,0,0,0,0,0,0],"id":21,"left_children":[1,3,5,7,9,11,13,15,17,19,21,23,25,27,29,31,33,35,37,39,41,43,45,47,49,51,53,55,57,59,-1,-1,-1,-1,-1,-1,-1,-1,-1,-1,-1,-1,-1,-1,-1,-1,-1,-1,-1,-1,-1,-1,-1,-1,-1,-1,-1,-1,-1,-1,-1],"loss_changes":[8.345251E2,8.0636884E2,6.9008453E2,6.461456E2,2.203176E2,6.970024E2,1.6212714E2,6.446957E2,4.377023E2,1.5445306E2,2.495828E2,6.8667175E2,5.170993E2,1.9995648E2,2.1817932E1,2.6282413E2,4.110127E2,1.9989963E2,7.0560034E2,1.4183118E2,1.9344385E2,2.0433429E2,1.6905676E2,7.744776E2,7.031372E2,6.2174023E2,3.3475134E2,1.4305739E2,1.161109E2,1.1063238E1,0E0,0E0,0E0,0E0,0E0,0E0,0E0,0E0,0E0,0E0,0E0,0E0,0E0,0E0,0E0,0E0,0E0,0E0,0E0,0E0,0E0,0E0,0E0,0E0,0E0,0E0,0E0,0E0,0E0,0E0,0E0],"parents":[2147483647,0,0,1,1,2,2,3,3,4,4,5,5,6,6,7,7,8,8,9,9,10,10,11,11,12,12,13,13,14,14,15,15,16,16,17,17,18,18,19,19,20,20,21,21,22,22,23,23,24,24,25,25,26,26,27,27,28,28,29,29],"right_children":[2,4,6,8,10,12,14,16,18,20,22,24,26,28,30,32,34,36,38,40,42,44,46,48,50,52,54,56,58,60,-1,-1,-1,-1,-1,-1,-1,-1,-1,-1,-1,-1,-1,-1,-1,-1,-1,-1,-1,-1,-1,-1,-1,-1,-1,-1,-1,-1,-1,-1,-1],"split_conditions":[1.55E1,7.55E1,6.3376026E1,5E-1,8.65E1,6.5E0,5.2153473E0,2.05E1,5E-1,5E-1,3.7893234E1,9.05E1,1.95E1,4.843854E0,5E-1,4.8642746E1,2.5932564E1,5E-1,6.25E1,5E-1,8.55E1,-1.5794882E2,-7.03405E1,5E-1,4.225978E1,5E-1,3.15E1,4.25E1,5.0819025E0,3.6E1,-1.01801865E-1,3.0556982E-2,2.6813024E-1,-5.218312E-2,-6.394706E-3,1.1890514E-2,-7.04385E-2,7.388513E-3,-4.384781E-2,3.4983987E-3,-2.2799405E-3,-1.604401E-2,-1.2048366E-1,-1.3746637E-1,1.5681108E-2,2.156739E-3,-1.0241363E-1,2.0209236E-4,3.4722632E-3,-4.854344E-3,-3.1176174E-2,1.0961403E-2,-2.0795286E-2,4.5313537E-2,-1.6236833E-3,-8.9501224E-2,-1.1821779E-2,-1.1964614E-1,-3.6450434E-2,1.03814796E-1,2.281548E-2],"split_indices":[64,61,68,3,61,66,65,61,9,8,68,61,64,65,59,68,68,10,61,62,61,67,67,57,68,0,61,61,65,61,0,0,0,0,0,0,0,0,0,0,0,0,0,0,0,0,0,0,0,0,0,0,0,0,0,0,0,0,0,0,0],"split_type":[0,0,0,0,0,0,0,0,0,0,0,0,0,0,0,0,0,0,0,0,0,0,0,0,0,0,0,0,0,0,0,0,0,0,0,0,0,0,0,0,0,0,0,0,0,0,0,0,0,0,0,0,0,0,0,0,0,0,0,0,0],"sum_hessian":[8.402898E7,6.996523E6,7.7032456E7,4.928952E6,2.067571E6,7.701213E7,2.0327E4,4.493672E6,4.3528E5,1.557302E6,5.10269E5,7.630478E7,7.07344E5,1.8132E4,2.195E3,3.6798E4,4.456874E6,3.30156E5,1.05124E5,1.531809E6,2.5493E4,2.13303E5,2.96966E5,7.562424E7,6.80543E5,4.17699E5,2.89645E5,9.993E3,8.139E3,2.075E3,1.2E2,3.6375E4,4.23E2,1.7713E4,4.439161E6,3.27481E5,2.675E3,6.7388E4,3.7736E4,7.34367E5,7.97442E5,2.3783E4,1.71E3,7.86E2,2.12517E5,2.95569E5,1.397E3,6.842E7,7.204244E6,5.71844E5,1.08699E5,6.5874E4,3.51825E5,1.4389E4,2.75256E5,3.087E3,6.906E3,6.135E3,2.004E3,1.64E2,1.911E3],"tree_param":{"num_deleted":"0","num_feature":"69","num_nodes":"61","size_leaf_vector":"0"}},{"base_weights":[9.760085E-5,-1.5937093E-4,3.8080327E-2,2.43372E-4,-3.207795E-2,7.304721E-2,2.2426357E-2,-2.1855484E-3,3.5271663E-3,2.3309782E-2,-5.459686E-2,1.139409E-1,4.542399E-2,-4.8426967E-2,3.809615E-2,-5.048904E-3,5.422172E-3,-1.0950309E-3,9.5912395E-3,-8.2523964E-2,3.238033E-2,-1.006665E-1,3.2630423E-3,2.850563E-1,1.0294262E-1,1.1584284E-1,2.9718908E-2,-1.268088E-1,-1.7285697E-3,6.4899266E-2,1.9543549E-2,1.9336972E-4,-1.18644675E-2,1.0623502E-2,-2.9880188E-3,4.9675237E-3,-1.3006049E-2,6.230336E-3,2.2433972E-2,-9.5470294E-2,5.106929E-1,-1.0662251E-2,5.2606877E-2,-5.1576927E-2,-1.3780196E-1,-1.3609922E-1,8.679863E-3,-1.1219107E-1,3.832066E-1,2.3987947E-1,9.364294E-2,7.416458E-1,1.0864277E-1,-4.7889662E-1,3.2732412E-2,-1.8581852E-1,-6.0526095E-2,8.429141E-2,-2.6447883E-2,8.320737E-2,1.3326943E-2,-3.4033224E-1,2.1444678E-2],"categories":[],"categories_nodes":[],"categories_segments":[],"categories_sizes":[],"default_left":[1,1,1,1,1,1,1,1,1,1,1,1,1,1,1,1,1,1,1,1,1,1,1,1,1,1,1,1,1,1,1,0,0,0,0,0,0,0,0,0,0,0,0,0,0,0,0,0,0,0,0,0,0,0,0,0,0,0,0,0,0,0,0],"id":22,"left_children":[1,3,5,7,9,11,13,15,17,19,21,23,25,27,29,31,33,35,37,39,41,43,45,47,49,51,53,55,57,59,61,-1,-1,-1,-1,-1,-1,-1,-1,-1,-1,-1,-1,-1,-1,-1,-1,-1,-1,-1,-1,-1,-1,-1,-1,-1,-1,-1,-1,-1,-1,-1,-1],"loss_changes":[8.2016394E2,1.0729321E3,3.0908594E2,6.5742236E2,1.2971823E3,1.9724835E2,4.330664E2,1.032092E3,9.822881E2,2.8858606E2,1.9709312E3,1.3245978E2,1.1525922E2,2.5857114E2,1.5883444E2,1.2299102E3,5.667517E2,1.4360477E3,6.5427686E2,1.8230234E2,2.4105914E2,7.5039795E2,2.4742734E2,1.6578934E2,8.421625E1,8.55526E1,1.3063069E2,1.03145996E2,9.413384E1,1.2336316E2,1.2915277E2,0E0,0E0,0E0,0E0,0E0,0E0,0E0,0E0,0E0,0E0,0E0,0E0,0E0,0E0,0E0,0E0,0E0,0E0,0E0,0E0,0E0,0E0,0E0,0E0,0E0,0E0,0E0,0E0,0E0,0E0,0E0,0E0],"parents":[2147483647,0,0,1,1,2,2,3,3,4,4,5,5,6,6,7,7,8,8,9,9,10,10,11,11,12,12,13,13,14,14,15,15,16,16,17,17,18,18,19,19,20,20,21,21,22,22,23,23,24,24,25,25,26,26,27,27,28,28,29,29,30,30],"right_children":[2,4,6,8,10,12,14,16,18,20,22,24,26,28,30,32,34,36,38,40,42,44,46,48,50,52,54,56,58,60,62,-1,-1,-1,-1,-1,-1,-1,-1,-1,-1,-1,-1,-1,-1,-1,-1,-1,-1,-1,-1,-1,-1,-1,-1,-1,-1,-1,-1,-1,-1,-1,-1],"split_conditions":[-7.076807E1,-7.119832E1,4.3620293E1,1.95E1,4.223207E1,5E-1,-7.013301E1,6.85E1,5E-1,4.2557545E0,4.244949E1,2.95E1,4.635483E0,4.6634645E0,5E-1,5E-1,4.0251526E1,2.15E1,5E-1,2.3E1,-7.108604E1,4.234025E1,4.156849E0,4.40478E0,1.55E1,2.55E1,1.35E1,5.95E1,1.75E1,5E-1,9.5E0,5.801092E-5,-3.5593405E-3,3.1870506E-3,-8.9640566E-4,1.4902572E-3,-3.9018148E-3,1.869101E-3,6.730192E-3,-2.864109E-2,1.5320787E-1,-3.1986756E-3,1.5782064E-2,-1.5473079E-2,-4.134059E-2,-4.0829767E-2,2.603959E-3,-3.3657324E-2,1.1496199E-1,7.196385E-2,2.8092884E-2,2.2249375E-1,3.2592833E-2,-1.43669E-1,9.819724E-3,-5.574556E-2,-1.8157829E-2,2.5287425E-2,-7.934365E-3,2.4962211E-2,3.998083E-3,-1.0209968E-1,6.4334036E-3],"split_indices":[67,67,68,64,68,56,67,61,62,65,68,61,65,65,56,62,68,64,58,64,67,68,65,65,64,61,64,61,64,57,64,0,0,0,0,0,0,0,0,0,0,0,0,0,0,0,0,0,0,0,0,0,0,0,0,0,0,0,0,0,0,0,0],"split_type":[0,0,0,0,0,0,0,0,0,0,0,0,0,0,0,0,0,0,0,0,0,0,0,0,0,0,0,0,0,0,0,0,0,0,0,0,0,0,0,0,0,0,0,0,0,0,0,0,0,0,0,0,0,0,0,0,0,0,0,0,0,0,0],"sum_hessian":[8.402898E7,8.34643E7,5.64676E5,8.242429E7,1.040014E6,1.74619E5,3.90057E5,4.7379296E7,3.504499E7,3.00616E5,7.39398E5,7.0398E4,1.04221E5,7.0641E4,3.19416E5,3.442325E7,1.2956048E7,1.988677E7,1.5158222E7,2.373E4,2.76886E5,4.11639E5,3.27759E5,4.25E3,6.6148E4,1.9004E4,8.5217E4,2.6373E4,4.4268E4,1.30655E5,1.88761E5,1.9457374E7,1.4965875E7,8.005192E6,4.950856E6,1.3178887E7,6.707883E6,1.2014156E7,3.144066E6,2.3224E4,5.06E2,8.8518E4,1.88368E5,1.77286E5,2.34353E5,1.2262E4,3.15497E5,8.42E2,3.408E3,4.205E3,6.1943E4,2.15E2,1.8789E4,5.01E2,8.4716E4,1.3951E4,1.2422E4,9.881E3,3.4387E4,9.6424E4,3.4231E4,9.91E2,1.8777E5],"tree_param":{"num_deleted":"0","num_feature":"69","num_nodes":"63","size_leaf_vector":"0"}},{"base_weights":[6.833243E-5,-7.1227533E-4,9.540413E-3,-5.8160336E-3,1.2550252E-3,1.5126204E-2,-2.0275745E-3,-1.1920562E-2,2.4588814E-3,1.1611229E-2,-1.6253735E-3,1.3040593E-2,8.773726E-2,-4.8442677E-2,1.5148931E-3,-1.0166914E-2,-1.0018598E-1,3.9518396E-3,-4.0469814E-2,3.270629E-2,7.045821E-3,-4.424455E-2,-3.6959886E-5,4.277474E-2,1.0070802E-2,1.6641076E-1,6.354859E-2,-7.375032E-2,2.9336367E-2,3.300977E-3,-5.1679824E-2,-8.48322E-3,-5.3778607E-2,-1.4296359E-1,7.1171266E-3,7.1237837E-3,-1.0861062E-2,-1.2992901E-2,-1.0607674E-1,2.8261418E-2,1.03571974E-1,2.1640543E-2,2.1852981E-3,2.988379E-2,-8.572208E-2,-3.3684617E-3,7.7703414E-3,-1.5082896E-1,5.0635975E-2,8.55011E-3,4.1900832E-2,2.9948193E-1,1.22287735E-1,1.3342404E-1,3.4833655E-2,-1.38087375E-2,-1.5001144E-1,3.2873098E-2,-6.9610167E-1,2.455304E-2,-1.8263362E-4,-4.4489373E-2,-5.904758E-1],"categories":[],"categories_nodes":[],"categories_segments":[],"categories_sizes":[],"default_left":[1,1,1,1,1,1,1,1,1,1,1,1,1,1,1,1,1,1,1,1,1,1,1,1,1,1,1,1,1,1,1,0,0,0,0,0,0,0,0,0,0,0,0,0,0,0,0,0,0,0,0,0,0,0,0,0,0,0,0,0,0,0,0],"id":23,"left_children":[1,3,5,7,9,11,13,15,17,19,21,23,25,27,29,31,33,35,37,39,41,43,45,47,49,51,53,55,57,59,61,-1,-1,-1,-1,-1,-1,-1,-1,-1,-1,-1,-1,-1,-1,-1,-1,-1,-1,-1,-1,-1,-1,-1,-1,-1,-1,-1,-1,-1,-1,-1,-1],"loss_changes":[6.2130853E2,7.7946655E2,4.1339648E2,1.091035E3,1.6714585E3,6.5336755E2,3.425426E2,1.9238768E3,5.876632E2,1.1742991E3,2.967803E3,3.7034357E2,2.292315E2,2.907847E2,1.8389854E2,8.9488367E2,1.1114282E3,4.1634363E2,5.5552386E2,6.83324E2,7.110718E2,4.84318E3,1.0992986E3,5.7964154E2,1.8456815E2,1.662854E2,1.8486539E2,5.095006E2,9.307242E1,1.3864235E2,2.4357481E2,0E0,0E0,0E0,0E0,0E0,0E0,0E0,0E0,0E0,0E0,0E0,0E0,0E0,0E0,0E0,0E0,0E0,0E0,0E0,0E0,0E0,0E0,0E0,0E0,0E0,0E0,0E0,0E0,0E0,0E0,0E0,0E0],"parents":[2147483647,0,0,1,1,2,2,3,3,4,4,5,5,6,6,7,7,8,8,9,9,10,10,11,11,12,12,13,13,14,14,15,15,16,16,17,17,18,18,19,19,20,20,21,21,22,22,23,23,24,24,25,25,26,26,27,27,28,28,29,29,30,30],"right_children":[2,4,6,8,10,12,14,16,18,20,22,24,26,28,30,32,34,36,38,40,42,44,46,48,50,52,54,56,58,60,62,-1,-1,-1,-1,-1,-1,-1,-1,-1,-1,-1,-1,-1,-1,-1,-1,-1,-1,-1,-1,-1,-1,-1,-1,-1,-1,-1,-1,-1,-1,-1,-1],"split_conditions":[5.2313547E0,-9.5281204E1,4.0717865E1,3.7812645E1,-8.80466E1,-7.410994E1,4.0786064E1,3.774543E1,8.55E1,3.65E1,-8.7626816E1,3.65E1,5E-1,-7.3835464E1,7.85E1,-9.552368E1,-1.2223506E2,5E-1,-1.05115906E2,4.5134186E1,3.4719017E1,4.1803036E1,4.093123E1,-1.2239973E2,5E-1,3.95E1,4.0608864E1,5E-1,5E-1,5E-1,5.6659555E0,-2.544966E-3,-1.6133582E-2,-4.2889077E-2,2.135138E-3,2.1371352E-3,-3.2583189E-3,-3.8978704E-3,-3.1823024E-2,8.478425E-3,3.1071594E-2,6.492163E-3,6.5558945E-4,8.965137E-3,-2.5716625E-2,-1.0105385E-3,2.3311025E-3,-4.5248687E-2,1.5190793E-2,2.5650333E-3,1.257025E-2,8.9844584E-2,3.6686324E-2,4.0027216E-2,1.0450097E-2,-4.1426215E-3,-4.5003433E-2,9.861929E-3,-2.088305E-1,7.365912E-3,-5.479009E-5,-1.3346813E-2,-1.7714274E-1],"split_indices":[65,67,68,68,67,67,68,68,61,61,67,61,0,67,61,67,67,58,67,68,68,68,68,67,60,61,68,37,59,56,65,0,0,0,0,0,0,0,0,0,0,0,0,0,0,0,0,0,0,0,0,0,0,0,0,0,0,0,0,0,0,0,0],"split_type":[0,0,0,0,0,0,0,0,0,0,0,0,0,0,0,0,0,0,0,0,0,0,0,0,0,0,0,0,0,0,0,0,0,0,0,0,0,0,0,0,0,0,0,0,0,0,0,0,0,0,0,0,0,0,0,0,0,0,0,0,0,0,0],"sum_hessian":[8.402898E7,7.763127E7,6.397704E6,2.1598468E7,5.603281E7,4.314417E6,2.083287E6,1.2429235E7,9.169234E6,1.219322E7,4.3839584E7,4.193955E6,1.20462E5,1.47724E5,1.935563E6,1.2187104E7,2.42131E5,8.861068E6,3.08166E5,2.169368E6,1.0023852E7,1.57519E6,4.2264396E7,3.80845E5,3.81311E6,2.8326E4,9.2136E4,1.11458E5,3.6266E4,1.872686E6,6.2877E4,1.1734093E7,4.53011E5,1.73116E5,6.9015E4,7.298263E6,1.562805E6,2.17201E5,9.0965E4,2.041332E6,1.28036E5,2.504268E6,7.519584E6,5.65153E5,1.010037E6,2.9623548E7,1.2640847E7,1.486E4,3.65985E5,3.639245E6,1.73865E5,7.052E3,2.1274E4,2.6834E4,6.5302E4,6.2407E4,4.9051E4,3.6091E4,1.75E2,2.63736E5,1.60895E6,6.205E4,8.27E2],"tree_param":{"num_deleted":"0","num_feature":"69","num_nodes":"63","size_leaf_vector":"0"}},{"base_weights":[4.7830476E-5,8.6924445E-4,-8.660332E-3,2.1149076E-3,-5.6995344E-3,-5.1520165E-2,5.602395E-3,2.6548968E-3,-1.50778135E-2,-1.0098355E-2,5.9615327E-3,-6.916904E-2,1.221939E-2,4.5907307E-2,-1.5490834E-3,-2.0174561E-2,3.1407482E-3,1.0570713E-1,-1.7284302E-2,-8.19438E-3,-4.1940324E-2,-2.5518626E-2,2.47011E-2,7.076855E-2,-7.9345554E-2,4.665558E-2,-3.56534E-2,1.00909054E-1,3.4998752E-2,-5.170655E-3,2.4431337E-2,1.8543294E-2,-3.0835904E-2,-3.3793848E-2,3.3851522E-3,9.627999E-2,6.961418E-1,-2.7207691E-2,5.7347133E-3,-2.1239275E-2,-3.1286504E-3,-5.0823484E-2,2.338736E-2,1.6576837E-1,-2.7124634E-2,-4.301986E-3,3.010289E-2,1.06561385E-1,-8.918706E-2,-3.4499787E-2,-1.12286985E-1,2.9241177E-1,3.9699767E-2,-5.062898E-2,6.0438175E-2,9.831753E-2,8.1206113E-1,2.7496656E-2,8.141206E-2,9.713062E-3,-1.8472474E-2,4.901372E-2,1.3426307E-2],"categories":[],"categories_nodes":[],"categories_segments":[],"categories_sizes":[],"default_left":[1,1,1,1,1,1,1,1,1,1,1,1,1,1,1,1,1,1,1,1,1,1,1,1,1,1,1,1,1,1,1,0,0,0,0,0,0,0,0,0,0,0,0,0,0,0,0,0,0,0,0,0,0,0,0,0,0,0,0,0,0,0,0],"id":24,"left_children":[1,3,5,7,9,11,13,15,17,19,21,23,25,27,29,31,33,35,37,39,41,43,45,47,49,51,53,55,57,59,61,-1,-1,-1,-1,-1,-1,-1,-1,-1,-1,-1,-1,-1,-1,-1,-1,-1,-1,-1,-1,-1,-1,-1,-1,-1,-1,-1,-1,-1,-1,-1,-1],"loss_changes":[6.010598E2,6.2830035E2,4.427624E3,5.992366E2,6.2785486E2,2.0344106E3,1.5664421E3,6.941245E2,5.2383484E2,5.38817E2,1.9777668E3,2.0169443E3,6.465062E2,4.9136267E2,4.3427737E2,5.382998E2,5.531393E2,1.9620505E2,4.4092395E2,5.5416797E2,2.9099567E2,3.8432806E2,3.2924805E2,5.497207E2,1.9504512E3,3.8989673E2,2.3610852E2,2.497196E2,2.3796155E2,8.019951E2,1.5276132E2,0E0,0E0,0E0,0E0,0E0,0E0,0E0,0E0,0E0,0E0,0E0,0E0,0E0,0E0,0E0,0E0,0E0,0E0,0E0,0E0,0E0,0E0,0E0,0E0,0E0,0E0,0E0,0E0,0E0,0E0,0E0,0E0],"parents":[2147483647,0,0,1,1,2,2,3,3,4,4,5,5,6,6,7,7,8,8,9,9,10,10,11,11,12,12,13,13,14,14,15,15,16,16,17,17,18,18,19,19,20,20,21,21,22,22,23,23,24,24,25,25,26,26,27,27,28,28,29,29,30,30],"right_children":[2,4,6,8,10,12,14,16,18,20,22,24,26,28,30,32,34,36,38,40,42,44,46,48,50,52,54,56,58,60,62,-1,-1,-1,-1,-1,-1,-1,-1,-1,-1,-1,-1,-1,-1,-1,-1,-1,-1,-1,-1,-1,-1,-1,-1,-1,-1,-1,-1,-1,-1,-1,-1],"split_conditions":[-7.4024414E1,5E-1,-7.378172E1,5.5E0,2.05E1,4.095939E1,4.0979206E1,2.35E1,2.55E1,5E-1,5E-1,2.75E1,-7.387352E1,4.562887E0,-7.076807E1,1.5E0,2.5922619E1,5E-1,2.05E1,-9.66767E1,4.8624296E0,4.05595E0,-1.1777382E2,5E-1,4.0696663E1,4.141447E0,7.55E1,7.5E0,5E-1,-7.188833E1,4.3620293E1,5.562988E-3,-9.250771E-3,-1.0138155E-2,1.0155457E-3,2.8884E-2,2.0884255E-1,-8.162308E-3,1.720414E-3,-6.3717826E-3,-9.3859516E-4,-1.5247046E-2,7.016208E-3,4.9730513E-2,-8.137391E-3,-1.2905959E-3,9.030867E-3,3.196842E-2,-2.675612E-2,-1.0349937E-2,-3.3686098E-2,8.772354E-2,1.1909931E-2,-1.5188694E-2,1.8131454E-2,2.949526E-2,2.4361835E-1,8.248997E-3,2.442362E-2,2.9139188E-3,-5.5417423E-3,1.4704117E-2,4.0278924E-3],"split_indices":[67,58,67,66,64,68,68,61,61,40,62,61,67,65,67,66,68,31,64,67,65,65,67,56,68,65,61,66,63,67,68,0,0,0,0,0,0,0,0,0,0,0,0,0,0,0,0,0,0,0,0,0,0,0,0,0,0,0,0,0,0,0,0],"split_type":[0,0,0,0,0,0,0,0,0,0,0,0,0,0,0,0,0,0,0,0,0,0,0,0,0,0,0,0,0,0,0,0,0,0,0,0,0,0,0,0,0,0,0,0,0,0,0,0,0,0,0,0,0,0,0,0,0,0,0,0,0,0,0],"sum_hessian":[8.402898E7,7.678599E7,7.242984E6,6.4545904E7,1.2240091E7,1.808474E6,5.43451E6,6.258038E7,1.965524E6,8.887517E6,3.352574E6,1.416311E6,3.92163E5,8.18957E5,4.615553E6,1.304068E6,6.127631E7,3.5261E4,1.930263E6,8.386077E6,5.0144E5,1.251018E6,2.101556E6,